transcript_id	position	strand	alignedTo	same_classification?	source	score	z_score	winner	GenomeStart	PredictionStart	GenomeEnd	PredictionEnd
antisense_0	857	-		OTH Found	CNIT	-0.488	-0.021	RNA	0.0	698.0	857.0	796.0
antisense_1	1036	-		OTH Found	CNIT	-0.585	1.004	RNA	857.0	991.0	1036.0	1020.0
antisense_2	2199	-		OTH Found	CNIT	-0.514	0.254	RNA	1311.0	1664.0	2199.0	1699.0
antisense_3	2398	-		OTH Found	CNIT	-0.621	1.387	RNA	2199.0	2271.0	2398.0	2291.0
antisense_4	4463	-	CP053849.1 (4422-3632)	False	QRNA	17.555	0.052	COD	3674.0	3676.0	4461.0	4311.0
antisense_5	11810	-	OU701459.1 (1574227-1573340)	False	QRNA	76.209	2.713	COD	10923.0	10982.0	11810.0	11638.0
antisense_6	12083	-	CP022347.1 (1704204-1703932)	False	QRNA	5.428	-0.499	COD	11811.0	11825.0	12083.0	12040.0
antisense_7	13410	-		OTH Found	CNIT	-0.562	0.759	RNA	12522.0	12589.0	13410.0	12609.0
antisense_8	14046	-		OTH Found	CNIT	-0.6	1.161	RNA	13410.0	13864.0	14046.0	13884.0
antisense_9	14205	-		OTH Found	CNIT	-0.612	1.289	RNA	14046.0	14172.0	14205.0	14198.0
antisense_10	15890	+		OTH Found	CNIT	-0.403	-0.912	RNA	15890.0	16288.0	16550.0	16350.0
antisense_11	16550	+	CP059682.1 (851113-850969)	False	QRNA	9.178	-0.329	COD	16550.0	16550.0	16695.0	16624.0
antisense_12	16714	+		OTH Found	CNIT	-0.43	-0.631	RNA	16714.0	16771.0	17112.0	16806.0
antisense_13	17112	+		OTH Found	CNIT	-0.487	-0.036	RNA	17112.0	17161.0	17546.0	17328.0
antisense_14	18467	-		OTH Found	CNIT	-0.349	-1.485	RNA	17579.0	18090.0	18467.0	18245.0
antisense_15	20156	+	CP043427.1 (7450-6780)	True	QRNA	8.057	-0.316	RNA	20158.0	20158.0	20828.0	20552.0
antisense_16	24677	+	CP059597.1 (23475-24371)	True	QRNA	11.476	0.066	RNA	24677.0	24677.0	25564.0	25564.0
antisense_17	26083	+	AP026014.1 (26317-27198)	True	QRNA	10.346	-0.06	RNA	26083.0	26083.0	26970.0	26970.0
antisense_18	27109	+	CP027634.1 (24609-25495)	True	QRNA	24.048	1.47	RNA	27109.0	27109.0	27992.0	27992.0
antisense_19	36099	-		OTH Found	CNIT	-0.432	-0.608	RNA	35211.0	35759.0	36099.0	35800.0
antisense_20	37461	-		OTH Found	CNIT	-0.531	0.433	RNA	36573.0	37006.0	37461.0	37035.0
orphan_0	38782	+	CP025281.1 (647527-647918)	True	QRNA	15.42	0.506	RNA	38782.0	38782.0	39154.0	39154.0
antisense_21	40236	-		OTH Found	CNIT	-0.324	-1.754	RNA	39348.0	39625.0	40236.0	39894.0
orphan_2	41103	+	CP076657.1 (1457330-1456919)	True	QRNA	11.144	0.029	RNA	41110.0	41110.0	41512.0	41512.0
orphan_3	41335	-	AB644401.1 (649-1)	True	QRNA	15.994	0.57	RNA	40632.0	40632.0	41335.0	41335.0
antisense_23	49707	-	CP076657.1 (500863-501744)	True	QRNA	11.499	0.068	RNA	48820.0	48820.0	49707.0	49707.0
antisense_24	50488	-	CP020478.1 (1333933-1333157)	True	QRNA	20.098	1.029	RNA	49709.0	49709.0	50488.0	50488.0
antisense_25	60022	-	CP092017.1 (52018-51135)	True	QRNA	29.147	2.04	RNA	59135.0	59135.0	60022.0	60022.0
antisense_26	61283	-	CP022440.1 (61286-60399)	True	QRNA	22.215	1.265	RNA	60396.0	60396.0	61283.0	61283.0
antisense_27	62366	-	CP007769.1 (1424377-1425258)	True	QRNA	17.414	0.729	RNA	61479.0	61479.0	62366.0	62366.0
antisense_28	62571	-		OTH Found	CNIT	-0.613	1.303	RNA	62366.0	62414.0	62571.0	62431.0
antisense_29	62832	+		OTH Found	CNIT	0.592	-0.405	COD	62832.0	63017.0	63720.0	63202.0
antisense_30	66266	+	CP063089.1 (1564571-1565241)	False	QRNA	17.591	0.053	COD	66267.0	66375.0	66937.0	66929.0
antisense_31	67632	+	CP037747.1 (1388694-1387824)	False	QRNA	11.581	-0.22	COD	67641.0	67653.0	68517.0	68515.0
antisense_32	71243	-		OTH Found	CNIT	-0.495	0.051	RNA	70355.0	70815.0	71243.0	70835.0
antisense_33	72468	-		OTH Found	CNIT	-0.34	-1.576	RNA	71580.0	72001.0	72468.0	72138.0
antisense_34	73018	-		OTH Found	CNIT	-0.335	-1.629	RNA	72468.0	72757.0	73018.0	72900.0
antisense_35	74603	+		OTH Found	CNIT	-0.559	0.731	RNA	74603.0	74839.0	75130.0	74853.0
antisense_36	75130	+		OTH Found	CNIT	-0.772	2.972	RNA	75130.0	75132.0	75246.0	75149.0
antisense_37	75246	+	CP059597.1 (1300557-1299726)	True	QRNA	20.954	1.124	RNA	75246.0	75246.0	76080.0	76080.0
antisense_38	76200	+	CP059373.1 (1450389-1450870)	True	QRNA	37.743	3.0	RNA	76207.0	76207.0	76699.0	76699.0
antisense_39	76700	+		OTH Found	CNIT	-0.623	1.402	RNA	76700.0	76820.0	77101.0	76840.0
antisense_40	77863	-	CP014744.1 (70151-69430)	True	QRNA	20.217	1.042	RNA	77143.0	77143.0	77863.0	77863.0
antisense_41	78029	-	OU701459.1 (601611-601454)	False	QRNA	9.034	-0.335	COD	77864.0	77894.0	78021.0	78021.0
antisense_42	79023	-	CP053849.1 (622078-621198)	False	QRNA	10.157	-0.284	COD	78136.0	78136.0	79023.0	78943.0
antisense_43	80234	+	CP041617.1 (1037111-1036513)	True	QRNA	9.793	-0.122	RNA	80241.0	80241.0	80842.0	80842.0
antisense_44	81682	+		OTH Found	CNIT	-0.476	-0.15	RNA	81682.0	82223.0	82570.0	82333.0
antisense_45	84627	+	CP022347.1 (233861-234757)	False	QRNA	7.649	-0.398	COD	84627.0	84647.0	85514.0	85470.0
antisense_46	88905	+		OTH Found	CNIT	-0.473	-0.177	RNA	88905.0	89160.0	89335.0	89198.0
antisense_47	89335	+	CP010487.1 (675746-675788)	False	QRNA	1.394	-0.682	COD	89335.0	89338.0	89377.0	89376.0
antisense_48	89378	+	CP041617.1 (1024948-1025814)	True	QRNA	12.099	0.135	RNA	89378.0	89378.0	90263.0	90263.0
antisense_49	92723	-	CP011777.1 (240027-240943)	True	QRNA	17.278	0.714	RNA	91836.0	91836.0	92723.0	92723.0
antisense_50	94415	+	CP044175.1 (1383774-1382855)	True	QRNA	28.604	1.979	RNA	94416.0	94416.0	95291.0	95291.0
antisense_51	99428	+	CP010511.1 (41860-41919)	False	QRNA	0.581	-0.719	COD	99428.0	99435.0	99487.0	99470.0
antisense_52	99488	+		OTH Found	CNIT	-0.415	-0.792	RNA	99488.0	99541.0	100376.0	99639.0
antisense_54	102359	-		OTH Found	CNIT	-0.47	-0.209	RNA	101743.0	102082.0	102359.0	102114.0
antisense_56	103114	-	CP037747.1 (1411786-1411032)	False	QRNA	28.949	0.569	COD	102360.0	102371.0	103114.0	102997.0
antisense_57	103935	-		OTH Found	CNIT	-0.423	-0.705	RNA	103114.0	103356.0	103935.0	103448.0
antisense_58	105989	+	CP020867.1 (671844-672348)	True	QRNA	12.199	0.147	RNA	105990.0	105990.0	106496.0	106496.0
antisense_59	114730	-	CP059375.1 (380015-380902)	True	QRNA	15.065	0.467	RNA	113843.0	113843.0	114730.0	114730.0
antisense_60	115585	-		OTH Found	CNIT	-0.448	-0.44	RNA	114730.0	115469.0	115585.0	115558.0
antisense_61	119739	-	CP012545.1 (311501-310680)	False	QRNA	24.092	0.348	COD	118913.0	118990.0	119737.0	119712.0
antisense_62	119958	-		OTH Found	CNIT	-0.469	-0.219	RNA	119739.0	119857.0	119958.0	119925.0
antisense_63	122674	-	CP022347.1 (1335633-1336497)	False	QRNA	17.15	0.033	COD	121804.0	121830.0	122670.0	122613.0
antisense_64	123679	-	LR134471.1 (162248-161360)	False	QRNA	26.209	0.444	COD	122792.0	122812.0	123679.0	123492.0
antisense_65	128679	-	CP076657.1 (85438-86314)	True	QRNA	8.321	-0.287	RNA	127795.0	127795.0	128673.0	128673.0
antisense_66	135623	-		OTH Found	CNIT	-0.534	0.467	RNA	134735.0	135170.0	135623.0	135202.0
antisense_67	137571	+	CP059597.1 (30754-31639)	True	QRNA	28.549	1.973	RNA	137571.0	137571.0	138456.0	138456.0
antisense_68	139631	+		OTH Found	CNIT	-0.435	-0.576	RNA	139631.0	139647.0	140519.0	139793.0
antisense_69	141624	+		OTH Found	CNIT	-0.419	-0.747	RNA	141624.0	141752.0	142512.0	141886.0
antisense_70	143490	-		OTH Found	CNIT	-0.503	0.139	RNA	143191.0	143229.0	143490.0	143255.0
antisense_71	144400	-	CP059373.1 (1307046-1307948)	True	QRNA	9.172	-0.192	RNA	143513.0	143513.0	144396.0	144396.0
antisense_72	153577	-		OTH Found	CNIT	-0.484	-0.064	RNA	152689.0	152938.0	153577.0	152994.0
antisense_73	158456	-	CP027403.1 (399639-398760)	True	QRNA	18.555	0.856	RNA	157569.0	157569.0	158456.0	158456.0
antisense_74	159909	-		OTH Found	CNIT	-0.393	-1.021	RNA	159021.0	159117.0	159909.0	159194.0
antisense_75	169230	+	CP059597.1 (1364845-1363958)	True	QRNA	24.01	1.466	RNA	169230.0	169230.0	170117.0	170117.0
antisense_76	171691	+		OTH Found	CNIT	-0.44	-0.525	RNA	171691.0	172172.0	172579.0	172225.0
antisense_77	174232	+		OTH Found	CNIT	-0.397	-0.975	RNA	174232.0	174669.0	174888.0	174803.0
antisense_78	176666	+	LS483295.1 (182143-182538)	True	QRNA	19.006	0.907	RNA	176666.0	176666.0	177132.0	177132.0
antisense_79	177862	-		OTH Found	CNIT	-0.469	-0.219	RNA	176974.0	177183.0	177862.0	177242.0
antisense_80	180109	+		OTH Found	CNIT	-0.424	-0.697	RNA	180109.0	180342.0	180997.0	180398.0
antisense_81	182248	+		OTH Found	CNIT	-0.509	0.199	RNA	182248.0	182348.0	182416.0	182383.0
antisense_82	182416	+		OTH Found	CNIT	-0.605	1.214	RNA	182416.0	182419.0	182864.0	182469.0
antisense_83	182864	+	CP059373.1 (1268778-1268072)	True	QRNA	2.416	-0.946	RNA	182864.0	182864.0	183557.0	183557.0
antisense_84	184775	-		OTH Found	CNIT	-0.436	-0.564	RNA	183887.0	184674.0	184775.0	184730.0
antisense_85	188288	+		OTH Found	CNIT	-0.499	0.097	RNA	188288.0	188505.0	188653.0	188543.0
antisense_86	188653	+	CP007776.2 (1408749-1409636)	True	QRNA	7.782	-0.347	RNA	188653.0	188653.0	189540.0	189540.0
antisense_87	192251	+	CP063083.1 (1282217-1283101)	False	QRNA	0.924	-0.703	COD	192252.0	192339.0	193137.0	193042.0
antisense_88	193344	+		OTH Found	CNIT	-0.471	-0.201	RNA	193344.0	193439.0	193671.0	193513.0
antisense_89	193671	+		OTH Found	CNIT	-0.446	-0.464	RNA	193671.0	193928.0	194559.0	194029.0
antisense_90	196909	-	CP012546.1 (95139-96003)	False	QRNA	57.937	1.884	COD	196045.0	196133.0	196909.0	196909.0
antisense_91	200840	+	CP063536.1 (172789-173549)	True	QRNA	27.986	1.91	RNA	200842.0	200842.0	201614.0	201614.0
antisense_92	201616	+	CP063536.1 (173551-173974)	True	QRNA	15.712	0.539	RNA	201616.0	201616.0	202060.0	202060.0
antisense_93	202061	+	CP054848.1 (1609701-1610585)	True	QRNA	32.281	2.39	RNA	202061.0	202061.0	202948.0	202948.0
antisense_94	203821	-	CP012220.1 (147514-146918)	True	QRNA	9.994	-0.1	RNA	203223.0	203223.0	203821.0	203821.0
antisense_95	203979	-		OTH Found	CNIT	-0.43	-0.631	RNA	203821.0	203848.0	203979.0	203937.0
antisense_96	204644	-	CP035946.1 (274337-273682)	False	QRNA	11.681	-0.215	COD	203986.0	204023.0	204642.0	204634.0
antisense_97	207713	-	CP063083.1 (1531904-1532627)	False	QRNA	76.055	2.706	COD	206989.0	206993.0	207712.0	207703.0
antisense_98	211034	-	CP068172.1 (713012-713893)	True	QRNA	23.197	1.375	RNA	210147.0	210147.0	211030.0	211030.0
antisense_99	211559	-	LR134359.1 (1671401-1670913)	True	QRNA	13.256	0.265	RNA	211035.0	211035.0	211559.0	211559.0
antisense_100	220443	+	CP017873.1 (1457498-1456576)	True	QRNA	22.178	1.261	RNA	220452.0	220452.0	221330.0	221330.0
antisense_101	222403	+	CP076657.1 (1465493-1464601)	True	QRNA	14.91	0.449	RNA	222404.0	222404.0	223287.0	223287.0
antisense_102	224268	+		OTH Found	CNIT	-0.651	1.703	RNA	224268.0	224269.0	224340.0	224289.0
antisense_103	224340	+		OTH Found	CNIT	0.618	0.405	COD	224340.0	224344.0	224981.0	224793.0
antisense_104	227277	-		OTH Found	CNIT	-0.407	-0.87	RNA	226389.0	226868.0	227277.0	226954.0
antisense_105	230116	+		OTH Found	CNIT	-0.567	0.813	RNA	230116.0	230263.0	230432.0	230295.0
antisense_106	230432	+		OTH Found	CNIT	-0.618	1.356	RNA	230432.0	230709.0	230840.0	230723.0
antisense_107	230840	+	CP082874.1 (1042473-1043257)	True	QRNA	37.679	2.993	RNA	230845.0	230845.0	231629.0	231629.0
antisense_108	232344	-		OTH Found	CNIT	-0.464	-0.269	RNA	231830.0	232236.0	232344.0	232286.0
antisense_109	233863	+	CP012220.1 (176432-177150)	True	QRNA	18.733	0.876	RNA	233867.0	233867.0	234591.0	234591.0
antisense_110	234916	-		OTH Found	CNIT	-0.451	-0.415	RNA	234454.0	234753.0	234916.0	234818.0
antisense_111	235559	-	CP059597.1 (1455842-1455200)	True	QRNA	22.481	1.295	RNA	234917.0	234917.0	235559.0	235559.0
antisense_112	236401	+	CP059373.1 (1209813-1208928)	True	QRNA	11.355	0.052	RNA	236401.0	236401.0	237286.0	237286.0
antisense_113	240490	-		OTH Found	CNIT	-0.662	1.814	RNA	240201.0	240424.0	240490.0	240456.0
antisense_114	240552	-		OTH Found	CNIT	-0.661	1.808	RNA	240490.0	240497.0	240552.0	240508.0
antisense_115	241002	-		OTH Found	CNIT	-0.514	0.257	RNA	240552.0	240728.0	241002.0	240790.0
antisense_116	242894	-		OTH Found	CNIT	-0.48	-0.104	RNA	242006.0	242458.0	242894.0	242541.0
antisense_117	251105	+		OTH Found	CNIT	-0.807	3.348	RNA	251105.0	251176.0	251222.0	251184.0
antisense_118	251222	+	CP059597.1 (54931-55813)	True	QRNA	31.934	2.351	RNA	251227.0	251227.0	252109.0	252109.0
antisense_119	252444	+	CP037747.1 (1468321-1469204)	False	QRNA	12.911	-0.159	COD	252444.0	252446.0	253330.0	253255.0
antisense_120	255828	-		OTH Found	CNIT	-0.524	0.362	RNA	254940.0	255676.0	255828.0	255708.0
antisense_121	257099	-		OTH Found	CNIT	-0.486	-0.043	RNA	256211.0	256438.0	257099.0	256539.0
antisense_123	261821	-	CP049075.1 (81448-80563)	False	QRNA	4.828	-0.526	COD	260936.0	261004.0	261821.0	261816.0
antisense_124	264166	-		OTH Found	CNIT	-0.427	-0.665	RNA	263278.0	264054.0	264166.0	264137.0
antisense_125	264438	-	CP035946.1 (763099-762829)	False	QRNA	2.543	-0.63	COD	264167.0	264177.0	264437.0	264437.0
antisense_126	264698	+		OTH Found	CNIT	-0.51	0.207	RNA	264698.0	264705.0	265586.0	264746.0
antisense_127	268845	+		OTH Found	CNIT	-0.394	-1.015	RNA	268845.0	269423.0	269643.0	269494.0
antisense_128	269643	+	CP020867.1 (1819201-1820067)	True	QRNA	14.022	0.35	RNA	269644.0	269700.0	270530.0	270530.0
antisense_129	270615	+	CP063091.1 (475942-476820)	True	QRNA	7.923	-0.331	RNA	270620.0	270620.0	271483.0	271483.0
antisense_130	271794	+	LR134508.1 (1344206-1345089)	True	QRNA	39.887	3.239	RNA	271794.0	271794.0	272681.0	272681.0
antisense_131	272947	+		OTH Found	CNIT	-0.492	0.02	RNA	272947.0	273043.0	273089.0	273069.0
antisense_132	273089	+		OTH Found	CNIT	-0.648	1.672	RNA	273089.0	273091.0	273206.0	273105.0
orphan_4	273206	+		OTH Found	CNIT	-0.439	-0.536	RNA	273206.0	273791.0	274008.0	273922.0
antisense_133	274008	+	CP007188.1 (340348-340761)	True	QRNA	6.465	-0.494	RNA	274008.0	274008.0	274421.0	274421.0
antisense_134	277220	+		OTH Found	CNIT	-0.571	0.858	RNA	277220.0	277241.0	277395.0	277267.0
antisense_135	277395	+	CP022347.1 (979109-979742)	False	QRNA	2.514	-0.631	COD	277395.0	277403.0	278028.0	277900.0
antisense_136	278557	+		OTH Found	CNIT	-0.473	-0.181	RNA	278557.0	278586.0	279445.0	278687.0
antisense_137	281738	+	CP059597.1 (91803-92680)	True	QRNA	22.84	1.335	RNA	281741.0	281741.0	282617.0	282617.0
antisense_138	283753	-		OTH Found	CNIT	-0.527	0.39	RNA	283408.0	283713.0	283753.0	283745.0
antisense_139	284433	-		OTH Found	CNIT	-0.459	-0.321	RNA	283753.0	283892.0	284433.0	283930.0
antisense_140	284958	+		OTH Found	CNIT	-0.614	1.312	RNA	284958.0	285069.0	285084.0	285080.0
antisense_141	285084	+	HG326877.1 (108075-107192)	False	QRNA	0.415	-0.726	COD	285084.0	285126.0	285967.0	285962.0
antisense_142	289030	-	CP007769.1 (1344530-1345260)	True	QRNA	14.492	0.403	RNA	288295.0	288295.0	289028.0	289028.0
antisense_143	291513	-	CP022347.1 (172879-171995)	True	QRNA	7.064	-0.427	RNA	290626.0	290626.0	291513.0	291513.0
antisense_144	295639	-		OTH Found	CNIT	-0.442	-0.503	RNA	294751.0	294945.0	295639.0	295013.0
antisense_145	297847	-		OTH Found	CNIT	-0.486	-0.038	RNA	296959.0	297674.0	297847.0	297724.0
antisense_146	300880	-	CP007776.2 (1293773-1294656)	True	QRNA	14.685	0.424	RNA	299994.0	299994.0	300880.0	300880.0
antisense_147	301250	-	CP059682.1 (1330060-1330415)	False	QRNA	14.842	-0.072	COD	300881.0	300886.0	301236.0	301236.0
antisense_148	303181	+	CP007772.1 (1507983-1507093)	False	QRNA	6.697	-0.441	COD	303181.0	303181.0	304068.0	304033.0
antisense_149	315202	+		OTH Found	CNIT	-0.45	-0.42	RNA	315202.0	315210.0	316090.0	315260.0
antisense_150	318239	+		OTH Found	CNIT	-0.39	-1.059	RNA	318239.0	318883.0	319095.0	318975.0
antisense_151	321322	-		OTH Found	CNIT	-0.482	-0.089	RNA	320434.0	320810.0	321322.0	320839.0
antisense_152	321532	-	LR134372.1 (911496-911297)	False	QRNA	17.003	0.026	COD	321327.0	321349.0	321526.0	321525.0
antisense_153	325826	-	CP059682.1 (1144065-1143208)	True	QRNA	17.882	0.781	RNA	324970.0	324970.0	325823.0	325823.0
antisense_154	326016	-		OTH Found	CNIT	-0.415	-0.792	RNA	325826.0	325880.0	326016.0	325951.0
antisense_155	328138	+	CP037747.1 (235081-234289)	True	QRNA	12.84	0.218	RNA	328140.0	328140.0	328931.0	328931.0
antisense_156	329308	+	CP059597.1 (134544-135078)	False	QRNA	5.998	-0.473	COD	329309.0	329450.0	329840.0	329806.0
antisense_157	335550	+	CP059597.1 (140753-141638)	True	QRNA	6.918	-0.443	RNA	335552.0	335552.0	336437.0	335986.0
antisense_158	339267	+		OTH Found	CNIT	0.639	1.043	COD	339267.0	339511.0	340155.0	339708.0
antisense_159	340162	+	HG326877.1 (55467-54569)	True	QRNA	8.53	-0.263	RNA	340163.0	340163.0	341042.0	341042.0
antisense_160	341822	+		OTH Found	CNIT	-0.709	2.308	RNA	341822.0	341905.0	341916.0	341916.0
antisense_161	341916	+		OTH Found	CNIT	-0.475	-0.155	RNA	341916.0	342179.0	342804.0	342232.0
antisense_162	346084	-		OTH Found	CNIT	-0.514	0.254	RNA	345196.0	345938.0	346084.0	345961.0
antisense_163	348080	-		OTH Found	CNIT	-0.503	0.142	RNA	347192.0	347784.0	348080.0	347843.0
antisense_164	348872	-	CP076657.1 (1296078-1296860)	True	QRNA	15.153	0.476	RNA	348096.0	348096.0	348872.0	348872.0
antisense_165	349469	-	CP043427.1 (1203902-1203317)	True	QRNA	6.931	-0.442	RNA	348887.0	348887.0	349469.0	349469.0
antisense_166	350123	+	LR134471.1 (993331-992480)	True	QRNA	9.624	-0.141	RNA	350141.0	350141.0	350986.0	350986.0
antisense_167	358052	-		OTH Found	CNIT	-0.492	0.017	RNA	357164.0	358009.0	358052.0	358044.0
antisense_168	360081	-		OTH Found	CNIT	-0.443	-0.5	RNA	359193.0	359518.0	360081.0	359598.0
antisense_169	361095	+		OTH Found	CNIT	-0.476	-0.148	RNA	361095.0	361391.0	361835.0	361504.0
antisense_170	361835	+	CP053848.1 (471453-472240)	True	QRNA	4.668	-0.695	RNA	361835.0	361835.0	362622.0	362622.0
antisense_171	362641	+	CP020867.1 (164625-163733)	True	QRNA	7.114	-0.421	RNA	362642.0	362642.0	363527.0	363435.0
antisense_172	365717	+		OTH Found	CNIT	-0.69	2.107	RNA	365717.0	365743.0	365853.0	365757.0
antisense_173	365853	+		OTH Found	CNIT	-0.448	-0.441	RNA	365853.0	366193.0	366428.0	366237.0
antisense_174	366428	+		OTH Found	CNIT	-0.543	0.56	RNA	366428.0	366431.0	366867.0	366451.0
antisense_175	366867	+	CP065357.1 (1505646-1506052)	True	QRNA	19.267	0.936	RNA	366867.0	366867.0	367274.0	367274.0
antisense_176	373574	-	CP059597.1 (179388-178675)	True	QRNA	18.197	0.816	RNA	372861.0	372861.0	373574.0	373574.0
antisense_177	374140	+	HG326877.1 (20698-19866)	True	QRNA	24.228	1.49	RNA	374140.0	374140.0	374968.0	374968.0
antisense_178	379393	-	CP022347.1 (905714-906593)	False	QRNA	2.891	-0.614	COD	378506.0	378725.0	379385.0	379162.0
antisense_179	379713	-		OTH Found	CNIT	-0.672	1.92	RNA	379393.0	379545.0	379713.0	379562.0
antisense_181	381071	-	CP059597.1 (186809-185933)	True	QRNA	16.593	0.637	RNA	380184.0	380184.0	381067.0	380998.0
antisense_182	381912	-	CP059597.1 (187654-186816)	True	QRNA	36.461	2.856	RNA	381074.0	381074.0	381912.0	381912.0
antisense_183	385752	-	CP011372.1 (310753-309864)	False	QRNA	10.306	-0.277	COD	384865.0	384969.0	385752.0	385742.0
antisense_184	393772	-		OTH Found	CNIT	-0.473	-0.179	RNA	393220.0	393656.0	393772.0	393703.0
antisense_185	394675	-		OTH Found	CNIT	-0.518	0.297	RNA	393787.0	394379.0	394675.0	394405.0
orphan_5	395392	+	CP015528.1 (36198-36590)	True	QRNA	14.719	0.428	RNA	395392.0	395392.0	395764.0	395764.0
orphan_7	397711	+	CP076657.1 (1196395-1195984)	True	QRNA	11.144	0.029	RNA	397718.0	397718.0	398120.0	398120.0
orphan_8	397943	-	AB644401.1 (649-1)	True	QRNA	15.994	0.57	RNA	397240.0	397240.0	397943.0	397943.0
antisense_186	407545	-	LR698972.1 (1011381-1011891)	False	QRNA	38.147	0.986	COD	407035.0	407075.0	407545.0	407527.0
antisense_187	410949	+		OTH Found	CNIT	-0.538	0.51	RNA	410949.0	411103.0	411353.0	411132.0
antisense_188	415385	-		OTH Found	CNIT	-0.492	0.024	RNA	414497.0	415352.0	415385.0	415375.0
antisense_189	416005	-	CP053848.1 (798939-799526)	True	QRNA	8.4	-0.278	RNA	415414.0	415414.0	416001.0	416001.0
antisense_190	418308	+	CP020867.1 (392120-392422)	True	QRNA	4.153	-0.752	RNA	418311.0	418311.0	418617.0	418617.0
antisense_191	420066	-	LR134534.1 (1125985-1126867)	True	QRNA	11.619	0.082	RNA	419185.0	419247.0	420065.0	420065.0
antisense_192	421628	+		OTH Found	CNIT	-0.519	0.302	RNA	421628.0	422005.0	422516.0	422043.0
antisense_193	423186	+	CP076657.1 (469317-470194)	True	QRNA	8.176	-0.303	RNA	423188.0	423202.0	424067.0	424067.0
antisense_194	424345	+		OTH Found	CNIT	-0.522	0.336	RNA	424345.0	424992.0	425233.0	425060.0
antisense_195	426705	-		OTH Found	CNIT	-0.478	-0.122	RNA	425817.0	425843.0	426705.0	425872.0
antisense_196	431585	-	CP076657.1 (492431-491557)	True	QRNA	27.112	1.812	RNA	430709.0	430709.0	431583.0	431583.0
antisense_197	436580	-	CP043435.1 (1357916-1358845)	True	QRNA	4.596	-0.703	RNA	435693.0	435693.0	436580.0	436367.0
antisense_198	437371	-	CP059599.1 (132250-131470)	False	QRNA	4.671	-0.533	COD	436581.0	436715.0	437364.0	437281.0
antisense_199	442042	-	CP042162.1 (1143578-1142688)	False	QRNA	0.856	-0.706	COD	441155.0	441228.0	442042.0	441890.0
antisense_200	448573	-		OTH Found	CNIT	-0.448	-0.439	RNA	447685.0	448502.0	448573.0	448528.0
antisense_201	452815	-		OTH Found	CNIT	-0.4	-0.952	RNA	451927.0	452123.0	452815.0	452239.0
antisense_202	456241	-		OTH Found	CNIT	-0.463	-0.284	RNA	455353.0	456187.0	456241.0	456231.0
antisense_203	457683	+		OTH Found	CNIT	-0.519	0.306	RNA	457683.0	457822.0	457960.0	457866.0
antisense_204	459150	-	CP044173.1 (1060965-1061851)	True	QRNA	20.228	1.043	RNA	458263.0	458263.0	459150.0	459150.0
antisense_205	459379	-		OTH Found	CNIT	-0.448	-0.438	RNA	459150.0	459156.0	459379.0	459188.0
antisense_206	461189	-	CP053854.1 (440948-441836)	True	QRNA	26.691	1.765	RNA	460304.0	460304.0	461189.0	461189.0
antisense_207	461879	-	CP053854.1 (440282-440947)	True	QRNA	7.917	-0.332	RNA	461190.0	461190.0	461879.0	461879.0
antisense_208	462020	-		OTH Found	CNIT	-0.49	0.003	RNA	461879.0	461905.0	462020.0	461958.0
antisense_209	464268	+	CP063088.1 (16369-16214)	False	QRNA	7.092	-0.423	COD	464269.0	464287.0	464424.0	464391.0
antisense_210	464437	+	CP063091.1 (729216-730116)	True	QRNA	7.079	-0.425	RNA	464440.0	464440.0	465319.0	465319.0
antisense_211	466156	+	CP007769.1 (1024923-1025704)	True	QRNA	11.711	0.092	RNA	466159.0	466159.0	466944.0	466944.0
antisense_212	469807	-	CP082947.1 (1306107-1306993)	True	QRNA	2.958	-0.886	RNA	468921.0	468921.0	469803.0	469803.0
antisense_213	470922	-	CP020478.1 (392822-393703)	False	QRNA	11.968	-0.202	COD	470035.0	470196.0	470916.0	470891.0
antisense_214	471911	-		OTH Found	CNIT	-0.43	-0.628	RNA	471023.0	471776.0	471911.0	471808.0
antisense_215	472455	+		OTH Found	CNIT	-0.416	-0.782	RNA	472455.0	472722.0	473343.0	472856.0
antisense_216	473639	+	CP063083.1 (244547-243664)	False	QRNA	25.02	0.39	COD	473642.0	473642.0	474525.0	474364.0
antisense_217	479468	-	LR134372.1 (268611-269477)	True	QRNA	18.989	0.905	RNA	478597.0	478597.0	479463.0	479463.0
antisense_218	483117	-		OTH Found	CNIT	-0.517	0.282	RNA	482229.0	483023.0	483117.0	483055.0
antisense_219	485343	+	CP063089.1 (1107044-1106159)	True	QRNA	8.573	-0.258	RNA	485345.0	485345.0	486230.0	486230.0
antisense_220	486350	+		OTH Found	CNIT	-0.477	-0.139	RNA	486350.0	486641.0	486784.0	486673.0
antisense_221	486784	+	CP022347.1 (723011-723533)	False	QRNA	11.892	-0.205	COD	486788.0	486805.0	487310.0	487239.0
antisense_222	487319	+	CP076657.1 (953008-952156)	True	QRNA	12.529	0.183	RNA	487319.0	487319.0	488205.0	488205.0
antisense_223	489435	-		OTH Found	CNIT	-0.54	0.53	RNA	489073.0	489137.0	489435.0	489151.0
antisense_224	491278	-	CP068566.1 (1300796-1301655)	True	QRNA	21.108	1.142	RNA	490419.0	490419.0	491278.0	491278.0
antisense_225	493769	-		OTH Found	CNIT	-0.416	-0.778	RNA	492881.0	493076.0	493769.0	493168.0
antisense_226	495068	-	CP037747.1 (398530-397651)	False	QRNA	20.29	0.176	COD	494188.0	494216.0	495067.0	495067.0
antisense_227	499532	-	HG326877.1 (1488658-1489539)	True	QRNA	20.438	1.067	RNA	498645.0	498645.0	499532.0	499532.0
antisense_228	500130	-		OTH Found	CNIT	-0.502	0.132	RNA	499532.0	499896.0	500130.0	499916.0
antisense_229	501520	-		OTH Found	CNIT	-0.475	-0.156	RNA	500632.0	500845.0	501520.0	500886.0
antisense_230	504453	-		OTH Found	CNIT	-0.476	-0.149	RNA	503565.0	503899.0	504453.0	503934.0
antisense_231	506645	-	CP007766.1 (844613-845495)	True	QRNA	11.243	0.04	RNA	505760.0	505786.0	506645.0	506645.0
antisense_232	506802	-	CP053844.1 (1259572-1259722)	False	QRNA	8.004	-0.382	COD	506646.0	506696.0	506796.0	506776.0
antisense_233	509713	-		OTH Found	CNIT	-0.48	-0.102	RNA	508825.0	508893.0	509713.0	508964.0
antisense_234	514281	-	LS483295.1 (541239-540352)	True	QRNA	23.085	1.362	RNA	513394.0	513394.0	514281.0	514281.0
antisense_235	514707	-		OTH Found	CNIT	-0.523	0.353	RNA	514281.0	514669.0	514707.0	514692.0
antisense_236	518232	+	CP076657.1 (885641-886276)	True	QRNA	13.323	0.272	RNA	518232.0	518232.0	518866.0	518866.0
antisense_237	520503	-	CP011777.1 (801173-800241)	True	QRNA	3.988	-0.771	RNA	519616.0	519616.0	520503.0	520503.0
antisense_238	520836	-		OTH Found	CNIT	-0.492	0.024	RNA	520503.0	520568.0	520836.0	520594.0
antisense_239	521349	+		OTH Found	CNIT	-0.507	0.183	RNA	521349.0	521558.0	521736.0	521587.0
antisense_240	521736	+	CP065357.1 (872088-871424)	True	QRNA	12.956	0.231	RNA	521737.0	521737.0	522419.0	522419.0
antisense_242	523998	-		OTH Found	CNIT	-0.49	-0.003	RNA	523110.0	523540.0	523998.0	523623.0
antisense_243	525078	-	CP012216.1 (911254-910366)	True	QRNA	22.845	1.336	RNA	524191.0	524191.0	525078.0	525078.0
antisense_244	530840	-		OTH Found	CNIT	-0.432	-0.611	RNA	530187.0	530506.0	530840.0	530559.0
antisense_245	534370	-		OTH Found	CNIT	-0.497	0.075	RNA	533482.0	534057.0	534370.0	534074.0
antisense_246	545657	-	CP076657.1 (828480-829352)	True	QRNA	21.34	1.168	RNA	544772.0	544772.0	545656.0	545656.0
antisense_247	547563	+		OTH Found	CNIT	-0.499	0.098	RNA	547563.0	547711.0	547747.0	547740.0
antisense_248	547747	+	CP065357.1 (740981-740156)	True	QRNA	14.355	0.387	RNA	547748.0	547748.0	548550.0	548550.0
antisense_249	548551	+	CP076657.1 (572140-571373)	True	QRNA	13.123	0.25	RNA	548551.0	548551.0	549332.0	549332.0
antisense_250	556087	+		OTH Found	CNIT	-0.592	1.078	RNA	556087.0	556147.0	556187.0	556176.0
antisense_251	556187	+	CP085963.1 (1285479-1285516)	False	QRNA	6.943	-0.43	COD	556188.0	556190.0	556225.0	556222.0
antisense_252	556238	+	CP059373.1 (893878-893084)	False	QRNA	5.431	-0.499	COD	556241.0	556241.0	557035.0	557034.0
antisense_253	557037	+		OTH Found	CNIT	-0.517	0.282	RNA	557037.0	557445.0	557670.0	557492.0
antisense_254	557670	+	CP063536.1 (501635-502521)	True	QRNA	10.567	-0.036	RNA	557670.0	557670.0	558556.0	558556.0
antisense_255	559809	-	CP041617.1 (1368139-1367608)	False	QRNA	25.385	0.407	COD	559275.0	559358.0	559807.0	559773.0
antisense_256	565186	-		OTH Found	CNIT	-0.495	0.055	RNA	564298.0	564402.0	565186.0	564452.0
antisense_257	565658	-	CP059597.1 (369541-369071)	True	QRNA	8.319	-0.287	RNA	565187.0	565187.0	565657.0	565657.0
antisense_258	565912	+	CP059597.1 (369968-370845)	True	QRNA	26.786	1.776	RNA	565922.0	565922.0	566799.0	566799.0
antisense_259	569360	+		OTH Found	CNIT	-0.646	1.645	RNA	569360.0	569400.0	569600.0	569435.0
antisense_260	569600	+	LR134534.1 (977129-976750)	True	QRNA	9.936	-0.106	RNA	569607.0	569607.0	569990.0	569990.0
antisense_261	573732	-	CP022347.1 (937024-937909)	False	QRNA	24.876	0.384	COD	572847.0	572849.0	573732.0	573681.0
antisense_262	574833	-	CP007770.1 (811172-812060)	True	QRNA	26.866	1.785	RNA	573946.0	574192.0	574833.0	574833.0
antisense_263	578658	-		OTH Found	CNIT	-0.496	0.065	RNA	577770.0	578490.0	578658.0	578534.0
antisense_264	579122	-		OTH Found	CNIT	-0.477	-0.135	RNA	578658.0	578898.0	579122.0	578933.0
antisense_265	579605	-		OTH Found	CNIT	-0.569	0.83	RNA	579122.0	579580.0	579605.0	579603.0
antisense_266	580340	-		OTH Found	CNIT	-0.492	0.026	RNA	579605.0	579624.0	580340.0	579656.0
antisense_267	580708	-		OTH Found	CNIT	-0.618	1.352	RNA	580340.0	580533.0	580708.0	580571.0
antisense_268	584401	-		OTH Found	CNIT	-0.54	0.526	RNA	583513.0	583526.0	584401.0	583558.0
antisense_269	592582	-		OTH Found	CNIT	-0.489	-0.013	RNA	591694.0	592347.0	592582.0	592427.0
antisense_270	593784	+		OTH Found	CNIT	0.621	0.507	COD	593784.0	594421.0	594672.0	594606.0
antisense_271	597064	-	CP076657.1 (849054-849933)	True	QRNA	24.973	1.573	RNA	596179.0	596179.0	597064.0	597064.0
antisense_272	597357	-	CP022347.1 (995503-995795)	False	QRNA	9.787	-0.301	COD	597065.0	597126.0	597357.0	597350.0
antisense_274	598618	-	CP076657.1 (847502-848375)	True	QRNA	19.151	0.923	RNA	597741.0	597741.0	598618.0	598618.0
antisense_275	601353	-	OU701459.1 (834882-835746)	False	QRNA	5.792	-0.482	COD	600486.0	600509.0	601353.0	601353.0
antisense_276	601582	-	CP041617.1 (767601-767375)	False	QRNA	1.03	-0.698	COD	601355.0	601528.0	601581.0	601575.0
antisense_277	602369	-		OTH Found	CNIT	-0.388	-1.074	RNA	601582.0	602305.0	602369.0	602358.0
antisense_278	607100	+		OTH Found	CNIT	-0.433	-0.601	RNA	607100.0	607554.0	607988.0	607628.0
antisense_279	609784	+	CP063091.1 (1776240-1776743)	False	QRNA	13.509	-0.132	COD	609788.0	609908.0	610292.0	610221.0
antisense_280	610353	+		OTH Found	CNIT	-0.607	1.233	RNA	610353.0	610698.0	610784.0	610733.0
antisense_281	610784	+		OTH Found	CNIT	-0.474	-0.17	RNA	610784.0	610873.0	611672.0	610983.0
antisense_282	612310	+		OTH Found	CNIT	-0.624	1.414	RNA	612310.0	612984.0	613037.0	613022.0
antisense_283	613037	+	CP047484.1 (577638-577699)	False	QRNA	3.254	-0.597	COD	613037.0	613041.0	613098.0	613091.0
antisense_284	613099	+		OTH Found	CNIT	-0.65	1.683	RNA	613099.0	613148.0	613186.0	613162.0
antisense_285	613186	+		OTH Found	CNIT	-0.717	2.4	RNA	613186.0	613278.0	613365.0	613298.0
antisense_286	613365	+		OTH Found	CNIT	-0.879	4.099	RNA	613365.0	613367.0	613418.0	613381.0
antisense_287	613418	+	CP063536.1 (556451-557326)	True	QRNA	48.387	4.189	RNA	613430.0	613430.0	614305.0	614305.0
antisense_288	617681	+		OTH Found	CNIT	-0.432	-0.613	RNA	617681.0	617969.0	618496.0	618019.0
antisense_289	618745	-		OTH Found	CNIT	-0.52	0.314	RNA	618374.0	618410.0	618745.0	618448.0
antisense_290	622236	-		OTH Found	CNIT	0.576	-0.894	COD	621348.0	621686.0	622236.0	621796.0
antisense_291	622528	-		OTH Found	CNIT	-0.399	-0.955	RNA	622236.0	622436.0	622528.0	622519.0
antisense_292	622587	-		OTH Found	CNIT	-0.628	1.453	RNA	622528.0	622545.0	622587.0	622556.0
antisense_293	623006	-	CP047482.1 (1320692-1320279)	True	QRNA	15.399	0.504	RNA	622588.0	622588.0	623006.0	623006.0
antisense_294	626483	-		OTH Found	CNIT	0.644	1.203	COD	625595.0	626140.0	626483.0	626346.0
antisense_295	626603	-	CP059597.1 (420076-419957)	False	QRNA	2.296	-0.641	COD	626484.0	626489.0	626603.0	626599.0
antisense_296	628648	-	CP059597.1 (422121-421243)	True	QRNA	8.586	-0.257	RNA	627771.0	627771.0	628646.0	628646.0
antisense_297	631051	+		OTH Found	CNIT	-0.509	0.203	RNA	631051.0	631284.0	631407.0	631346.0
antisense_299	633431	-	CP059366.1 (128812-127951)	True	QRNA	14.303	0.382	RNA	632570.0	632570.0	633431.0	633431.0
antisense_300	634237	+		OTH Found	CNIT	-0.641	1.596	RNA	634237.0	634250.0	634341.0	634261.0
antisense_301	634341	+		OTH Found	CNIT	-0.711	2.333	RNA	634341.0	634366.0	634412.0	634392.0
antisense_302	634412	+		OTH Found	CNIT	-0.527	0.396	RNA	634412.0	634477.0	635121.0	634506.0
antisense_303	635121	+		OTH Found	CNIT	-0.478	-0.123	RNA	635121.0	635260.0	635628.0	635292.0
antisense_304	637080	+		OTH Found	CNIT	-0.536	0.485	RNA	637080.0	637123.0	637186.0	637140.0
antisense_305	637186	+	CP076657.1 (661351-660979)	False	QRNA	27.717	0.513	COD	637188.0	637206.0	637560.0	637511.0
antisense_306	639871	-		OTH Found	CNIT	-0.417	-0.767	RNA	638983.0	639486.0	639871.0	639584.0
antisense_307	643625	+		OTH Found	CNIT	-0.567	0.814	RNA	643625.0	643801.0	644263.0	643875.0
antisense_308	645230	+	CP059375.1 (1213322-1214208)	True	QRNA	18.529	0.854	RNA	645231.0	645231.0	646117.0	646117.0
antisense_309	648087	-		OTH Found	CNIT	-0.549	0.624	RNA	647199.0	647505.0	648087.0	647522.0
antisense_310	656053	-	CP063083.1 (863552-864423)	False	QRNA	21.281	0.221	COD	655182.0	655190.0	656053.0	656025.0
antisense_311	657528	-		OTH Found	CNIT	-0.429	-0.642	RNA	656640.0	656713.0	657528.0	656757.0
antisense_312	662963	-	CP076657.1 (586125-585241)	True	QRNA	33.259	2.499	RNA	662077.0	662077.0	662963.0	662963.0
antisense_313	664227	-	CP059597.1 (455565-454675)	True	QRNA	24.262	1.494	RNA	663340.0	663340.0	664227.0	664227.0
antisense_314	666445	-		OTH Found	CNIT	-0.429	-0.638	RNA	665557.0	665614.0	666445.0	665724.0
antisense_315	669516	-	CP022347.1 (254292-255177)	False	QRNA	24.408	0.363	COD	668631.0	668789.0	669516.0	669454.0
antisense_316	672776	+	CP059597.1 (464075-464978)	True	QRNA	20.753	1.102	RNA	672776.0	672776.0	673659.0	673659.0
antisense_317	673786	+	CP020867.1 (932980-932347)	True	QRNA	12.366	0.165	RNA	673786.0	673786.0	674419.0	674419.0
antisense_318	674420	+		OTH Found	CNIT	-0.523	0.352	RNA	674420.0	674538.0	675308.0	674564.0
antisense_319	677832	-	CP022347.1 (1358051-1358737)	True	QRNA	10.011	-0.098	RNA	677146.0	677146.0	677832.0	677832.0
antisense_320	679543	-		OTH Found	CNIT	-0.497	0.077	RNA	678655.0	678960.0	679543.0	679010.0
antisense_321	682619	-	CP022347.1 (1355310-1356190)	True	QRNA	4.191	-0.748	RNA	681732.0	681732.0	682613.0	682613.0
antisense_322	685162	-	OU532558.1 (725129-724435)	True	QRNA	36.417	2.852	RNA	684441.0	684441.0	685162.0	685162.0
antisense_323	686297	-	CP012224.1 (637572-636687)	True	QRNA	28.21	1.935	RNA	685410.0	685410.0	686297.0	686297.0
antisense_324	687074	-	CP066243.1 (169939-170691)	True	QRNA	16.915	0.673	RNA	686298.0	686298.0	687074.0	687074.0
antisense_325	689648	-	CP010506.1 (559264-558362)	True	QRNA	12.34	0.162	RNA	688761.0	688761.0	689648.0	689648.0
antisense_326	690394	-		OTH Found	CNIT	-0.494	0.04	RNA	689648.0	689778.0	690394.0	689819.0
antisense_327	691079	-		OTH Found	CNIT	-0.442	-0.503	RNA	690394.0	690495.0	691079.0	690557.0
antisense_328	691566	-		OTH Found	CNIT	-0.517	0.289	RNA	691079.0	691114.0	691566.0	691152.0
orphan_9	692545	+	CP025281.1 (382221-382607)	True	QRNA	15.433	0.508	RNA	692545.0	692545.0	692912.0	692912.0
antisense_329	693994	-		OTH Found	CNIT	-0.324	-1.754	RNA	693106.0	693383.0	693994.0	693652.0
orphan_10	694861	+	CP076657.1 (592679-593090)	True	QRNA	11.144	0.029	RNA	694868.0	694868.0	695270.0	695270.0
orphan_11	695093	-	AB644401.1 (649-1)	True	QRNA	15.994	0.57	RNA	694390.0	694390.0	695093.0	695093.0
antisense_330	703347	-	CP018791.1 (919486-920373)	False	QRNA	6.834	-0.435	COD	702460.0	702567.0	703347.0	703130.0
antisense_331	704054	-		OTH Found	CNIT	-0.502	0.122	RNA	703347.0	703654.0	704054.0	703704.0
antisense_332	705809	-		OTH Found	CNIT	-0.555	0.686	RNA	704921.0	704947.0	705809.0	704985.0
antisense_333	706382	-		OTH Found	CNIT	-0.544	0.567	RNA	705809.0	706211.0	706382.0	706228.0
antisense_334	707621	-	CP048760.1 (692133-691249)	True	QRNA	13.846	0.331	RNA	706736.0	706736.0	707621.0	707621.0
antisense_335	707912	-		OTH Found	CNIT	-0.576	0.908	RNA	707621.0	707854.0	707912.0	707865.0
antisense_336	710010	-		OTH Found	CNIT	-0.388	-1.075	RNA	709122.0	709365.0	710010.0	709493.0
antisense_337	712960	+	CP037747.1 (88756-87884)	False	QRNA	19.761	0.152	COD	712961.0	713000.0	713833.0	713668.0
antisense_338	715525	+	CP059439.1 (978823-977936)	True	QRNA	15.274	0.49	RNA	715525.0	715525.0	716412.0	716412.0
antisense_339	717039	+		OTH Found	CNIT	-0.527	0.391	RNA	717039.0	717696.0	717927.0	717737.0
antisense_341	720944	+	CP041617.1 (382512-383391)	True	QRNA	11.503	0.069	RNA	720946.0	720946.0	721831.0	721831.0
antisense_343	721959	+		OTH Found	CNIT	-0.405	-0.894	RNA	721959.0	722635.0	722847.0	722679.0
antisense_344	723975	+		OTH Found	CNIT	-0.469	-0.22	RNA	723975.0	723991.0	724270.0	724071.0
antisense_345	724270	+	CP063091.1 (1480069-1479250)	False	QRNA	4.478	-0.542	COD	724270.0	724270.0	725091.0	724746.0
antisense_346	725093	+		OTH Found	CNIT	-0.538	0.51	RNA	725093.0	725255.0	725732.0	725290.0
antisense_347	725732	+		OTH Found	CNIT	-0.49	0.0	RNA	725732.0	726075.0	726332.0	726134.0
antisense_348	726332	+		OTH Found	CNIT	-0.477	-0.138	RNA	726332.0	726731.0	727220.0	726775.0
antisense_349	728280	+	CP000768.1 (1081436-1081121)	True	QRNA	11.485	0.067	RNA	728280.0	728280.0	728602.0	728602.0
antisense_350	729495	-	CP059366.1 (490704-491564)	True	QRNA	10.163	-0.081	RNA	728638.0	728638.0	729495.0	729495.0
antisense_351	729889	-	CP007772.1 (809934-809543)	False	QRNA	14.795	-0.074	COD	729496.0	729597.0	729887.0	729881.0
antisense_352	730685	-		OTH Found	CNIT	-0.483	-0.071	RNA	729889.0	729962.0	730685.0	729991.0
antisense_353	732524	-		OTH Found	CNIT	0.583	-0.665	COD	731636.0	732332.0	732524.0	732514.0
antisense_354	736576	-	CP076657.1 (816553-817442)	True	QRNA	10.228	-0.074	RNA	735690.0	735690.0	736576.0	736576.0
antisense_355	738065	-	CP059373.1 (740575-741459)	True	QRNA	20.277	1.049	RNA	737178.0	737178.0	738065.0	737961.0
antisense_356	742935	-	CP092025.1 (848005-847622)	True	QRNA	18.128	0.809	RNA	742560.0	742560.0	742935.0	742935.0
antisense_357	743367	-		OTH Found	CNIT	-0.593	1.09	RNA	742935.0	743284.0	743367.0	743310.0
antisense_358	744068	-		OTH Found	CNIT	-0.471	-0.201	RNA	743367.0	743911.0	744068.0	743958.0
antisense_359	744274	-		OTH Found	CNIT	-0.544	0.57	RNA	744068.0	744168.0	744274.0	744215.0
antisense_360	744471	-		OTH Found	CNIT	-0.62	1.372	RNA	744274.0	744276.0	744471.0	744317.0
antisense_361	744542	-		OTH Found	CNIT	-0.614	1.305	RNA	744471.0	744518.0	744542.0	744532.0
antisense_362	744623	-		OTH Found	CNIT	-0.51	0.212	RNA	744542.0	744602.0	744623.0	744619.0
antisense_363	745128	-		OTH Found	CNIT	-0.486	-0.041	RNA	744623.0	744971.0	745128.0	744997.0
antisense_364	745295	-		OTH Found	CNIT	-0.654	1.734	RNA	745128.0	745235.0	745295.0	745246.0
antisense_365	745776	-	LR134534.1 (720360-719877)	True	QRNA	2.297	-0.959	RNA	745296.0	745296.0	745776.0	745573.0
antisense_366	747743	+		OTH Found	CNIT	-0.556	0.701	RNA	747743.0	747981.0	748270.0	747995.0
antisense_367	748270	+	CP076657.1 (665979-666644)	True	QRNA	30.772	2.221	RNA	748270.0	748292.0	748936.0	748936.0
antisense_368	748989	+	CP063083.1 (387930-388785)	False	QRNA	4.874	-0.524	COD	748989.0	748989.0	749843.0	749792.0
antisense_369	758425	-		OTH Found	CNIT	-0.518	0.295	RNA	757537.0	758030.0	758425.0	758053.0
antisense_370	765957	-		OTH Found	CNIT	-0.459	-0.331	RNA	765069.0	765152.0	765957.0	765187.0
antisense_371	768106	+		OTH Found	CNIT	-0.42	-0.734	RNA	768106.0	768255.0	768470.0	768332.0
antisense_372	770152	-		OTH Found	CNIT	-0.459	-0.322	RNA	769264.0	770024.0	770152.0	770137.0
antisense_373	770944	-	CP020867.1 (813551-812762)	True	QRNA	18.442	0.844	RNA	770154.0	770154.0	770943.0	770943.0
antisense_374	772357	-	CP020478.1 (913558-914390)	False	QRNA	29.071	0.574	COD	771528.0	771557.0	772347.0	772347.0
antisense_375	772986	-		OTH Found	CNIT	-0.65	1.692	RNA	772357.0	772860.0	772986.0	772886.0
antisense_376	774546	-		OTH Found	CNIT	-0.446	-0.466	RNA	773658.0	774114.0	774546.0	774161.0
antisense_377	774783	+	CP022347.1 (466307-467194)	True	QRNA	50.945	1.567	COD	774783.0	774783.0	775670.0	775670.0
antisense_379	777826	+		OTH Found	CNIT	-0.455	-0.373	RNA	777826.0	778138.0	778245.0	778221.0
antisense_380	778245	+		OTH Found	CNIT	0.637	0.983	COD	778245.0	778333.0	779133.0	778716.0
antisense_381	781185	+		OTH Found	CNIT	-0.399	-0.961	RNA	781185.0	781987.0	782073.0	782037.0
antisense_382	782483	+	CP049075.1 (1185801-1186494)	False	QRNA	75.586	2.685	COD	782483.0	782487.0	783176.0	783164.0
antisense_383	785376	+	CP059597.1 (619204-620081)	True	QRNA	9.477	-0.157	RNA	785376.0	785376.0	786263.0	786263.0
antisense_384	786269	+		OTH Found	CNIT	-0.592	1.078	RNA	786269.0	786274.0	786476.0	786297.0
antisense_385	786476	+		OTH Found	CNIT	-0.766	2.91	RNA	786476.0	786564.0	786611.0	786602.0
antisense_386	786611	+		OTH Found	CNIT	-0.583	0.98	RNA	786611.0	786884.0	787499.0	786952.0
antisense_387	791389	+		OTH Found	CNIT	-0.507	0.182	RNA	791389.0	791402.0	791932.0	791437.0
antisense_388	791932	+	CP082871.1 (26515-25638)	False	QRNA	3.762	-0.574	COD	791934.0	792099.0	792811.0	792797.0
antisense_389	794239	-		OTH Found	CNIT	-0.539	0.517	RNA	793351.0	793617.0	794239.0	793655.0
antisense_390	795285	+		OTH Found	CNIT	-0.527	0.392	RNA	795285.0	795637.0	796078.0	795720.0
antisense_391	796078	+		OTH Found	CNIT	-0.629	1.469	RNA	796078.0	796137.0	796329.0	796166.0
antisense_392	796329	+	HG326877.1 (1212492-1212140)	False	QRNA	5.324	-0.504	COD	796330.0	796420.0	796682.0	796665.0
antisense_393	796683	+		OTH Found	CNIT	-0.563	0.767	RNA	796683.0	796758.0	797178.0	796781.0
antisense_395	797178	+	CP059597.1 (630840-631718)	True	QRNA	15.871	0.557	RNA	797182.0	797182.0	798060.0	798060.0
antisense_396	807733	+		OTH Found	CNIT	-0.471	-0.204	RNA	807733.0	808117.0	808291.0	808164.0
antisense_397	808291	+	CP011777.1 (1114329-1114265)	False	QRNA	0.039	-0.743	COD	808291.0	808311.0	808355.0	808352.0
antisense_398	808356	+		OTH Found	CNIT	-0.535	0.477	RNA	808356.0	808450.0	808616.0	808479.0
antisense_399	808616	+		OTH Found	CNIT	-0.71	2.322	RNA	808616.0	808635.0	809032.0	808649.0
antisense_400	809032	+		OTH Found	CNIT	-0.425	-0.686	RNA	809032.0	809666.0	809920.0	809725.0
antisense_401	819897	+	OU701459.1 (800830-800091)	False	QRNA	41.078	1.119	COD	819897.0	819897.0	820639.0	820620.0
antisense_402	822710	+		OTH Found	CNIT	-0.57	0.843	RNA	822710.0	822941.0	822992.0	822955.0
antisense_403	822992	+	HG326877.1 (1161374-1162273)	True	QRNA	12.871	0.222	RNA	822992.0	822992.0	823879.0	823879.0
antisense_404	824720	+	CP041617.1 (977109-976840)	False	QRNA	0.586	-0.719	COD	824723.0	824811.0	824992.0	824882.0
antisense_405	825007	+		OTH Found	CNIT	-0.427	-0.666	RNA	825007.0	825278.0	825895.0	825349.0
antisense_406	827096	+		OTH Found	CNIT	-0.497	0.069	RNA	827096.0	827892.0	827984.0	827921.0
antisense_407	831257	+		OTH Found	CNIT	-0.461	-0.305	RNA	831257.0	831265.0	831698.0	831318.0
antisense_408	831698	+	CP063089.1 (1233383-1234065)	False	QRNA	5.082	-0.515	COD	831698.0	831720.0	832383.0	832369.0
antisense_409	833478	+		OTH Found	CNIT	-0.489	-0.006	RNA	833478.0	833519.0	834366.0	833557.0
antisense_410	835685	+	CP059597.1 (542605-542051)	True	QRNA	11.967	0.121	RNA	835693.0	835693.0	836247.0	836247.0
antisense_411	836249	+	CP022347.1 (785968-785857)	False	QRNA	15.082	-0.061	COD	836251.0	836254.0	836362.0	836355.0
antisense_412	836367	+	CP044165.1 (1098125-1098224)	False	QRNA	0.61	-0.717	COD	836367.0	836368.0	836466.0	836385.0
antisense_413	836467	+	CP059597.1 (541830-540944)	True	QRNA	22.79	1.33	RNA	836467.0	836467.0	837354.0	837354.0
antisense_414	838922	+		OTH Found	CNIT	-0.459	-0.322	RNA	838922.0	839312.0	839810.0	839392.0
antisense_415	841488	-		OTH Found	CNIT	-0.504	0.145	RNA	841157.0	841410.0	841488.0	841478.0
antisense_416	841833	-	CP053831.1 (368482-368142)	False	QRNA	5.986	-0.474	COD	841496.0	841501.0	841833.0	841833.0
antisense_417	843776	+	CP059597.1 (534575-533690)	True	QRNA	13.986	0.346	RNA	843776.0	843804.0	844663.0	844663.0
antisense_418	847912	-		OTH Found	CNIT	-0.477	-0.139	RNA	847024.0	847615.0	847912.0	847653.0
antisense_419	848114	-		OTH Found	CNIT	-0.586	1.012	RNA	847912.0	848043.0	848114.0	848093.0
antisense_420	855239	+	CP015577.1 (314394-313844)	False	QRNA	1.487	-0.678	COD	855239.0	855308.0	855789.0	855568.0
antisense_421	855790	+		OTH Found	CNIT	-0.487	-0.032	RNA	855790.0	855951.0	856189.0	856025.0
antisense_422	856189	+		OTH Found	CNIT	-0.478	-0.127	RNA	856189.0	856962.0	857062.0	857012.0
antisense_423	857062	+	CP053849.1 (493359-494245)	False	QRNA	15.855	-0.026	COD	857063.0	857117.0	857949.0	857918.0
antisense_424	863169	-		OTH Found	CNIT	-0.52	0.317	RNA	862281.0	863056.0	863169.0	863085.0
antisense_425	869671	+	LR134534.1 (1300510-1301388)	True	QRNA	15.222	0.484	RNA	869671.0	869671.0	870522.0	870522.0
antisense_426	873984	-		OTH Found	CNIT	0.639	1.036	COD	873096.0	873096.0	873984.0	873266.0
antisense_427	874020	-		OTH Found	CNIT	-0.627	1.449	RNA	873984.0	873988.0	874020.0	874005.0
antisense_428	874242	-		OTH Found	CNIT	-0.564	0.781	RNA	874020.0	874163.0	874242.0	874213.0
antisense_429	874518	-		OTH Found	CNIT	-0.521	0.328	RNA	874242.0	874381.0	874518.0	874431.0
orphan_12	875231	+	CP038862.1 (1049723-1048835)	True	QRNA	24.178	1.485	RNA	875231.0	875231.0	876118.0	876118.0
antisense_430	878375	+		OTH Found	CNIT	-0.569	0.834	RNA	878375.0	878382.0	878503.0	878399.0
antisense_431	878503	+		OTH Found	CNIT	-0.531	0.438	RNA	878503.0	878504.0	878774.0	878545.0
antisense_432	878774	+	CP022470.1 (895320-896174)	True	QRNA	18.252	0.823	RNA	878774.0	878774.0	879617.0	879617.0
antisense_433	881374	+	CP007771.1 (839787-838910)	True	QRNA	17.4	0.727	RNA	881380.0	881380.0	882257.0	882257.0
antisense_434	882524	+		OTH Found	CNIT	-0.516	0.277	RNA	882524.0	882546.0	882736.0	882569.0
antisense_435	882736	+		OTH Found	CNIT	-0.423	-0.711	RNA	882736.0	883167.0	883624.0	883220.0
antisense_436	883823	+	CP014744.1 (919470-920384)	True	QRNA	22.547	1.302	RNA	883823.0	883823.0	884710.0	884710.0
antisense_437	885500	+		OTH Found	CNIT	-0.569	0.838	RNA	885500.0	885554.0	885652.0	885577.0
antisense_438	885652	+		OTH Found	CNIT	-0.453	-0.392	RNA	885652.0	886141.0	886540.0	886218.0
antisense_439	887093	+		OTH Found	CNIT	-0.48	-0.103	RNA	887093.0	887346.0	887981.0	887435.0
antisense_440	888985	+		OTH Found	CNIT	-0.48	-0.1	RNA	888985.0	889311.0	889873.0	889382.0
antisense_441	890313	-		OTH Found	CNIT	-0.558	0.722	RNA	889897.0	890179.0	890313.0	890205.0
antisense_443	890353	-		OTH Found	CNIT	-0.748	2.727	RNA	890313.0	890335.0	890353.0	890346.0
antisense_444	892922	-		OTH Found	CNIT	-0.607	1.234	RNA	892754.0	892789.0	892922.0	892806.0
antisense_445	900570	+	CP053849.1 (853005-853506)	False	QRNA	31.989	0.707	COD	900571.0	900571.0	901072.0	901053.0
antisense_446	901073	+		OTH Found	CNIT	-0.449	-0.429	RNA	901073.0	901130.0	901961.0	901165.0
antisense_447	904351	+	CP076657.1 (647792-646937)	True	QRNA	14.411	0.394	RNA	904357.0	904357.0	905212.0	905212.0
antisense_448	909502	-	CP020867.1 (724756-724024)	True	QRNA	15.563	0.522	RNA	908763.0	908763.0	909495.0	909495.0
antisense_449	910077	-		OTH Found	CNIT	-0.454	-0.377	RNA	909502.0	909585.0	910077.0	909644.0
antisense_450	910139	-		OTH Found	CNIT	-0.477	-0.141	RNA	910077.0	910109.0	910139.0	910138.0
antisense_451	911272	-	CP010472.1 (482116-481767)	True	QRNA	14.005	0.348	RNA	910914.0	910914.0	911272.0	911272.0
antisense_452	911978	-		OTH Found	CNIT	-0.515	0.263	RNA	911272.0	911277.0	911978.0	911324.0
antisense_453	912449	-		OTH Found	CNIT	-0.538	0.504	RNA	911978.0	911987.0	912449.0	912025.0
antisense_454	912678	-		OTH Found	CNIT	-0.448	-0.438	RNA	912449.0	912455.0	912678.0	912487.0
antisense_455	914488	-	CP053854.1 (440948-441836)	True	QRNA	26.691	1.765	RNA	913603.0	913603.0	914488.0	914488.0
antisense_456	915178	-	CP053854.1 (440282-440947)	True	QRNA	7.917	-0.332	RNA	914489.0	914489.0	915178.0	915178.0
antisense_457	915319	-		OTH Found	CNIT	-0.49	0.003	RNA	915178.0	915204.0	915319.0	915257.0
antisense_458	918350	-	LS483295.1 (941863-940976)	True	QRNA	24.392	1.508	RNA	917463.0	917463.0	918350.0	918350.0
antisense_459	923862	-	CP063536.1 (827669-827060)	True	QRNA	22.162	1.259	RNA	923244.0	923244.0	923859.0	923859.0
antisense_460	924358	-		OTH Found	CNIT	-0.5	0.106	RNA	923862.0	924273.0	924358.0	924317.0
antisense_461	924484	-		OTH Found	CNIT	-0.684	2.045	RNA	924358.0	924401.0	924484.0	924412.0
antisense_462	924661	-		OTH Found	CNIT	-0.694	2.156	RNA	924484.0	924614.0	924661.0	924628.0
antisense_463	928070	+		OTH Found	CNIT	-0.512	0.234	RNA	928070.0	928888.0	928958.0	928935.0
antisense_464	930467	+		OTH Found	CNIT	-0.533	0.459	RNA	930467.0	931131.0	931355.0	931154.0
antisense_465	934558	-	CP007776.2 (1072516-1073196)	True	QRNA	18.932	0.899	RNA	933880.0	933880.0	934558.0	934558.0
antisense_466	935340	+	CP066487.1 (801626-800747)	True	QRNA	12.648	0.197	RNA	935340.0	935586.0	936226.0	936226.0
antisense_468	937688	-	CP059597.1 (491656-492539)	True	QRNA	19.067	0.914	RNA	936817.0	936817.0	937688.0	937688.0
antisense_469	940021	+	HG326877.1 (1074145-1073307)	True	QRNA	6.996	-0.435	RNA	940030.0	940030.0	940867.0	940867.0
antisense_470	942897	+		OTH Found	CNIT	-0.478	-0.126	RNA	942897.0	943483.0	943780.0	943527.0
antisense_471	943780	+		OTH Found	CNIT	-0.484	-0.06	RNA	943780.0	943918.0	944507.0	943962.0
antisense_472	944507	+		OTH Found	CNIT	-0.554	0.677	RNA	944507.0	944525.0	944670.0	944575.0
antisense_473	944670	+	CP076657.1 (794104-793216)	True	QRNA	23.322	1.389	RNA	944670.0	944670.0	945555.0	945555.0
antisense_474	946242	+	CP020867.1 (940302-939508)	True	QRNA	24.498	1.52	RNA	946242.0	946242.0	947045.0	947045.0
antisense_475	947052	+		OTH Found	CNIT	-0.511	0.222	RNA	947052.0	947819.0	947940.0	947887.0
antisense_476	948980	-	CP020867.1 (937571-938298)	False	QRNA	12.762	-0.166	COD	948251.0	948292.0	948977.0	948975.0
antisense_477	951390	+	CP059597.1 (714785-715669)	True	QRNA	10.89	0.0	RNA	951393.0	951393.0	952277.0	952277.0
antisense_478	953508	+	CP076657.1 (753338-754213)	True	QRNA	12.697	0.202	RNA	953511.0	953511.0	954395.0	954395.0
antisense_479	955328	+		OTH Found	CNIT	-0.442	-0.504	RNA	955328.0	955776.0	955984.0	955859.0
antisense_480	955984	+	CP007769.1 (1068318-1067441)	False	QRNA	37.343	0.95	COD	955992.0	956021.0	956870.0	956868.0
antisense_481	963318	+		OTH Found	CNIT	0.579	-0.794	COD	963318.0	963466.0	964206.0	963687.0
antisense_482	967207	+		OTH Found	CNIT	-0.465	-0.265	RNA	967207.0	967466.0	968095.0	967534.0
antisense_483	968655	+		OTH Found	CNIT	-0.476	-0.143	RNA	968655.0	969385.0	969543.0	969420.0
antisense_484	970537	-	CP063536.1 (871316-870857)	True	QRNA	12.707	0.203	RNA	970089.0	970089.0	970537.0	970511.0
antisense_485	970832	-		OTH Found	CNIT	-0.598	1.135	RNA	970537.0	970643.0	970832.0	970675.0
antisense_487	971806	-	CP076657.1 (778972-778085)	True	QRNA	13.571	0.3	RNA	970920.0	970920.0	971806.0	971806.0
antisense_488	975230	+	CP063091.1 (1839626-1840514)	True	QRNA	13.703	0.315	RNA	975230.0	975230.0	976117.0	976117.0
antisense_489	988347	+		OTH Found	CNIT	-0.46	-0.32	RNA	988347.0	988784.0	989235.0	988810.0
antisense_490	990789	+	CP063083.1 (796981-797805)	True	QRNA	3.769	-0.795	RNA	990792.0	990848.0	991616.0	991616.0
antisense_491	993974	+		OTH Found	CNIT	-0.787	3.13	RNA	993974.0	994043.0	994060.0	994054.0
antisense_492	994060	+		OTH Found	CNIT	-0.582	0.971	RNA	994060.0	994145.0	994514.0	994159.0
antisense_493	994514	+	LR134534.1 (1254841-1255689)	True	QRNA	26.726	1.769	RNA	994518.0	994518.0	995369.0	995369.0
antisense_494	1002432	-		OTH Found	CNIT	-0.662	1.82	RNA	1002142.0	1002381.0	1002432.0	1002413.0
antisense_495	1002462	-		No QRNA hit	CNIT	-0.748	2.724	RNA	1002432.0	1002440.0	1002462.0	1002451.0
antisense_496	1004020	-	CP017875.1 (836145-837021)	True	QRNA	22.325	1.278	RNA	1003145.0	1003145.0	1004020.0	1004020.0
antisense_497	1005439	-	CP059597.1 (775497-774641)	True	QRNA	3.216	-0.857	RNA	1004555.0	1004555.0	1005437.0	1005437.0
antisense_498	1005733	-		OTH Found	CNIT	-0.507	0.185	RNA	1005439.0	1005539.0	1005733.0	1005661.0
antisense_499	1007271	-		OTH Found	CNIT	-0.515	0.268	RNA	1006383.0	1006719.0	1007271.0	1006763.0
antisense_501	1008677	-		OTH Found	CNIT	-0.438	-0.55	RNA	1007789.0	1008194.0	1008677.0	1008229.0
antisense_502	1011245	+		OTH Found	CNIT	-0.443	-0.497	RNA	1011245.0	1011656.0	1012130.0	1011694.0
antisense_503	1012761	-		OTH Found	CNIT	-0.428	-0.654	RNA	1012158.0	1012435.0	1012761.0	1012494.0
antisense_504	1012894	-		OTH Found	CNIT	-0.59	1.052	RNA	1012761.0	1012818.0	1012894.0	1012850.0
antisense_505	1013593	-	CP042463.1 (702739-703430)	False	QRNA	2.212	-0.645	COD	1012898.0	1012900.0	1013592.0	1013301.0
antisense_506	1013741	-		OTH Found	CNIT	-0.776	3.017	RNA	1013593.0	1013725.0	1013741.0	1013736.0
antisense_507	1014610	-	CP063536.1 (913161-912303)	True	QRNA	35.005	2.694	RNA	1013749.0	1013749.0	1014610.0	1014610.0
antisense_508	1017211	+	CP058336.1 (1077997-1078882)	True	QRNA	10.107	-0.087	RNA	1017213.0	1017213.0	1018098.0	1018098.0
antisense_509	1018917	+	OU701459.1 (581338-580473)	False	QRNA	8.561	-0.357	COD	1018918.0	1018923.0	1019783.0	1019696.0
antisense_510	1025280	+		OTH Found	CNIT	-0.416	-0.778	RNA	1025280.0	1025962.0	1026168.0	1026054.0
antisense_511	1027689	+		OTH Found	CNIT	-0.391	-1.04	RNA	1027689.0	1028071.0	1028577.0	1028133.0
antisense_512	1031512	-		OTH Found	CNIT	-0.526	0.384	RNA	1030696.0	1031393.0	1031512.0	1031419.0
antisense_513	1031782	-		OTH Found	CNIT	-0.57	0.849	RNA	1031512.0	1031626.0	1031782.0	1031643.0
antisense_514	1032746	+		OTH Found	CNIT	-0.472	-0.191	RNA	1032746.0	1033117.0	1033509.0	1033143.0
antisense_515	1035364	-	CP068172.1 (1254768-1255647)	True	QRNA	10.139	-0.285	COD	1034478.0	1034482.0	1035360.0	1035264.0
antisense_516	1035708	-		OTH Found	CNIT	-0.615	1.319	RNA	1035364.0	1035514.0	1035708.0	1035567.0
antisense_517	1036055	-		OTH Found	CNIT	-0.619	1.366	RNA	1035708.0	1035969.0	1036055.0	1035983.0
antisense_518	1036424	-		OTH Found	CNIT	-0.588	1.031	RNA	1036055.0	1036366.0	1036424.0	1036380.0
antisense_519	1036589	-		OTH Found	CNIT	-0.534	0.464	RNA	1036424.0	1036562.0	1036589.0	1036588.0
antisense_520	1036866	-		OTH Found	CNIT	-0.44	-0.531	RNA	1036589.0	1036662.0	1036866.0	1036703.0
antisense_521	1036918	-		OTH Found	CNIT	-0.693	2.14	RNA	1036866.0	1036872.0	1036918.0	1036883.0
antisense_522	1038137	-	CP059597.1 (811188-810307)	True	QRNA	18.093	0.805	RNA	1037252.0	1037295.0	1038136.0	1038136.0
antisense_523	1038349	-		OTH Found	CNIT	-0.62	1.368	RNA	1038137.0	1038137.0	1038349.0	1038163.0
antisense_524	1040161	-	CP058340.1 (672158-673009)	True	QRNA	12.906	0.226	RNA	1039299.0	1039299.0	1040160.0	1040160.0
antisense_525	1040624	-		OTH Found	CNIT	-0.554	0.673	RNA	1040161.0	1040515.0	1040624.0	1040580.0
antisense_526	1041131	-		OTH Found	CNIT	-0.486	-0.046	RNA	1040624.0	1040762.0	1041131.0	1040809.0
antisense_527	1041522	-		OTH Found	CNIT	-0.511	0.227	RNA	1041131.0	1041191.0	1041522.0	1041235.0
antisense_528	1041992	-	OU701459.1 (887099-887563)	False	QRNA	0.224	-0.735	COD	1041523.0	1041679.0	1041990.0	1041813.0
antisense_529	1042171	-	CP053848.1 (1107956-1107778)	False	QRNA	1.458	-0.679	COD	1041995.0	1042006.0	1042170.0	1042119.0
antisense_530	1042231	-		OTH Found	CNIT	-0.625	1.427	RNA	1042171.0	1042184.0	1042231.0	1042204.0
antisense_531	1042419	-		OTH Found	CNIT	-0.645	1.633	RNA	1042231.0	1042361.0	1042419.0	1042387.0
antisense_532	1044861	-	LR134534.1 (1163660-1162770)	True	QRNA	8.266	-0.293	RNA	1043974.0	1043974.0	1044861.0	1044861.0
antisense_533	1045631	-	CP076657.1 (1095772-1095006)	True	QRNA	16.202	0.594	RNA	1044862.0	1044862.0	1045631.0	1045631.0
antisense_534	1046414	+		OTH Found	CNIT	-0.462	-0.294	RNA	1046414.0	1047079.0	1047302.0	1047132.0
antisense_535	1048853	-	OU532556.1 (665548-666200)	True	QRNA	14.531	0.407	RNA	1048194.0	1048194.0	1048845.0	1048845.0
antisense_536	1049271	+		OTH Found	CNIT	-0.34	-1.587	RNA	1049271.0	1049468.0	1049687.0	1049617.0
antisense_537	1049687	+	CP044163.1 (130826-131717)	True	QRNA	7.509	-0.377	RNA	1049688.0	1049688.0	1050574.0	1050574.0
antisense_539	1052071	+		OTH Found	CNIT	-0.55	0.632	RNA	1052071.0	1052076.0	1052787.0	1052102.0
antisense_540	1052787	+	CP053828.1 (429200-429136)	False	QRNA	4.244	-0.553	COD	1052787.0	1052810.0	1052851.0	1052842.0
antisense_541	1052858	+		OTH Found	CNIT	-0.43	-0.629	RNA	1052858.0	1053208.0	1053746.0	1053252.0
antisense_542	1054555	+		OTH Found	CNIT	-0.513	0.245	RNA	1054555.0	1054994.0	1055443.0	1055032.0
antisense_543	1058877	+		OTH Found	CNIT	-0.512	0.235	RNA	1058877.0	1059596.0	1059765.0	1059625.0
antisense_544	1061310	+		OTH Found	CNIT	-0.524	0.365	RNA	1061310.0	1061577.0	1061695.0	1061609.0
antisense_545	1061695	+		OTH Found	CNIT	-0.435	-0.583	RNA	1061695.0	1062314.0	1062583.0	1062397.0
antisense_546	1062721	+	CP063083.1 (1057358-1058237)	False	QRNA	5.929	-0.476	COD	1062723.0	1062724.0	1063608.0	1063589.0
antisense_547	1072894	-	CP048764.1 (1101196-1100324)	True	QRNA	12.006	0.125	RNA	1072007.0	1072007.0	1072894.0	1072894.0
orphan_13	1073590	-	CP017033.1 (1224160-1223440)	True	QRNA	33.706	2.549	RNA	1072895.0	1072895.0	1073581.0	1073581.0
antisense_548	1074165	-		OTH Found	CNIT	-0.506	0.172	RNA	1073590.0	1073686.0	1074165.0	1073715.0
antisense_549	1074291	-		OTH Found	CNIT	-0.709	2.306	RNA	1074165.0	1074201.0	1074291.0	1074221.0
antisense_550	1076151	-		OTH Found	CNIT	-0.503	0.141	RNA	1075402.0	1075879.0	1076151.0	1075902.0
antisense_551	1076318	-		OTH Found	CNIT	-0.606	1.224	RNA	1076151.0	1076246.0	1076318.0	1076272.0
antisense_552	1078063	-	CP041617.1 (724798-725683)	False	QRNA	15.5	-0.042	COD	1077178.0	1077182.0	1078063.0	1077903.0
antisense_554	1078745	-		OTH Found	CNIT	-0.509	0.203	RNA	1078063.0	1078263.0	1078745.0	1078289.0
antisense_555	1080850	-	CP007770.1 (1159704-1160568)	True	QRNA	11.741	0.095	RNA	1079963.0	1079963.0	1080844.0	1080844.0
antisense_556	1082152	-	CP059597.1 (860375-860003)	True	QRNA	9.125	-0.197	RNA	1081779.0	1081886.0	1082152.0	1082152.0
antisense_557	1082972	+		OTH Found	CNIT	-0.47	-0.215	RNA	1082972.0	1083307.0	1083860.0	1083360.0
antisense_558	1089367	+	CP059682.1 (1308812-1308529)	False	QRNA	5.182	-0.51	COD	1089367.0	1089367.0	1089650.0	1089492.0
antisense_559	1089651	+	LR134372.1 (1083907-1083626)	False	QRNA	7.039	-0.426	COD	1089651.0	1089820.0	1089932.0	1089885.0
antisense_560	1091885	-		OTH Found	CNIT	0.567	-1.164	COD	1090997.0	1091473.0	1091885.0	1091853.0
antisense_561	1092431	-	LR134530.1 (1259887-1259345)	True	QRNA	18.78	0.882	RNA	1091886.0	1091886.0	1092431.0	1092431.0
antisense_562	1092494	-	CP054848.1 (888141-888080)	False	QRNA	1.377	-0.683	COD	1092433.0	1092448.0	1092494.0	1092483.0
antisense_563	1096902	+		OTH Found	CNIT	-0.381	-1.154	RNA	1096902.0	1097315.0	1097790.0	1097443.0
antisense_564	1100758	+	CP048771.1 (1114604-1115502)	True	QRNA	5.443	-0.608	RNA	1100759.0	1100759.0	1101645.0	1101645.0
antisense_565	1104396	+		OTH Found	CNIT	-0.479	-0.11	RNA	1104396.0	1105007.0	1105284.0	1105087.0
antisense_566	1107967	+	CP037747.1 (825937-826796)	False	QRNA	12.572	-0.175	COD	1107975.0	1108031.0	1108834.0	1108615.0
antisense_567	1114412	+		OTH Found	CNIT	-0.435	-0.582	RNA	1114412.0	1114575.0	1115300.0	1114637.0
antisense_568	1115587	+		OTH Found	CNIT	-0.966	5.018	RNA	1115587.0	1115590.0	1115625.0	1115598.0
antisense_569	1115625	+		OTH Found	CNIT	-0.441	-0.513	RNA	1115625.0	1116228.0	1116379.0	1116293.0
antisense_570	1116379	+		OTH Found	CNIT	-0.524	0.364	RNA	1116379.0	1116380.0	1116526.0	1116433.0
antisense_571	1116526	+		OTH Found	CNIT	-0.465	-0.259	RNA	1116526.0	1116937.0	1117414.0	1116993.0
antisense_572	1121004	+		OTH Found	CNIT	-0.579	0.944	RNA	1121004.0	1121535.0	1121577.0	1121576.0
antisense_573	1122585	-	LR134508.1 (1140207-1139322)	False	QRNA	26.804	0.471	COD	1121700.0	1121798.0	1122585.0	1122577.0
antisense_574	1126057	+		OTH Found	CNIT	-0.545	0.576	RNA	1126057.0	1126238.0	1126945.0	1126279.0
antisense_575	1136624	+		OTH Found	CNIT	-0.429	-0.638	RNA	1136624.0	1136812.0	1137331.0	1136883.0
antisense_576	1137331	+	CP007775.1 (1449417-1450126)	False	QRNA	7.944	-0.385	COD	1137335.0	1137335.0	1138044.0	1138023.0
antisense_577	1138581	+		OTH Found	CNIT	-0.725	2.483	RNA	1138581.0	1138616.0	1138870.0	1138645.0
antisense_578	1140249	-		OTH Found	CNIT	-0.458	-0.336	RNA	1139361.0	1140186.0	1140249.0	1140248.0
orphan_15	1141664	-	CP059597.1 (330484-331372)	True	QRNA	38.201	3.051	RNA	1140777.0	1140777.0	1141663.0	1141663.0
orphan_16	1141674	+	CP020478.1 (223531-224201)	False	QRNA	187.624	7.77	COD	1141680.0	1141680.0	1142350.0	1142345.0
antisense_579	1145833	-		OTH Found	CNIT	-0.53	0.424	RNA	1145451.0	1145591.0	1145833.0	1145680.0
antisense_580	1147149	+	CP059373.1 (338178-338064)	False	QRNA	3.582	-0.583	COD	1147149.0	1147195.0	1147263.0	1147260.0
antisense_581	1147265	+	CP020867.1 (1309254-1308379)	True	QRNA	20.403	1.063	RNA	1147265.0	1147265.0	1148146.0	1148131.0
antisense_582	1149986	+		OTH Found	CNIT	-0.628	1.46	RNA	1149986.0	1150085.0	1150204.0	1150111.0
antisense_583	1150204	+		OTH Found	CNIT	-0.516	0.277	RNA	1150204.0	1150533.0	1150805.0	1150583.0
antisense_584	1151733	-		OTH Found	CNIT	-0.424	-0.692	RNA	1150921.0	1151449.0	1151733.0	1151523.0
antisense_585	1155384	-	CP010488.1 (879004-878431)	True	QRNA	4.898	-0.669	RNA	1154808.0	1154876.0	1155384.0	1155384.0
antisense_586	1155733	+	CP059597.1 (316582-315705)	True	QRNA	15.915	0.562	RNA	1155733.0	1155733.0	1156620.0	1156620.0
antisense_587	1163331	-		OTH Found	CNIT	-0.477	-0.133	RNA	1162443.0	1162536.0	1163331.0	1162580.0
antisense_588	1163796	-		OTH Found	CNIT	-0.562	0.764	RNA	1163331.0	1163493.0	1163796.0	1163540.0
antisense_589	1164131	-		OTH Found	CNIT	-0.53	0.425	RNA	1163796.0	1163901.0	1164131.0	1163957.0
antisense_590	1164946	-	CP020478.1 (826486-827287)	False	QRNA	8.509	-0.359	COD	1164144.0	1164202.0	1164945.0	1164879.0
antisense_591	1165738	-	CP063091.1 (992902-993669)	True	QRNA	15.159	0.477	RNA	1164954.0	1164954.0	1165727.0	1165727.0
antisense_592	1168953	-		OTH Found	CNIT	-0.504	0.146	RNA	1168201.0	1168831.0	1168953.0	1168881.0
antisense_593	1173195	-		OTH Found	CNIT	-0.449	-0.437	RNA	1172307.0	1173033.0	1173195.0	1173092.0
antisense_594	1173857	-		OTH Found	CNIT	-0.505	0.158	RNA	1173195.0	1173408.0	1173857.0	1173449.0
antisense_595	1175523	+		OTH Found	CNIT	-0.501	0.117	RNA	1175523.0	1175810.0	1176411.0	1175857.0
antisense_596	1176894	+	CP059597.1 (297312-296453)	True	QRNA	38.093	3.039	RNA	1176894.0	1176894.0	1177762.0	1177762.0
antisense_597	1179360	-		OTH Found	CNIT	-0.447	-0.455	RNA	1178472.0	1178520.0	1179360.0	1178600.0
antisense_598	1181279	-	OU701461.1 (974221-975100)	True	QRNA	13.783	0.323	RNA	1180394.0	1180394.0	1181279.0	1181279.0
antisense_599	1184144	-		OTH Found	CNIT	-0.443	-0.496	RNA	1183256.0	1183502.0	1184144.0	1183540.0
antisense_600	1184529	-		OTH Found	CNIT	-0.422	-0.714	RNA	1184144.0	1184188.0	1184529.0	1184316.0
antisense_601	1191102	-	CP086167.1 (1232743-1231853)	True	QRNA	27.715	1.88	RNA	1190215.0	1190215.0	1191102.0	1191102.0
antisense_602	1193666	-		OTH Found	CNIT	-0.524	0.363	RNA	1193374.0	1193410.0	1193666.0	1193439.0
antisense_603	1193942	-		OTH Found	CNIT	-0.509	0.205	RNA	1193666.0	1193807.0	1193942.0	1193839.0
antisense_604	1194939	-	CP059597.1 (358948-359828)	True	QRNA	48.985	4.255	RNA	1194053.0	1194053.0	1194933.0	1194933.0
antisense_605	1204663	+		OTH Found	CNIT	-0.416	-0.775	RNA	1204663.0	1204890.0	1205551.0	1204964.0
antisense_606	1206304	+		OTH Found	CNIT	-0.528	0.397	RNA	1206304.0	1206598.0	1207192.0	1206657.0
antisense_607	1214953	+		OTH Found	CNIT	-0.515	0.261	RNA	1214953.0	1215048.0	1215531.0	1215131.0
antisense_608	1216386	-		OTH Found	CNIT	-0.447	-0.448	RNA	1215531.0	1215956.0	1216386.0	1216003.0
antisense_609	1216778	-		OTH Found	CNIT	-0.447	-0.457	RNA	1216386.0	1216504.0	1216778.0	1216554.0
antisense_610	1221331	+	CP020478.1 (1529302-1528417)	False	QRNA	4.918	-0.522	COD	1221331.0	1221359.0	1222218.0	1221854.0
antisense_611	1225401	+	CP063091.1 (1122134-1122615)	True	QRNA	1.074	-1.096	RNA	1225401.0	1225401.0	1225872.0	1225872.0
antisense_612	1226469	-		OTH Found	CNIT	-0.383	-1.125	RNA	1225781.0	1225896.0	1226469.0	1226066.0
antisense_613	1227486	-	CP022347.1 (1195515-1194634)	False	QRNA	52.502	1.638	COD	1226600.0	1226740.0	1227481.0	1227294.0
antisense_614	1229928	-		OTH Found	CNIT	-0.437	-0.557	RNA	1229040.0	1229309.0	1229928.0	1229362.0
antisense_615	1231669	-	CP040239.1 (1309077-1308346)	True	QRNA	14.6	0.415	RNA	1230938.0	1230938.0	1231669.0	1231669.0
antisense_616	1232836	-	CP058340.1 (472598-473489)	True	QRNA	42.142	3.491	RNA	1231949.0	1231949.0	1232836.0	1232836.0
antisense_617	1232982	-		OTH Found	CNIT	-0.699	2.201	RNA	1232836.0	1232904.0	1232982.0	1232915.0
antisense_618	1233092	-	CP044173.1 (655345-655460)	True	QRNA	2.295	-0.96	RNA	1232983.0	1232983.0	1233092.0	1233092.0
antisense_619	1236663	+		OTH Found	CNIT	-0.498	0.08	RNA	1236663.0	1236708.0	1237399.0	1236749.0
antisense_620	1237363	-		OTH Found	CNIT	0.587	-0.554	COD	1236702.0	1236774.0	1237363.0	1237088.0
antisense_621	1238329	-		OTH Found	CNIT	-0.42	-0.738	RNA	1237441.0	1237991.0	1238329.0	1238056.0
antisense_622	1238499	-		OTH Found	CNIT	-0.616	1.325	RNA	1238329.0	1238480.0	1238499.0	1238497.0
antisense_623	1245132	+	CP059597.1 (977224-978107)	False	QRNA	17.647	0.056	COD	1245136.0	1245177.0	1246019.0	1246004.0
antisense_624	1247591	-	CP007774.1 (136245-137122)	True	QRNA	19.024	0.909	RNA	1246704.0	1246704.0	1247584.0	1247584.0
antisense_625	1248330	-		OTH Found	CNIT	-0.449	-0.431	RNA	1247591.0	1248229.0	1248330.0	1248264.0
antisense_626	1249205	-	CP084082.1 (928279-927412)	True	QRNA	15.02	0.462	RNA	1248331.0	1248331.0	1249198.0	1249198.0
antisense_627	1249960	-	CP040616.1 (1342648-1341878)	True	QRNA	28.209	1.935	RNA	1249206.0	1249206.0	1249957.0	1249957.0
antisense_628	1250225	-		OTH Found	CNIT	-0.463	-0.289	RNA	1249960.0	1250118.0	1250225.0	1250153.0
antisense_629	1250907	-		OTH Found	CNIT	-0.528	0.397	RNA	1250225.0	1250538.0	1250907.0	1250555.0
antisense_630	1251049	-		OTH Found	CNIT	-0.751	2.757	RNA	1250907.0	1250976.0	1251049.0	1250987.0
antisense_631	1251782	-		OTH Found	CNIT	-0.553	0.669	RNA	1251049.0	1251671.0	1251782.0	1251703.0
antisense_632	1251920	-		OTH Found	CNIT	-0.598	1.14	RNA	1251782.0	1251824.0	1251920.0	1251835.0
antisense_633	1251995	-		OTH Found	CNIT	-0.726	2.493	RNA	1251920.0	1251952.0	1251995.0	1251987.0
antisense_634	1253474	+		OTH Found	CNIT	-0.384	-1.119	RNA	1253474.0	1253535.0	1254362.0	1253687.0
antisense_635	1258579	+		OTH Found	CNIT	-0.463	-0.28	RNA	1258579.0	1259172.0	1259467.0	1259240.0
antisense_636	1261328	+	CP063091.1 (679679-678890)	True	QRNA	13.264	0.266	RNA	1261332.0	1261389.0	1262121.0	1262121.0
antisense_637	1262122	+	CP007774.1 (1480998-1481829)	True	QRNA	12.225	0.149	RNA	1262124.0	1262124.0	1262955.0	1262955.0
antisense_638	1265353	+	CP059597.1 (997304-998192)	True	QRNA	27.029	1.803	RNA	1265353.0	1265353.0	1266240.0	1266240.0
antisense_639	1268659	-	CP059373.1 (202207-203139)	True	QRNA	6.981	-0.436	RNA	1267772.0	1267772.0	1268659.0	1268413.0
antisense_640	1270031	-		OTH Found	CNIT	-0.44	-0.522	RNA	1269143.0	1269316.0	1270031.0	1269378.0
antisense_641	1270939	-	X88849.1 (2787-1899)	True	QRNA	17.088	0.693	RNA	1270052.0	1270052.0	1270939.0	1270939.0
antisense_642	1271227	-	CP076657.1 (687443-687190)	False	QRNA	5.998	-0.473	COD	1270973.0	1270993.0	1271226.0	1271148.0
antisense_643	1271927	-		OTH Found	CNIT	-0.464	-0.279	RNA	1271227.0	1271652.0	1271927.0	1271723.0
antisense_644	1272615	+		OTH Found	CNIT	-0.686	2.073	RNA	1272615.0	1272644.0	1272663.0	1272658.0
antisense_646	1272663	+		OTH Found	CNIT	-0.457	-0.345	RNA	1272663.0	1272697.0	1273551.0	1272786.0
antisense_647	1276234	-		OTH Found	CNIT	-0.532	0.443	RNA	1275956.0	1276110.0	1276234.0	1276142.0
antisense_648	1276939	-	CP063083.1 (1076824-1076120)	False	QRNA	26.083	0.439	COD	1276235.0	1276248.0	1276939.0	1276847.0
antisense_649	1277087	-		OTH Found	CNIT	-0.496	0.063	RNA	1276939.0	1276950.0	1277087.0	1276979.0
antisense_650	1284405	+		OTH Found	CNIT	-0.431	-0.624	RNA	1284405.0	1284408.0	1285141.0	1284506.0
antisense_651	1285141	+		OTH Found	CNIT	-0.495	0.055	RNA	1285141.0	1285502.0	1286029.0	1285528.0
antisense_652	1287281	+	OU701459.1 (1277976-1277092)	True	QRNA	17.989	0.793	RNA	1287281.0	1287281.0	1288167.0	1288167.0
antisense_654	1290494	-		OTH Found	CNIT	-0.533	0.453	RNA	1289960.0	1289963.0	1290494.0	1289986.0
antisense_655	1293375	-	LR134372.1 (1303623-1304510)	True	QRNA	8.585	-0.257	RNA	1292488.0	1292488.0	1293375.0	1293375.0
antisense_656	1295876	-		OTH Found	CNIT	0.658	1.634	COD	1294988.0	1295468.0	1295876.0	1295662.0
antisense_657	1296977	-		OTH Found	CNIT	-0.445	-0.479	RNA	1296089.0	1296102.0	1296977.0	1296146.0
antisense_658	1299684	-		OTH Found	CNIT	-0.523	0.344	RNA	1298796.0	1298956.0	1299684.0	1298991.0
antisense_659	1299964	-		OTH Found	CNIT	-0.409	-0.854	RNA	1299684.0	1299769.0	1299964.0	1299909.0
antisense_660	1301321	-		OTH Found	CNIT	-0.404	-0.903	RNA	1300847.0	1301255.0	1301321.0	1301317.0
antisense_661	1301482	-		OTH Found	CNIT	-0.451	-0.416	RNA	1301321.0	1301351.0	1301482.0	1301476.0
antisense_662	1301617	-		OTH Found	CNIT	-0.664	1.834	RNA	1301482.0	1301584.0	1301617.0	1301601.0
antisense_663	1307679	-		OTH Found	CNIT	-0.419	-0.745	RNA	1306791.0	1307225.0	1307679.0	1307266.0
antisense_664	1309741	+		OTH Found	CNIT	-0.584	0.989	RNA	1309741.0	1309912.0	1310139.0	1309938.0
antisense_665	1310495	-	CP022347.1 (1639730-1640120)	False	QRNA	3.273	-0.597	COD	1310106.0	1310172.0	1310495.0	1310468.0
antisense_666	1310649	-	CP006999.2 (1039290-1039443)	False	QRNA	3.999	-0.564	COD	1310496.0	1310508.0	1310649.0	1310620.0
antisense_667	1312036	-		OTH Found	CNIT	-0.485	-0.049	RNA	1311148.0	1311350.0	1312036.0	1311403.0
antisense_668	1316126	-	CP059599.1 (526335-525450)	False	QRNA	17.146	0.033	COD	1315239.0	1315282.0	1316125.0	1315998.0
antisense_669	1318697	-	CP028187.1 (1080212-1081092)	True	QRNA	16.131	0.586	RNA	1317814.0	1317873.0	1318697.0	1318697.0
antisense_670	1319044	-		OTH Found	CNIT	-0.509	0.201	RNA	1318697.0	1318713.0	1319044.0	1318769.0
antisense_671	1319895	-	CP076657.1 (1000378-1001223)	True	QRNA	17.011	0.684	RNA	1319049.0	1319277.0	1319895.0	1319895.0
antisense_672	1324293	+		OTH Found	CNIT	-0.475	-0.154	RNA	1324293.0	1324390.0	1325181.0	1324431.0
antisense_673	1332634	+		OTH Found	CNIT	-0.677	1.97	RNA	1332634.0	1332639.0	1332829.0	1332659.0
antisense_674	1332829	+		OTH Found	CNIT	-0.598	1.138	RNA	1332829.0	1332834.0	1332904.0	1332863.0
antisense_675	1332904	+		OTH Found	CNIT	-0.499	0.092	RNA	1332904.0	1332917.0	1333322.0	1332979.0
antisense_676	1333322	+		OTH Found	CNIT	-0.505	0.154	RNA	1333322.0	1334104.0	1334210.0	1334148.0
antisense_677	1342411	+	AY332625.1 (6962-7849)	True	QRNA	33.931	2.574	RNA	1342411.0	1342411.0	1343298.0	1343298.0
antisense_680	1344173	+		OTH Found	CNIT	-0.476	-0.148	RNA	1344173.0	1344627.0	1345061.0	1344683.0
antisense_678	1350020	+		OTH Found	CNIT	-0.528	0.399	RNA	1350020.0	1350246.0	1350900.0	1350287.0
antisense_679	1350900	+	CP000538.1 (1350900-1351787)	True	QRNA	32.928	2.462	RNA	1350900.0	1350900.0	1351787.0	1351787.0
antisense_681	1352887	+		OTH Found	CNIT	-0.458	-0.336	RNA	1352887.0	1352978.0	1353775.0	1353010.0
antisense_682	1354538	+		OTH Found	CNIT	-0.618	1.355	RNA	1354538.0	1354610.0	1354676.0	1354624.0
antisense_683	1354676	+		OTH Found	CNIT	-0.559	0.731	RNA	1354676.0	1354748.0	1354808.0	1354771.0
antisense_684	1354808	+	CP019838.1 (1114441-1115328)	True	QRNA	22.918	1.344	RNA	1354808.0	1354808.0	1355695.0	1355695.0
antisense_685	1358548	+		No QRNA hit	CNIT	-0.976	5.127	RNA	1358548.0	1358550.0	1358579.0	1358558.0
antisense_686	1358579	+		OTH Found	CNIT	-0.554	0.68	RNA	1358579.0	1358873.0	1359467.0	1358905.0
antisense_687	1360327	+	CP011372.1 (262800-261933)	True	QRNA	9.634	-0.14	RNA	1360327.0	1360327.0	1361206.0	1361206.0
antisense_688	1367979	-	CP076657.1 (304416-305298)	True	QRNA	24.281	1.496	RNA	1367092.0	1367092.0	1367979.0	1367979.0
antisense_689	1370120	+	CP035946.1 (1186697-1186230)	False	QRNA	12.204	-0.191	COD	1370129.0	1370129.0	1370596.0	1370500.0
antisense_690	1375157	-	CP063091.1 (934173-935016)	True	QRNA	26.018	1.69	RNA	1374300.0	1374300.0	1375150.0	1375150.0
antisense_691	1375771	-	CP091310.1 (1012314-1011718)	False	QRNA	19.11	0.122	COD	1375170.0	1375450.0	1375766.0	1375755.0
antisense_692	1378281	-		OTH Found	CNIT	-0.417	-0.767	RNA	1377393.0	1377649.0	1378281.0	1377696.0
antisense_693	1379038	-	OU701461.1 (1466954-1467709)	False	QRNA	8.075	-0.379	COD	1378283.0	1378342.0	1379038.0	1379031.0
antisense_694	1383016	+	HG326877.1 (634443-633565)	True	QRNA	12.263	0.154	RNA	1383020.0	1383020.0	1383902.0	1383902.0
antisense_695	1386158	+		OTH Found	CNIT	-0.489	-0.005	RNA	1386158.0	1386757.0	1387046.0	1386789.0
antisense_696	1397323	+		OTH Found	CNIT	-0.492	0.024	RNA	1397323.0	1397653.0	1398211.0	1397727.0
antisense_697	1399085	+	CP059597.1 (1157863-1158736)	True	QRNA	17.477	0.736	RNA	1399092.0	1399092.0	1399968.0	1399968.0
antisense_698	1408199	+	CP059374.1 (1680113-1679247)	True	QRNA	12.26	0.153	RNA	1408199.0	1408199.0	1409082.0	1409082.0
antisense_699	1412528	+	LR134372.1 (1576426-1576052)	False	QRNA	27.83	0.518	COD	1412531.0	1412565.0	1412905.0	1412864.0
antisense_700	1412912	+	CP059682.1 (201698-200824)	False	QRNA	11.88	-0.206	COD	1412919.0	1412919.0	1413792.0	1413784.0
antisense_701	1414286	+	CP022347.1 (92489-93363)	False	QRNA	47.001	1.388	COD	1414286.0	1414286.0	1415160.0	1415113.0
antisense_702	1415455	+	CP041617.1 (1558778-1558536)	False	QRNA	1.986	-0.655	COD	1415458.0	1415468.0	1415700.0	1415698.0
antisense_703	1415701	+		OTH Found	CNIT	-0.468	-0.233	RNA	1415701.0	1415912.0	1416589.0	1415983.0
antisense_704	1418911	+		OTH Found	CNIT	0.567	-1.15	COD	1418911.0	1419201.0	1419599.0	1419494.0
antisense_705	1419599	+	CP076657.1 (1404701-1405584)	True	QRNA	15.749	0.543	RNA	1419599.0	1419695.0	1420479.0	1420479.0
antisense_706	1420803	+	CP059597.1 (1172530-1173382)	True	QRNA	10.473	-0.046	RNA	1420805.0	1420805.0	1421686.0	1421686.0
antisense_707	1422188	+		OTH Found	CNIT	-0.442	-0.505	RNA	1422188.0	1422323.0	1423076.0	1422433.0
antisense_708	1426771	+	CP053844.1 (1954962-1955281)	False	QRNA	26.307	0.449	COD	1426773.0	1426779.0	1427092.0	1427075.0
antisense_709	1427271	+		OTH Found	CNIT	-0.383	-1.123	RNA	1427271.0	1427346.0	1428159.0	1427408.0
antisense_710	1430240	-	CP059597.1 (1181693-1181066)	True	QRNA	9.303	-0.177	RNA	1429598.0	1429598.0	1430238.0	1430238.0
antisense_711	1432246	-	CP068172.1 (415121-414248)	True	QRNA	19.482	0.96	RNA	1431359.0	1431359.0	1432240.0	1432240.0
orphan_17	1433397	-	CP022551.1 (1432985-1432098)	True	QRNA	24.464	1.516	RNA	1432510.0	1432510.0	1433397.0	1433397.0
antisense_712	1433605	+		OTH Found	CNIT	-0.482	-0.087	RNA	1433605.0	1433650.0	1434493.0	1433682.0
orphan_18	1436138	-	AY681264.1 (3142-2795)	True	QRNA	15.23	0.485	RNA	1435791.0	1435791.0	1436138.0	1436138.0
antisense_714	1438142	-	CP076657.1 (273199-274087)	True	QRNA	31.491	2.301	RNA	1437255.0	1437255.0	1438141.0	1438141.0
antisense_715	1439262	-	CP020867.1 (744592-745461)	True	QRNA	10.413	-0.053	RNA	1438375.0	1438375.0	1439259.0	1439259.0
antisense_716	1440114	+		OTH Found	CNIT	-0.644	1.624	RNA	1440114.0	1440133.0	1440303.0	1440144.0
antisense_717	1440303	+	CP063536.1 (1345193-1346020)	True	QRNA	14.168	0.366	RNA	1440304.0	1440304.0	1441190.0	1441144.0
antisense_718	1446256	+	CP020478.1 (347119-347491)	True	QRNA	32.469	0.728	COD	1446257.0	1446268.0	1446629.0	1446627.0
antisense_719	1446636	+	CP076657.1 (158680-159041)	True	QRNA	9.258	-0.182	RNA	1446637.0	1446637.0	1446986.0	1446986.0
antisense_720	1450465	+		OTH Found	CNIT	-0.488	-0.025	RNA	1450465.0	1450466.0	1451353.0	1450522.0
antisense_721	1452313	-		OTH Found	CNIT	-0.524	0.361	RNA	1451970.0	1452171.0	1452313.0	1452227.0
antisense_722	1453206	+		OTH Found	CNIT	-0.44	-0.526	RNA	1453206.0	1453291.0	1454094.0	1453344.0
antisense_723	1457530	+		OTH Found	CNIT	-0.547	0.598	RNA	1457530.0	1457768.0	1458418.0	1457797.0
antisense_724	1462517	+		OTH Found	CNIT	-0.454	-0.382	RNA	1462517.0	1462751.0	1463390.0	1462816.0
antisense_725	1467049	-		OTH Found	CNIT	-0.565	0.796	RNA	1466659.0	1466760.0	1467049.0	1466804.0
antisense_726	1467737	-	CP059374.1 (1609957-1610497)	True	QRNA	2.804	-0.903	RNA	1467186.0	1467186.0	1467737.0	1467737.0
antisense_727	1472877	+		OTH Found	CNIT	-0.438	-0.549	RNA	1472877.0	1473227.0	1473765.0	1473280.0
antisense_728	1476997	+		OTH Found	CNIT	-0.443	-0.5	RNA	1476997.0	1477056.0	1477885.0	1477118.0
antisense_729	1484786	+		OTH Found	CNIT	-0.597	1.131	RNA	1484786.0	1485131.0	1485214.0	1485163.0
antisense_730	1485214	+		OTH Found	CNIT	-0.516	0.272	RNA	1485214.0	1485234.0	1485922.0	1485302.0
antisense_731	1485922	+	CP059597.1 (1404583-1403710)	True	QRNA	16.657	0.644	RNA	1485933.0	1485933.0	1486806.0	1486554.0
antisense_732	1487763	+		OTH Found	CNIT	-0.713	2.349	RNA	1487763.0	1487885.0	1487967.0	1487899.0
antisense_733	1487967	+		OTH Found	CNIT	-0.51	0.21	RNA	1487967.0	1488458.0	1488530.0	1488484.0
antisense_734	1488530	+	LR134372.1 (317805-317254)	True	QRNA	12.76	0.209	RNA	1488530.0	1488530.0	1489081.0	1489081.0
antisense_735	1489082	+		OTH Found	CNIT	-0.604	1.205	RNA	1489082.0	1489170.0	1489316.0	1489187.0
antisense_736	1489316	+		OTH Found	CNIT	-0.715	2.379	RNA	1489316.0	1489393.0	1489647.0	1489407.0
antisense_737	1491547	-	HG326877.1 (520036-520923)	False	QRNA	20.631	0.191	COD	1490660.0	1490660.0	1491547.0	1491487.0
antisense_738	1495324	+		OTH Found	CNIT	-0.385	-1.108	RNA	1495324.0	1495600.0	1495761.0	1495689.0
antisense_740	1495761	+		OTH Found	CNIT	-0.516	0.274	RNA	1495761.0	1495933.0	1496649.0	1495995.0
antisense_741	1498266	-		OTH Found	CNIT	-0.517	0.289	RNA	1497638.0	1498225.0	1498266.0	1498248.0
antisense_742	1502261	-		OTH Found	CNIT	-0.534	0.463	RNA	1501373.0	1501816.0	1502261.0	1501881.0
antisense_743	1503445	-		OTH Found	CNIT	-0.408	-0.859	RNA	1502557.0	1503344.0	1503445.0	1503442.0
antisense_744	1504173	-	OU701459.1 (230895-231622)	False	QRNA	10.544	-0.267	COD	1503446.0	1503504.0	1504173.0	1504154.0
antisense_745	1504578	-		OTH Found	CNIT	-0.498	0.089	RNA	1504173.0	1504383.0	1504578.0	1504403.0
antisense_746	1512629	-	CP041617.1 (1308989-1308113)	True	QRNA	9.07	-0.203	RNA	1511745.0	1511745.0	1512621.0	1512621.0
antisense_747	1512705	-	CP041617.1 (1309073-1308998)	False	QRNA	7.71	-0.395	COD	1512630.0	1512667.0	1512705.0	1512705.0
antisense_748	1512848	-		OTH Found	CNIT	-0.529	0.417	RNA	1512705.0	1512755.0	1512848.0	1512772.0
antisense_749	1514420	-	CP037747.1 (1570599-1571421)	True	QRNA	7.324	-0.398	RNA	1513597.0	1513597.0	1514420.0	1514420.0
antisense_750	1518167	-	OU701461.1 (1088167-1087295)	False	QRNA	9.395	-0.319	COD	1517289.0	1517474.0	1518166.0	1517998.0
antisense_751	1518999	-		OTH Found	CNIT	-0.489	-0.012	RNA	1518167.0	1518445.0	1518999.0	1518480.0
antisense_752	1520228	-	LR134534.1 (847083-846202)	False	QRNA	11.928	-0.204	COD	1519341.0	1519530.0	1520219.0	1520195.0
antisense_753	1521772	-	CP063091.1 (384242-385123)	True	QRNA	15.819	0.551	RNA	1520890.0	1520890.0	1521771.0	1521771.0
antisense_754	1521914	-		OTH Found	CNIT	-0.506	0.165	RNA	1521772.0	1521777.0	1521914.0	1521803.0
antisense_755	1526589	-		OTH Found	CNIT	0.645	1.216	COD	1525701.0	1526215.0	1526589.0	1526568.0
antisense_756	1526655	-		OTH Found	CNIT	-0.741	2.651	RNA	1526589.0	1526600.0	1526655.0	1526608.0
orphan_19	1531082	+		OTH Found	CNIT	-0.55	0.632	RNA	1531082.0	1531116.0	1531254.0	1531139.0
antisense_757	1531254	+		OTH Found	CNIT	-0.504	0.144	RNA	1531254.0	1531331.0	1531437.0	1531405.0
antisense_758	1531437	+	CP059597.1 (1229845-1230725)	True	QRNA	9.523	-0.152	RNA	1531439.0	1531439.0	1532318.0	1532318.0
antisense_759	1533513	-	CP076657.1 (39298-38404)	True	QRNA	16.114	0.584	RNA	1532627.0	1532627.0	1533513.0	1533513.0
antisense_761	1533813	-		OTH Found	CNIT	-0.467	-0.245	RNA	1533513.0	1533574.0	1533813.0	1533678.0
antisense_762	1534014	-		OTH Found	CNIT	-0.621	1.387	RNA	1533813.0	1533907.0	1534014.0	1533924.0
antisense_763	1536130	-		OTH Found	CNIT	-0.495	0.058	RNA	1535242.0	1535579.0	1536130.0	1535665.0
antisense_764	1536180	-		OTH Found	CNIT	-0.864	3.947	RNA	1536130.0	1536137.0	1536180.0	1536145.0
antisense_765	1536257	-		OTH Found	CNIT	-0.861	3.913	RNA	1536180.0	1536223.0	1536257.0	1536231.0
antisense_766	1536458	+	CP063083.1 (273749-272871)	False	QRNA	30.48	0.638	COD	1536465.0	1536511.0	1537343.0	1537341.0
antisense_767	1540637	-		OTH Found	CNIT	-0.402	-0.925	RNA	1539749.0	1540292.0	1540637.0	1540342.0
antisense_768	1542869	-	CP063091.1 (1804435-1805307)	True	QRNA	8.015	-0.321	RNA	1541996.0	1541996.0	1542868.0	1542868.0
antisense_769	1543267	-		OTH Found	CNIT	-0.542	0.547	RNA	1542869.0	1543017.0	1543267.0	1543061.0
antisense_770	1545842	-		OTH Found	CNIT	-0.485	-0.053	RNA	1544954.0	1545806.0	1545842.0	1545835.0
antisense_771	1556348	+		OTH Found	CNIT	-0.447	-0.456	RNA	1556348.0	1556595.0	1556793.0	1556648.0
antisense_772	1556832	-		OTH Found	CNIT	-0.711	2.327	RNA	1556543.0	1556605.0	1556832.0	1556625.0
antisense_773	1557519	-	CP048767.1 (1551884-1551331)	True	QRNA	34.208	2.605	RNA	1556955.0	1556955.0	1557519.0	1557519.0
antisense_774	1560980	-		OTH Found	CNIT	-0.481	-0.092	RNA	1560092.0	1560887.0	1560980.0	1560928.0
antisense_775	1561944	-		OTH Found	CNIT	-0.475	-0.159	RNA	1561056.0	1561190.0	1561944.0	1561273.0
antisense_776	1566185	+	CP010500.1 (894879-895620)	True	QRNA	29.196	2.045	RNA	1566185.0	1566185.0	1566926.0	1566926.0
antisense_778	1567127	+		OTH Found	CNIT	-0.448	-0.442	RNA	1567127.0	1567270.0	1567447.0	1567332.0
antisense_779	1567447	+		OTH Found	CNIT	-0.559	0.729	RNA	1567447.0	1567867.0	1568335.0	1567905.0
antisense_780	1568739	+		OTH Found	CNIT	-0.538	0.507	RNA	1568739.0	1568759.0	1568882.0	1568782.0
antisense_781	1568882	+		OTH Found	CNIT	-0.819	3.473	RNA	1568882.0	1568901.0	1568970.0	1568915.0
antisense_782	1568970	+	LR134372.1 (1578870-1579750)	False	QRNA	41.815	1.153	COD	1568977.0	1569083.0	1569857.0	1569804.0
antisense_783	1572594	-		OTH Found	CNIT	-0.4	-0.946	RNA	1571706.0	1571707.0	1572594.0	1571913.0
antisense_784	1573670	+		OTH Found	CNIT	-0.605	1.209	RNA	1573670.0	1574498.0	1574558.0	1574509.0
antisense_785	1574840	+		OTH Found	CNIT	-0.379	-1.171	RNA	1574840.0	1575607.0	1575728.0	1575690.0
antisense_786	1577522	+	CP063079.1 (780799-781683)	False	QRNA	2.376	-0.637	COD	1577525.0	1577525.0	1578409.0	1578391.0
antisense_787	1579305	+		OTH Found	CNIT	-0.438	-0.543	RNA	1579305.0	1579667.0	1580193.0	1579705.0
antisense_788	1581661	-	CP020867.1 (1888086-1888955)	False	QRNA	18.563	0.097	COD	1580789.0	1580819.0	1581661.0	1581630.0
antisense_789	1581872	-	CP059597.1 (1483831-1483623)	False	QRNA	6.015	-0.472	COD	1581664.0	1581718.0	1581872.0	1581804.0
antisense_790	1582465	+		OTH Found	CNIT	-0.395	-0.999	RNA	1582465.0	1583146.0	1583353.0	1583235.0
antisense_791	1588879	+	LT631545.1 (2129529-2128644)	False	QRNA	8.223	-0.372	COD	1588879.0	1588970.0	1589764.0	1589726.0
antisense_792	1596574	+		OTH Found	CNIT	-0.414	-0.806	RNA	1596574.0	1596935.0	1597462.0	1596988.0
orphan_20	1601440	-	CP076657.1 (1135121-1134738)	True	QRNA	2.05	-0.987	RNA	1601047.0	1601047.0	1601440.0	1601440.0
antisense_794	1601653	-		OTH Found	CNIT	-0.564	0.78	RNA	1601440.0	1601552.0	1601653.0	1601578.0
antisense_795	1602608	-	CP042463.1 (1692273-1691410)	True	QRNA	11.456	0.064	RNA	1601721.0	1601721.0	1602608.0	1602608.0
antisense_796	1609455	+		OTH Found	CNIT	-0.476	-0.145	RNA	1609455.0	1609670.0	1610003.0	1609732.0
antisense_797	1613794	+		OTH Found	CNIT	-0.49	0.005	RNA	1613794.0	1614494.0	1614682.0	1614595.0
antisense_798	1615004	+	CP041617.1 (1631975-1632785)	False	QRNA	25.261	0.401	COD	1615006.0	1615084.0	1615815.0	1615770.0
antisense_799	1616530	+		No QRNA hit	CNIT	-0.993	5.307	RNA	1616530.0	1616533.0	1616555.0	1616541.0
