transcript_id	position	strand	alignedTo	same_classification?	source	score	z_score	winner	GenomeStart	PredictionStart	GenomeEnd	PredictionEnd
antisense_0	857	-		OTH Found	CNIT	-0.48	-0.167	RNA	0.0	246.0	857.0	284.0
antisense_1	1034	-		OTH Found	CNIT	-0.608	1.125	RNA	857.0	925.0	1034.0	939.0
antisense_2	1896	-	CP020867.1 (1884-1067)	True	QRNA	6.907	-0.447	RNA	1058.0	1058.0	1896.0	1896.0
antisense_3	2199	-		OTH Found	CNIT	-0.623	1.273	RNA	1896.0	1934.0	2199.0	1954.0
antisense_4	2398	-		OTH Found	CNIT	-0.716	2.207	RNA	2199.0	2381.0	2398.0	2389.0
antisense_5	2522	-		OTH Found	CNIT	-0.53	0.34	RNA	2398.0	2480.0	2522.0	2521.0
antisense_6	4463	-		OTH Found	CNIT	-0.442	-0.541	RNA	3671.0	3840.0	4463.0	3902.0
antisense_7	4842	-		OTH Found	CNIT	-0.527	0.31	RNA	4463.0	4620.0	4842.0	4670.0
antisense_8	11810	-	CP022347.1 (1703931-1703023)	False	QRNA	47.789	2.281	COD	10902.0	10970.0	11810.0	11497.0
antisense_9	12083	-	CP022347.1 (1704204-1703932)	False	QRNA	1.955	-0.86	COD	11811.0	11825.0	12083.0	12049.0
antisense_10	14812	+	CP037747.1 (48235-48099)	False	QRNA	3.535	-0.751	COD	14814.0	14827.0	14951.0	14934.0
antisense_11	14976	+		OTH Found	CNIT	-0.43	-0.663	RNA	14976.0	15033.0	15374.0	15068.0
antisense_12	15374	+		OTH Found	CNIT	-0.429	-0.679	RNA	15374.0	15402.0	15808.0	15545.0
antisense_13	16729	-	CP015576.1 (1703444-1702597)	False	QRNA	13.053	-0.099	COD	15880.0	15987.0	16727.0	16658.0
antisense_14	17738	+	CP076657.1 (26224-25322)	True	QRNA	11.089	0.018	RNA	17747.0	17747.0	18644.0	18644.0
antisense_15	24473	+	AP026014.1 (26317-27199)	True	QRNA	10.878	-0.006	RNA	24473.0	24473.0	25381.0	25381.0
antisense_16	25519	+	CP007181.1 (24446-25357)	True	QRNA	25.306	1.599	RNA	25519.0	25519.0	26427.0	26427.0
antisense_17	34508	-		OTH Found	CNIT	-0.432	-0.642	RNA	33599.0	34168.0	34508.0	34209.0
antisense_18	35682	-		OTH Found	CNIT	-0.531	0.349	RNA	34773.0	35415.0	35682.0	35444.0
antisense_19	35870	-		OTH Found	CNIT	-0.725	2.294	RNA	35682.0	35741.0	35870.0	35761.0
orphan_0	37191	+	CP025281.1 (36489-36881)	True	QRNA	16.42	0.611	RNA	37191.0	37191.0	37564.0	37564.0
antisense_20	38646	-		OTH Found	CNIT	-0.33	-1.668	RNA	37737.0	38035.0	38646.0	38304.0
antisense_21	39808	-	AF074836.1 (703-1)	True	QRNA	32.095	2.354	RNA	39131.0	39131.0	39808.0	39808.0
antisense_23	48083	-	CP059366.1 (460766-461690)	True	QRNA	15.511	0.51	RNA	47175.0	47175.0	48083.0	48083.0
antisense_24	48864	-	CP037747.1 (1712892-1713668)	True	QRNA	20.098	1.02	RNA	48085.0	48085.0	48864.0	48864.0
antisense_25	51648	+		OTH Found	CNIT	-0.42	-0.761	RNA	51648.0	52337.0	52557.0	52387.0
antisense_26	57965	-	CP007771.1 (1360055-1360680)	True	QRNA	21.115	1.133	RNA	57325.0	57325.0	57965.0	57965.0
antisense_27	58122	-		No QRNA hit	CNIT	-0.664	1.681	RNA	57965.0	57994.0	58122.0	58026.0
antisense_28	58464	-	CP007771.1 (1359577-1359836)	True	QRNA	17.969	0.783	RNA	58202.0	58202.0	58461.0	58461.0
antisense_29	58572	-		OTH Found	CNIT	-0.791	2.958	RNA	58464.0	58504.0	58572.0	58512.0
antisense_30	59569	-	CP012217.1 (8174-7266)	True	QRNA	28.461	1.95	RNA	58661.0	58661.0	59569.0	59569.0
antisense_31	64856	+	CP063089.1 (1564571-1565241)	False	QRNA	21.917	0.508	COD	64857.0	64965.0	65527.0	65519.0
antisense_32	71047	-		OTH Found	CNIT	-0.33	-1.667	RNA	70138.0	70580.0	71047.0	70717.0
antisense_33	71597	-		OTH Found	CNIT	-0.337	-1.603	RNA	71047.0	71336.0	71597.0	71479.0
antisense_34	73182	+		OTH Found	CNIT	-0.613	1.171	RNA	73182.0	73265.0	73825.0	73279.0
antisense_35	73825	+		OTH Found	CNIT	-0.513	0.173	RNA	73825.0	74687.0	74734.0	74716.0
antisense_36	75282	+		No QRNA hit	CNIT	-0.626	1.3	RNA	75282.0	75302.0	75317.0	75316.0
antisense_37	75317	+		OTH Found	CNIT	-0.623	1.271	RNA	75317.0	75403.0	75684.0	75423.0
antisense_38	76450	-	CP092034.1 (66222-65501)	True	QRNA	16.05	0.57	RNA	75723.0	75723.0	76450.0	76450.0
antisense_39	76616	-	OU701459.1 (601611-601454)	False	QRNA	8.984	-0.378	COD	76451.0	76481.0	76608.0	76608.0
antisense_40	77495	-	CP037747.1 (67679-67063)	False	QRNA	9.971	-0.31	COD	76879.0	76908.0	77495.0	77493.0
antisense_41	78706	+		OTH Found	CNIT	-0.468	-0.282	RNA	78706.0	78879.0	79615.0	78956.0
antisense_42	79832	+	CP022347.1 (233861-234778)	False	QRNA	5.14	-0.641	COD	79832.0	79852.0	80740.0	80675.0
antisense_43	84110	+		OTH Found	CNIT	-0.473	-0.231	RNA	84110.0	84365.0	84540.0	84403.0
antisense_44	84540	+		OTH Found	CNIT	-0.969	4.747	RNA	84540.0	84549.0	84583.0	84560.0
antisense_45	84583	+	CP041617.1 (1024948-1025835)	True	QRNA	12.268	0.149	RNA	84583.0	84583.0	85489.0	85489.0
antisense_46	89961	+		OTH Found	CNIT	-0.746	2.509	RNA	89961.0	90176.0	90263.0	90202.0
antisense_47	90263	+	CP044175.1 (1383772-1382855)	True	QRNA	18.602	0.853	RNA	90266.0	90266.0	91139.0	91139.0
antisense_48	94226	+		OTH Found	CNIT	0.648	1.277	COD	94226.0	94576.0	95135.0	94809.0
antisense_49	95273	+		OTH Found	CNIT	-0.916	4.211	RNA	95273.0	95322.0	95333.0	95330.0
antisense_50	95333	+		OTH Found	CNIT	-0.416	-0.807	RNA	95333.0	95386.0	96037.0	95484.0
antisense_52	96037	+		OTH Found	CNIT	0.607	0.163	COD	96037.0	96512.0	96946.0	96691.0
antisense_53	98205	-		OTH Found	CNIT	-0.47	-0.262	RNA	97588.0	97928.0	98205.0	97960.0
antisense_54	98956	-		OTH Found	CNIT	-0.421	-0.753	RNA	98205.0	98366.0	98956.0	98458.0
antisense_55	101835	+	CP020867.1 (671844-672348)	True	QRNA	11.937	0.112	RNA	101836.0	101836.0	102342.0	102342.0
antisense_56	110576	-	CP059375.1 (380015-380923)	True	QRNA	9.796	-0.126	RNA	109668.0	109668.0	110576.0	110576.0
antisense_57	111434	-		OTH Found	CNIT	-0.471	-0.253	RNA	110576.0	111007.0	111434.0	111048.0
antisense_58	115590	-	CP049272.1 (466359-465537)	False	QRNA	9.352	-0.353	COD	114765.0	114841.0	115590.0	115530.0
antisense_59	115774	-		OTH Found	CNIT	-0.506	0.096	RNA	115590.0	115708.0	115774.0	115773.0
antisense_60	115809	-		No QRNA hit	CNIT	-0.851	3.561	RNA	115774.0	115780.0	115809.0	115791.0
antisense_61	118525	-	CP022347.1 (1335633-1336530)	False	QRNA	18.922	0.303	COD	117622.0	117681.0	118521.0	118464.0
antisense_62	119530	-	LR134471.1 (162248-161339)	False	QRNA	28.395	0.952	COD	118622.0	118879.0	119530.0	119352.0
antisense_64	124530	-	CP076657.1 (85438-86314)	True	QRNA	8.584	-0.261	RNA	123646.0	123646.0	124524.0	124524.0
antisense_65	131188	-		OTH Found	CNIT	-0.534	0.381	RNA	130279.0	131014.0	131188.0	131046.0
antisense_66	131783	-		OTH Found	CNIT	-0.492	-0.043	RNA	131188.0	131626.0	131783.0	131652.0
antisense_67	131954	-		OTH Found	CNIT	-0.557	0.61	RNA	131783.0	131908.0	131954.0	131934.0
antisense_68	132328	-	CP076657.1 (169256-169607)	False	QRNA	5.342	-0.628	COD	131965.0	132053.0	132316.0	132154.0
antisense_69	133497	+		OTH Found	CNIT	-0.606	1.098	RNA	133497.0	133628.0	133649.0	133645.0
antisense_70	133649	+	CP059597.1 (30906-31811)	True	QRNA	28.581	1.963	RNA	133649.0	133649.0	134553.0	134553.0
antisense_71	137550	+		OTH Found	CNIT	-0.419	-0.774	RNA	137550.0	137678.0	138459.0	137812.0
antisense_72	139416	-		OTH Found	CNIT	-0.486	-0.104	RNA	139117.0	139155.0	139416.0	139181.0
antisense_73	140326	-	CP059373.1 (1307046-1307969)	True	QRNA	10.768	-0.018	RNA	139418.0	139418.0	140322.0	140322.0
antisense_74	148088	+	CP022080.1 (1354262-1353354)	True	QRNA	26.545	1.737	RNA	148088.0	148088.0	148996.0	148996.0
antisense_75	149961	+		OTH Found	CNIT	-0.493	-0.031	RNA	149961.0	150497.0	150870.0	150550.0
antisense_76	154996	-	LR134534.1 (360948-359992)	True	QRNA	2.389	-0.95	RNA	154088.0	154539.0	154994.0	154994.0
antisense_77	156981	+		OTH Found	CNIT	-0.399	-0.971	RNA	156981.0	157007.0	157420.0	157084.0
antisense_78	157420	+		OTH Found	CNIT	-0.402	-0.943	RNA	157420.0	157563.0	158329.0	157628.0
antisense_79	164294	+		OTH Found	CNIT	-0.469	-0.274	RNA	164294.0	164352.0	165203.0	164384.0
antisense_80	167000	+	CP059597.1 (1364845-1363937)	True	QRNA	23.621	1.411	RNA	167000.0	167000.0	167908.0	167908.0
antisense_81	169461	+		OTH Found	CNIT	-0.44	-0.563	RNA	169461.0	169942.0	170370.0	169995.0
antisense_82	172002	+		OTH Found	CNIT	-0.438	-0.589	RNA	172002.0	172439.0	172658.0	172555.0
antisense_83	174400	+		No QRNA hit	CNIT	-0.972	4.78	RNA	174400.0	174404.0	174430.0	174409.0
antisense_84	174430	+	LR134530.1 (228272-227870)	True	QRNA	15.524	0.511	RNA	174430.0	174430.0	174903.0	174903.0
antisense_86	179269	+		OTH Found	CNIT	-0.657	1.613	RNA	179269.0	179311.0	179437.0	179328.0
antisense_87	179437	+	CP018788.1 (1309637-1310513)	True	QRNA	3.724	-0.801	RNA	179446.0	179446.0	180322.0	180322.0
antisense_88	181796	-		OTH Found	CNIT	-0.436	-0.6	RNA	180887.0	181695.0	181796.0	181751.0
antisense_89	185674	+	CP007776.2 (1408749-1409652)	True	QRNA	8.056	-0.32	RNA	185674.0	185674.0	186577.0	186577.0
antisense_90	189272	+	CP063083.1 (1282217-1283123)	False	QRNA	3.619	-0.746	COD	189273.0	189360.0	190180.0	190063.0
antisense_91	190365	+		OTH Found	CNIT	-0.445	-0.516	RNA	190365.0	190457.0	190692.0	190534.0
antisense_92	190692	+		OTH Found	CNIT	-0.476	-0.201	RNA	190692.0	190949.0	191601.0	191050.0
antisense_93	193930	-	CP017258.1 (73890-74754)	False	QRNA	48.021	2.297	COD	193066.0	193160.0	193930.0	193930.0
antisense_94	197861	+		OTH Found	CNIT	-0.878	3.831	RNA	197861.0	197911.0	197928.0	197919.0
antisense_95	197928	+	CP031611.1 (1055374-1054705)	True	QRNA	28.671	1.973	RNA	197954.0	197954.0	198635.0	198635.0
antisense_96	198637	+	CP063536.1 (173551-173974)	True	QRNA	16.088	0.574	RNA	198637.0	198637.0	199081.0	199081.0
antisense_97	199082	+	CP066243.1 (738038-737147)	True	QRNA	26.175	1.696	RNA	199082.0	199082.0	199990.0	199990.0
antisense_98	200841	-	CP066243.1 (736315-736900)	True	QRNA	10.683	-0.027	RNA	200243.0	200243.0	200841.0	200841.0
antisense_99	200999	-		OTH Found	CNIT	-0.43	-0.664	RNA	200841.0	200868.0	200999.0	200957.0
antisense_100	201664	-	CP035946.1 (274337-273682)	False	QRNA	9.0	-0.377	COD	201006.0	201043.0	201662.0	201654.0
antisense_101	204734	-	CP063083.1 (1531904-1532627)	False	QRNA	68.771	3.719	COD	204010.0	204014.0	204733.0	204724.0
antisense_102	208056	-	CP043428.1 (34364-33627)	True	QRNA	17.131	0.69	RNA	207312.0	207312.0	208052.0	208052.0
antisense_103	208583	-		OTH Found	CNIT	-0.525	0.289	RNA	208056.0	208344.0	208583.0	208376.0
antisense_104	211424	-	CP066243.1 (725962-726839)	True	QRNA	10.569	-0.04	RNA	210516.0	210516.0	211421.0	211421.0
antisense_105	217642	+	CP040239.1 (294190-295133)	True	QRNA	18.774	0.872	RNA	217651.0	217651.0	218550.0	218550.0
antisense_106	219258	+		OTH Found	CNIT	-0.62	1.242	RNA	219258.0	219508.0	219602.0	219534.0
antisense_107	219602	+	CP076657.1 (1465493-1464577)	True	QRNA	12.361	0.159	RNA	219603.0	219603.0	220510.0	220441.0
antisense_108	221467	+		OTH Found	CNIT	-0.651	1.557	RNA	221467.0	221468.0	221539.0	221488.0
antisense_109	221539	+		OTH Found	CNIT	0.613	0.316	COD	221539.0	221543.0	222180.0	221992.0
antisense_110	222518	-		OTH Found	CNIT	-0.497	0.008	RNA	222126.0	222472.0	222518.0	222504.0
antisense_111	224476	-		OTH Found	CNIT	-0.407	-0.891	RNA	223567.0	224067.0	224476.0	224153.0
antisense_112	225121	+	CP012546.1 (196577-197506)	True	QRNA	7.726	-0.356	RNA	225122.0	225122.0	226029.0	226029.0
antisense_113	227314	+		OTH Found	CNIT	-0.567	0.71	RNA	227314.0	227461.0	227630.0	227493.0
antisense_114	227630	+		OTH Found	CNIT	-0.61	1.144	RNA	227630.0	227907.0	228038.0	227924.0
antisense_115	228038	+	CP031611.1 (846040-845159)	True	QRNA	21.621	1.189	RNA	228038.0	228038.0	228929.0	228929.0
antisense_116	229541	-		OTH Found	CNIT	-0.505	0.088	RNA	228850.0	228909.0	229541.0	228953.0
antisense_117	231279	+		OTH Found	CNIT	-0.575	0.789	RNA	231279.0	231391.0	231679.0	231441.0
antisense_118	232752	-	HG326877.1 (162596-163498)	True	QRNA	4.715	-0.691	RNA	231847.0	231847.0	232752.0	232752.0
antisense_119	233314	+		OTH Found	CNIT	-0.52	0.238	RNA	233314.0	233316.0	233594.0	233342.0
antisense_120	233594	+	CP059373.1 (1209813-1208907)	True	QRNA	7.941	-0.332	RNA	233594.0	233594.0	234500.0	234500.0
antisense_121	237682	-		OTH Found	CNIT	-0.662	1.663	RNA	237393.0	237616.0	237682.0	237648.0
antisense_122	237744	-		OTH Found	CNIT	-0.661	1.657	RNA	237682.0	237689.0	237744.0	237700.0
antisense_123	238194	-		OTH Found	CNIT	-0.517	0.207	RNA	237744.0	237920.0	238194.0	237982.0
antisense_124	238665	-		OTH Found	CNIT	-0.417	-0.797	RNA	238194.0	238253.0	238665.0	238291.0
antisense_125	240086	-		OTH Found	CNIT	-0.48	-0.162	RNA	239177.0	239650.0	240086.0	239733.0
antisense_126	248297	+		OTH Found	CNIT	-0.807	3.122	RNA	248297.0	248368.0	248414.0	248376.0
antisense_127	248414	+	CP059597.1 (54931-55834)	True	QRNA	33.78	2.541	RNA	248419.0	248419.0	249322.0	249322.0
antisense_128	253020	-		OTH Found	CNIT	-0.524	0.282	RNA	252111.0	252868.0	253020.0	252900.0
antisense_129	254291	-	CP063091.1 (354760-355584)	False	QRNA	23.688	0.63	COD	253467.0	253635.0	254291.0	254233.0
antisense_131	259013	-	CP053831.1 (1512169-1513075)	False	QRNA	31.16	1.142	COD	258107.0	258109.0	259013.0	259008.0
antisense_132	261358	-		OTH Found	CNIT	-0.44	-0.567	RNA	260449.0	261138.0	261358.0	261179.0
antisense_133	261630	-		OTH Found	CNIT	-0.548	0.516	RNA	261358.0	261427.0	261630.0	261474.0
antisense_134	261892	+	CP007770.1 (1276316-1277205)	True	QRNA	11.524	0.066	RNA	261901.0	261901.0	262799.0	262799.0
antisense_135	266835	+	CP020867.1 (1819201-1820086)	True	QRNA	16.511	0.621	RNA	266836.0	266836.0	267741.0	267741.0
antisense_136	267807	+	CP063091.1 (475942-476860)	True	QRNA	7.151	-0.42	RNA	267812.0	267812.0	268715.0	268715.0
antisense_137	268986	+	OU701461.1 (490432-490374)	False	QRNA	1.098	-0.918	COD	268993.0	269002.0	269051.0	269040.0
antisense_138	269054	+	CP041617.1 (1136324-1137126)	True	QRNA	21.39	1.163	RNA	269069.0	269069.0	269856.0	269856.0
antisense_139	269858	+	AB509352.1 (5704-4799)	True	QRNA	25.145	1.581	RNA	269858.0	269858.0	270766.0	270766.0
antisense_140	273434	+	CP007190.1 (269703-270471)	True	QRNA	20.873	1.106	RNA	273443.0	273443.0	274211.0	274211.0
antisense_141	277458	+		OTH Found	CNIT	-0.648	1.527	RNA	277458.0	277460.0	277575.0	277474.0
antisense_142	277575	+		OTH Found	CNIT	-0.397	-0.996	RNA	277575.0	278394.0	278484.0	278450.0
antisense_143	282348	+		OTH Found	CNIT	-0.43	-0.666	RNA	282348.0	282833.0	283257.0	282877.0
antisense_144	287233	+	CP059597.1 (91270-92170)	True	QRNA	44.308	3.712	RNA	287238.0	287238.0	288141.0	288141.0
antisense_145	289787	-		OTH Found	CNIT	-0.531	0.352	RNA	289442.0	289722.0	289787.0	289772.0
antisense_146	290467	-		OTH Found	CNIT	-0.503	0.07	RNA	289787.0	290418.0	290467.0	290447.0
antisense_147	290992	+		OTH Found	CNIT	-0.614	1.185	RNA	290992.0	291103.0	291118.0	291114.0
antisense_148	291118	+		OTH Found	CNIT	-0.429	-0.67	RNA	291118.0	291153.0	292027.0	291182.0
antisense_149	295063	-	CP007769.1 (1344530-1345260)	True	QRNA	16.736	0.646	RNA	294328.0	294328.0	295061.0	295061.0
antisense_150	297546	-		OTH Found	CNIT	-0.445	-0.515	RNA	296637.0	296930.0	297546.0	297019.0
antisense_151	301672	-		OTH Found	CNIT	-0.426	-0.702	RNA	300763.0	300957.0	301672.0	301025.0
antisense_152	306913	-		OTH Found	CNIT	-0.482	-0.139	RNA	306004.0	306738.0	306913.0	306776.0
antisense_153	309234	+		OTH Found	CNIT	-0.396	-1.01	RNA	309234.0	309563.0	310143.0	309649.0
antisense_154	324230	+	CP076657.1 (1319383-1318610)	False	QRNA	35.957	1.47	COD	324250.0	324344.0	325023.0	325009.0
antisense_155	327353	-		OTH Found	CNIT	-0.482	-0.147	RNA	326444.0	326841.0	327353.0	326870.0
antisense_156	327563	-	CP063083.1 (818259-818060)	False	QRNA	20.143	0.387	COD	327358.0	327392.0	327557.0	327556.0
antisense_157	331857	-		OTH Found	CNIT	-0.538	0.42	RNA	330948.0	331440.0	331857.0	331484.0
antisense_158	332047	-		OTH Found	CNIT	-0.413	-0.836	RNA	331857.0	331911.0	332047.0	331982.0
antisense_159	334169	+	CP037747.1 (235081-234289)	True	QRNA	11.675	0.083	RNA	334171.0	334171.0	334962.0	334962.0
antisense_160	335339	+	CP059597.1 (134544-135078)	False	QRNA	3.83	-0.731	COD	335340.0	335481.0	335871.0	335837.0
antisense_161	341584	+	CP059597.1 (140753-141656)	True	QRNA	6.128	-0.534	RNA	341586.0	341586.0	342489.0	342020.0
antisense_162	343848	+		OTH Found	CNIT	0.609	0.212	COD	343848.0	344024.0	344757.0	344326.0
antisense_163	345301	+		OTH Found	CNIT	0.631	0.815	COD	345301.0	345545.0	346196.0	345742.0
antisense_164	346196	+	HG326877.1 (55467-54544)	True	QRNA	14.708	0.42	RNA	346197.0	346197.0	347104.0	347104.0
antisense_165	347856	+		OTH Found	CNIT	-0.709	2.133	RNA	347856.0	347939.0	347950.0	347950.0
antisense_166	347950	+	CP063083.1 (827703-827204)	False	QRNA	16.307	0.124	COD	347956.0	348086.0	348455.0	348451.0
antisense_167	348458	+		OTH Found	CNIT	-0.558	0.619	RNA	348458.0	348830.0	349079.0	348856.0
antisense_168	349680	-	CP037747.1 (233913-233314)	True	QRNA	5.793	-0.571	RNA	349066.0	349066.0	349680.0	349680.0
antisense_169	352118	-		OTH Found	CNIT	-0.514	0.179	RNA	351209.0	351951.0	352118.0	351974.0
antisense_170	354114	-		OTH Found	CNIT	-0.473	-0.233	RNA	353205.0	354037.0	354114.0	354075.0
antisense_171	354906	-	CP076657.1 (1296078-1296860)	True	QRNA	15.153	0.47	RNA	354130.0	354130.0	354906.0	354906.0
antisense_172	355503	-	CP019683.1 (1242305-1241720)	True	QRNA	11.472	0.06	RNA	354921.0	354921.0	355503.0	355503.0
antisense_173	356158	+	LR134471.1 (993331-992435)	True	QRNA	10.432	-0.055	RNA	356176.0	356176.0	357066.0	357066.0
antisense_174	358121	+	LR134471.1 (438582-437674)	False	QRNA	12.573	-0.132	COD	358123.0	358123.0	359019.0	358954.0
antisense_175	364088	-		OTH Found	CNIT	-0.496	-0.005	RNA	363179.0	364048.0	364088.0	364080.0
antisense_176	366117	-	CP076657.1 (434564-435472)	True	QRNA	16.341	0.602	RNA	365209.0	365209.0	366117.0	366117.0
antisense_177	366315	-		OTH Found	CNIT	-0.51	0.141	RNA	366117.0	366223.0	366315.0	366255.0
antisense_178	367131	+		OTH Found	CNIT	-0.476	-0.204	RNA	367131.0	367427.0	367871.0	367540.0
antisense_179	367871	+	CP037746.1 (1011855-1011054)	True	QRNA	12.102	0.13	RNA	367871.0	367871.0	368672.0	368672.0
antisense_180	368677	+		OTH Found	CNIT	-0.406	-0.909	RNA	368677.0	369408.0	369586.0	369512.0
antisense_181	371390	+		OTH Found	CNIT	-0.618	1.222	RNA	371390.0	371471.0	371753.0	371500.0
antisense_182	371753	+	HG326877.1 (28879-27971)	True	QRNA	19.569	0.961	RNA	371753.0	371753.0	372661.0	372661.0
antisense_183	372901	+	CP065357.1 (1505644-1506052)	True	QRNA	18.192	0.808	RNA	372901.0	372901.0	373310.0	373310.0
antisense_184	378460	-		OTH Found	CNIT	-0.501	0.053	RNA	377551.0	377947.0	378460.0	378015.0
antisense_185	380403	+		OTH Found	CNIT	-0.499	0.031	RNA	380403.0	380559.0	380770.0	380621.0
antisense_186	385193	-	CP022347.1 (905714-906614)	False	QRNA	2.499	-0.822	COD	384285.0	384525.0	385185.0	384962.0
antisense_187	385917	-	CP044163.1 (1170295-1169579)	True	QRNA	20.7	1.087	RNA	385194.0	385194.0	385910.0	385910.0
antisense_188	386871	-	CP020867.1 (496754-495882)	True	QRNA	14.31	0.376	RNA	385999.0	385999.0	386871.0	386871.0
antisense_189	396667	-	CP040239.1 (471642-471097)	True	QRNA	21.093	1.13	RNA	396124.0	396124.0	396667.0	396667.0
antisense_190	401443	-		OTH Found	CNIT	-0.429	-0.675	RNA	400891.0	401327.0	401443.0	401374.0
antisense_191	402349	-	CP083378.1 (1685741-1684839)	True	QRNA	19.209	0.921	RNA	401446.0	401446.0	402348.0	402348.0
orphan_2	403063	+	CP025281.1 (647527-647919)	True	QRNA	16.42	0.611	RNA	403063.0	403063.0	403436.0	403436.0
antisense_192	404518	-		OTH Found	CNIT	-0.33	-1.668	RNA	403609.0	403907.0	404518.0	404176.0
antisense_193	405680	-	AF074836.1 (703-1)	True	QRNA	30.707	2.2	RNA	405003.0	405003.0	405680.0	405680.0
antisense_194	423024	-		OTH Found	CNIT	-0.441	-0.553	RNA	422115.0	422257.0	423024.0	422310.0
antisense_195	425950	+	CP063091.1 (978911-979213)	True	QRNA	4.153	-0.754	RNA	425953.0	425953.0	426259.0	426259.0
antisense_196	427708	-	CP076657.1 (467610-466704)	True	QRNA	16.948	0.669	RNA	426800.0	426800.0	427704.0	427704.0
antisense_197	430722	+		OTH Found	CNIT	-0.605	1.097	RNA	430722.0	430725.0	430828.0	430736.0
antisense_198	430828	+	CP076657.1 (469317-470220)	True	QRNA	12.896	0.219	RNA	430830.0	430830.0	431735.0	431735.0
antisense_199	431987	+		OTH Found	CNIT	-0.519	0.229	RNA	431987.0	432001.0	432896.0	432030.0
antisense_200	434346	-		OTH Found	CNIT	-0.478	-0.179	RNA	433443.0	433469.0	434346.0	433498.0
antisense_201	438908	-	CP076657.1 (492114-491211)	True	QRNA	41.945	3.449	RNA	438005.0	438005.0	438908.0	438908.0
antisense_202	439227	-		OTH Found	CNIT	-0.453	-0.431	RNA	438908.0	438908.0	439227.0	438955.0
antisense_203	444222	-		OTH Found	CNIT	-0.405	-0.912	RNA	443313.0	443372.0	444222.0	443515.0
antisense_204	445013	-	CP059599.1 (132250-131470)	False	QRNA	4.671	-0.674	COD	444223.0	444357.0	445006.0	444923.0
antisense_205	449683	-	CP053845.1 (1521936-1522845)	False	QRNA	13.168	-0.091	COD	448777.0	448890.0	449683.0	449675.0
antisense_206	456214	-		OTH Found	CNIT	-0.448	-0.481	RNA	455305.0	456143.0	456214.0	456169.0
antisense_207	460456	-		OTH Found	CNIT	-0.4	-0.969	RNA	459547.0	459764.0	460456.0	459880.0
antisense_208	463882	-		OTH Found	CNIT	-0.45	-0.459	RNA	462973.0	463828.0	463882.0	463872.0
orphan_4	465323	+		OTH Found	CNIT	-0.479	-0.168	RNA	465323.0	465462.0	465716.0	465572.0
orphan_5	465614	-	CP058293.1 (463845-462936)	True	QRNA	38.565	3.073	RNA	464706.0	464706.0	465614.0	465614.0
antisense_209	466815	-	CP066243.1 (1712986-1713864)	True	QRNA	17.846	0.769	RNA	465911.0	465911.0	466815.0	466815.0
antisense_210	469594	-	CP019965.1 (905504-904825)	True	QRNA	9.626	-0.145	RNA	468906.0	468906.0	469594.0	469594.0
antisense_211	472120	+		OTH Found	CNIT	-0.508	0.115	RNA	472120.0	472212.0	472289.0	472232.0
antisense_212	472289	+		OTH Found	CNIT	-0.414	-0.824	RNA	472289.0	472366.0	473198.0	472431.0
antisense_213	477659	-	CP027634.1 (1303562-1304465)	True	QRNA	7.929	-0.334	RNA	476756.0	476756.0	477655.0	477655.0
antisense_214	479763	-		OTH Found	CNIT	-0.43	-0.661	RNA	478854.0	479628.0	479763.0	479660.0
antisense_215	480307	+		OTH Found	CNIT	0.559	-1.12	COD	480307.0	480433.0	481071.0	480708.0
antisense_216	481071	+		OTH Found	CNIT	-0.43	-0.664	RNA	481071.0	481306.0	481491.0	481338.0
antisense_217	481491	+		OTH Found	CNIT	-0.464	-0.324	RNA	481491.0	482368.0	482400.0	482400.0
antisense_218	487320	-	CP063091.1 (885931-886823)	True	QRNA	23.32	1.378	RNA	486428.0	486428.0	487320.0	487320.0
antisense_219	493196	+	CP063089.1 (1107044-1106139)	True	QRNA	14.386	0.384	RNA	493198.0	493198.0	494103.0	494103.0
antisense_220	494203	+		OTH Found	CNIT	-0.477	-0.196	RNA	494203.0	494494.0	494637.0	494526.0
antisense_221	494637	+	CP022347.1 (723011-723533)	False	QRNA	11.367	-0.215	COD	494641.0	494658.0	495163.0	495161.0
antisense_222	495172	+	CP076657.1 (953008-952134)	True	QRNA	12.895	0.219	RNA	495172.0	495339.0	496080.0	496080.0
antisense_223	499131	-	CP092026.1 (541700-540792)	True	QRNA	26.083	1.685	RNA	498223.0	498223.0	499131.0	499131.0
antisense_224	501622	-		OTH Found	CNIT	-0.4	-0.961	RNA	500713.0	500929.0	501622.0	501021.0
antisense_225	507384	-	CP007181.1 (482939-482040)	True	QRNA	2.557	-0.931	RNA	506476.0	506555.0	507384.0	507384.0
antisense_226	507982	-		OTH Found	CNIT	-0.502	0.062	RNA	507384.0	507748.0	507982.0	507768.0
antisense_227	509372	-	CP059597.1 (914861-915767)	True	QRNA	13.635	0.301	RNA	508465.0	508465.0	509371.0	509371.0
antisense_228	512305	-		OTH Found	CNIT	-0.477	-0.198	RNA	511396.0	511751.0	512305.0	511795.0
antisense_229	514497	-	CP007777.1 (750824-751721)	True	QRNA	10.466	-0.052	RNA	513597.0	513597.0	514497.0	514497.0
antisense_230	514543	-		OTH Found	CNIT	-0.701	2.053	RNA	514497.0	514525.0	514543.0	514542.0
antisense_231	514654	-	CP053844.1 (1259572-1259676)	False	QRNA	12.333	-0.149	COD	514544.0	514548.0	514648.0	514628.0
antisense_232	517568	-		OTH Found	CNIT	-0.48	-0.16	RNA	516659.0	516748.0	517568.0	516819.0
antisense_233	522136	-	CP066243.1 (342177-343069)	True	QRNA	17.885	0.774	RNA	521228.0	521228.0	522136.0	522136.0
antisense_234	522572	-		OTH Found	CNIT	-0.523	0.273	RNA	522136.0	522534.0	522572.0	522557.0
antisense_235	525109	+		OTH Found	CNIT	-0.426	-0.704	RNA	525109.0	525514.0	526018.0	525609.0
antisense_236	526097	+	CP076657.1 (885641-886276)	True	QRNA	12.779	0.206	RNA	526097.0	526097.0	526731.0	526731.0
antisense_237	528368	-		OTH Found	CNIT	-0.339	-1.58	RNA	527459.0	527992.0	528368.0	528132.0
antisense_238	529214	+		OTH Found	CNIT	-0.507	0.111	RNA	529214.0	529423.0	529601.0	529452.0
antisense_239	529601	+		OTH Found	CNIT	-0.436	-0.608	RNA	529601.0	530113.0	530299.0	530160.0
antisense_241	531860	-		OTH Found	CNIT	-0.454	-0.425	RNA	530951.0	531815.0	531860.0	531859.0
antisense_242	532940	-	CP012216.1 (911254-910345)	True	QRNA	20.651	1.081	RNA	532032.0	532032.0	532940.0	532940.0
antisense_244	536534	-	CP007775.1 (45771-46453)	True	QRNA	11.544	0.068	RNA	535867.0	535867.0	536534.0	536534.0
antisense_245	538676	-		OTH Found	CNIT	-0.443	-0.532	RNA	538023.0	538247.0	538676.0	538357.0
antisense_246	542098	-		OTH Found	CNIT	-0.495	-0.012	RNA	541189.0	541308.0	542098.0	541349.0
antisense_247	542206	-		OTH Found	CNIT	-0.5	0.038	RNA	542098.0	542143.0	542206.0	542187.0
antisense_248	553492	-	CP076657.1 (828480-829352)	True	QRNA	22.291	1.264	RNA	552607.0	552607.0	553491.0	553491.0
antisense_249	555398	+		OTH Found	CNIT	-0.499	0.03	RNA	555398.0	555546.0	555582.0	555575.0
antisense_250	555582	+	CP065357.1 (740981-740156)	True	QRNA	13.222	0.255	RNA	555583.0	555583.0	556386.0	556386.0
antisense_251	556387	+	CP076657.1 (572140-571373)	True	QRNA	11.979	0.117	RNA	556387.0	556387.0	557168.0	557168.0
antisense_252	563554	+		OTH Found	CNIT	-0.383	-1.138	RNA	563554.0	563646.0	563911.0	563753.0
antisense_253	563911	+	CP063079.1 (1639287-1639126)	False	QRNA	2.294	-0.836	COD	563911.0	563939.0	564072.0	564064.0
antisense_254	564074	+	CP059373.1 (893878-893084)	False	QRNA	6.428	-0.553	COD	564077.0	564077.0	564871.0	564870.0
antisense_255	564873	+		OTH Found	CNIT	-0.517	0.205	RNA	564873.0	565281.0	565506.0	565328.0
antisense_256	565506	+		OTH Found	CNIT	-0.824	3.29	RNA	565506.0	565561.0	565570.0	565569.0
antisense_257	565570	+	OU532556.1 (1148743-1147850)	False	QRNA	26.246	0.805	COD	565580.0	565608.0	566473.0	566471.0
antisense_258	567644	-	LR134372.1 (251371-251902)	False	QRNA	26.816	0.844	COD	567111.0	567194.0	567642.0	567596.0
antisense_259	571463	-	CP076657.1 (882036-882943)	True	QRNA	14.149	0.358	RNA	570556.0	570556.0	571463.0	571463.0
antisense_260	573493	-	CP076657.1 (880006-880901)	True	QRNA	20.373	1.05	RNA	572598.0	572598.0	573493.0	573493.0
antisense_261	577196	+		OTH Found	CNIT	-0.646	1.502	RNA	577196.0	577236.0	577436.0	577271.0
antisense_262	577436	+	LR134534.1 (977129-976750)	True	QRNA	9.768	-0.129	RNA	577443.0	577443.0	577826.0	577826.0
antisense_263	581567	-	CP022347.1 (937024-937927)	False	QRNA	27.072	0.861	COD	580664.0	580681.0	581567.0	581513.0
antisense_264	585191	-	CP059597.1 (377551-376660)	True	QRNA	11.247	0.035	RNA	584300.0	584300.0	585191.0	584950.0
antisense_265	585655	-		OTH Found	CNIT	-0.477	-0.192	RNA	585191.0	585431.0	585655.0	585466.0
antisense_266	586873	-		OTH Found	CNIT	-0.551	0.553	RNA	585964.0	586160.0	586873.0	586189.0
antisense_267	587241	-		OTH Found	CNIT	-0.626	1.303	RNA	586873.0	587021.0	587241.0	587041.0
antisense_268	587416	-		OTH Found	CNIT	-0.514	0.182	RNA	587241.0	587385.0	587416.0	587402.0
antisense_269	592228	+	CP037747.1 (435394-434616)	True	QRNA	22.201	1.254	RNA	592228.0	592296.0	593006.0	593006.0
antisense_270	599236	-	CP059373.1 (854947-855722)	False	QRNA	0.077	-0.988	COD	598462.0	598605.0	599236.0	599207.0
antisense_271	600438	+		OTH Found	CNIT	0.627	0.701	COD	600438.0	601060.0	601347.0	601260.0
antisense_272	603718	-	CP076657.1 (849054-849940)	True	QRNA	22.995	1.342	RNA	602826.0	602826.0	603718.0	603718.0
antisense_273	604011	-	CP022347.1 (995503-995795)	False	QRNA	8.078	-0.44	COD	603719.0	603780.0	604011.0	604004.0
antisense_275	605272	-	CP076657.1 (847502-848401)	True	QRNA	16.086	0.574	RNA	604369.0	604499.0	605272.0	605272.0
antisense_276	608008	-	OU701461.1 (824714-825617)	False	QRNA	0.084	-0.988	COD	607102.0	607164.0	608008.0	608008.0
antisense_277	608237	-	CP041617.1 (767601-767375)	False	QRNA	0.318	-0.972	COD	608010.0	608183.0	608236.0	608230.0
antisense_278	609024	-		OTH Found	CNIT	-0.388	-1.085	RNA	608237.0	608960.0	609024.0	609013.0
antisense_279	613758	+		OTH Found	CNIT	-0.419	-0.78	RNA	613758.0	614212.0	614667.0	614286.0
antisense_280	616442	+	CP020867.1 (1189459-1189962)	False	QRNA	14.53	0.002	COD	616446.0	616566.0	616951.0	616880.0
antisense_281	617012	+	LR134530.1 (599583-600408)	True	QRNA	29.808	2.1	RNA	617012.0	617012.0	617809.0	617809.0
antisense_282	618970	+	CP027403.1 (1430901-1430175)	True	QRNA	42.87	3.552	RNA	618970.0	618970.0	619696.0	619696.0
antisense_283	619697	+	CP047484.1 (577638-577699)	False	QRNA	3.254	-0.771	COD	619697.0	619701.0	619758.0	619751.0
antisense_284	619759	+		OTH Found	CNIT	-0.65	1.539	RNA	619759.0	619808.0	619846.0	619822.0
antisense_285	619846	+		OTH Found	CNIT	-0.717	2.221	RNA	619846.0	619938.0	620025.0	619958.0
antisense_286	620025	+		OTH Found	CNIT	-0.879	3.837	RNA	620025.0	620027.0	620078.0	620041.0
antisense_287	620078	+	CP063536.1 (556451-557345)	True	QRNA	45.152	3.806	RNA	620090.0	620142.0	620984.0	620984.0
antisense_288	624341	+	CP019683.1 (960337-959620)	True	QRNA	4.532	-0.711	RNA	624341.0	624341.0	625061.0	625061.0
antisense_289	625405	-		OTH Found	CNIT	-0.52	0.235	RNA	625034.0	625070.0	625405.0	625108.0
antisense_290	628896	-		OTH Found	CNIT	0.565	-0.954	COD	627987.0	628346.0	628896.0	628456.0
antisense_291	629188	-	CP018788.1 (37228-37510)	False	QRNA	10.931	-0.245	COD	628904.0	628920.0	629186.0	629180.0
antisense_292	629247	-		OTH Found	CNIT	-0.628	1.319	RNA	629188.0	629205.0	629247.0	629216.0
antisense_293	629666	-	CP047482.1 (1320692-1320279)	True	QRNA	14.317	0.377	RNA	629248.0	629248.0	629666.0	629666.0
antisense_294	633143	-	CP059597.1 (419956-419048)	False	QRNA	3.995	-0.72	COD	632235.0	632258.0	633143.0	633124.0
antisense_295	633263	-	CP059597.1 (420076-419957)	False	QRNA	2.758	-0.805	COD	633144.0	633149.0	633263.0	633259.0
antisense_296	635311	-	CP059597.1 (422121-421216)	True	QRNA	4.245	-0.743	RNA	634404.0	634404.0	635309.0	635309.0
antisense_297	637714	+		OTH Found	CNIT	-0.504	0.081	RNA	637714.0	637940.0	638063.0	638002.0
antisense_299	640094	-	CP063088.1 (1529361-1528482)	True	QRNA	15.434	0.501	RNA	639215.0	639215.0	640094.0	640094.0
antisense_300	646671	+	MZ667635.1 (471-1305)	True	QRNA	22.704	1.31	RNA	646671.0	646671.0	647470.0	647470.0
orphan_7	648107	-		OTH Found	CNIT	-0.431	-0.654	RNA	647722.0	648056.0	648107.0	648103.0
antisense_301	650642	-	CP040611.1 (55680-56469)	True	QRNA	31.524	2.29	RNA	649852.0	649852.0	650642.0	650642.0
antisense_302	650758	-		OTH Found	CNIT	-0.869	3.738	RNA	650642.0	650707.0	650758.0	650715.0
orphan_8	650864	+	CP007776.2 (829257-828893)	True	QRNA	28.126	1.913	RNA	650877.0	650877.0	651258.0	651258.0
antisense_303	651261	+		OTH Found	CNIT	-0.643	1.476	RNA	651261.0	651358.0	651466.0	651378.0
antisense_304	651466	+		OTH Found	CNIT	-0.711	2.157	RNA	651466.0	651491.0	651537.0	651517.0
antisense_305	651537	+		OTH Found	CNIT	-0.586	0.901	RNA	651537.0	651602.0	651783.0	651622.0
antisense_306	651783	+		OTH Found	CNIT	-0.528	0.323	RNA	651783.0	651848.0	652246.0	651871.0
antisense_307	652246	+		OTH Found	CNIT	-0.457	-0.389	RNA	652246.0	652316.0	653089.0	652348.0
antisense_308	654717	+		OTH Found	CNIT	-0.531	0.354	RNA	654717.0	654760.0	654823.0	654777.0
antisense_309	654823	+	CP076657.1 (661351-660979)	False	QRNA	28.836	0.982	COD	654825.0	654843.0	655197.0	655148.0
antisense_310	656816	-	LR134471.1 (587826-587010)	False	QRNA	31.437	1.161	COD	655996.0	656160.0	656814.0	656675.0
antisense_311	657508	-		OTH Found	CNIT	-0.417	-0.793	RNA	656816.0	657123.0	657508.0	657221.0
antisense_312	661862	-		OTH Found	CNIT	-0.549	0.531	RNA	660953.0	661259.0	661862.0	661276.0
antisense_313	671301	-	LR134471.1 (918818-919681)	True	QRNA	9.816	-0.124	RNA	670396.0	670396.0	671301.0	671301.0
antisense_314	676005	-		OTH Found	CNIT	-0.467	-0.292	RNA	675096.0	675676.0	676005.0	675729.0
antisense_315	676736	-	CP076657.1 (586125-585409)	True	QRNA	29.116	2.023	RNA	676018.0	676018.0	676736.0	676680.0
antisense_316	678000	-	CP059597.1 (455565-454654)	True	QRNA	22.734	1.313	RNA	677092.0	677118.0	678000.0	678000.0
antisense_317	680218	-		OTH Found	CNIT	-0.429	-0.67	RNA	679309.0	679387.0	680218.0	679497.0
antisense_318	683279	-	CP022347.1 (254292-255195)	False	QRNA	26.2	0.802	COD	682376.0	682552.0	683279.0	683217.0
antisense_319	686538	+	CP059597.1 (464075-464978)	True	QRNA	22.056	1.237	RNA	686538.0	686538.0	687421.0	687421.0
antisense_320	695966	-	CP065357.1 (620130-621037)	True	QRNA	16.31	0.598	RNA	695058.0	695460.0	695966.0	695966.0
antisense_321	698924	-	CP040015.1 (722848-722297)	True	QRNA	19.695	0.975	RNA	698346.0	698346.0	698924.0	698924.0
antisense_322	700058	-	CP012224.1 (637572-636667)	True	QRNA	25.239	1.591	RNA	699150.0	699150.0	700058.0	700058.0
antisense_323	700835	-	CP066243.1 (169939-170691)	True	QRNA	21.027	1.123	RNA	700059.0	700059.0	700835.0	700835.0
antisense_324	703240	-	CP010506.1 (559136-558218)	True	QRNA	14.446	0.391	RNA	702332.0	702332.0	703218.0	703218.0
antisense_325	704782	-	AP025965.1 (787077-786177)	True	QRNA	7.138	-0.422	RNA	703874.0	703874.0	704782.0	704782.0
antisense_326	705269	-		OTH Found	CNIT	-0.542	0.462	RNA	704782.0	704817.0	705269.0	704855.0
orphan_9	706241	+	CP025281.1 (36489-36881)	True	QRNA	16.42	0.611	RNA	706241.0	706241.0	706614.0	706614.0
antisense_327	708858	-	AF074836.1 (703-1)	True	QRNA	30.66	2.194	RNA	708181.0	708181.0	708858.0	708858.0
antisense_328	717377	-	CP017875.1 (1179138-1180055)	True	QRNA	6.016	-0.546	RNA	716469.0	716589.0	717367.0	717367.0
antisense_329	718999	+	CP037747.1 (88756-87858)	False	QRNA	23.35	0.606	COD	719000.0	719039.0	719898.0	719695.0
antisense_330	721565	+	CP059443.1 (907840-906944)	True	QRNA	16.618	0.633	RNA	721565.0	721565.0	722461.0	722461.0
antisense_331	726993	+	CP041617.1 (382522-383402)	True	QRNA	12.994	0.23	RNA	726996.0	726996.0	727882.0	727882.0
antisense_332	730015	+		OTH Found	CNIT	-0.498	0.021	RNA	730015.0	730206.0	730310.0	730241.0
antisense_333	730310	+	CP020867.1 (893283-892389)	False	QRNA	9.204	-0.363	COD	730310.0	730310.0	731206.0	731186.0
antisense_334	732372	+		OTH Found	CNIT	-0.468	-0.287	RNA	732372.0	733202.0	733281.0	733279.0
antisense_335	734320	+	CP027403.1 (1327740-1327425)	True	QRNA	11.476	0.061	RNA	734320.0	734320.0	734642.0	734642.0
antisense_336	735535	-	CP046243.1 (1423359-1424258)	True	QRNA	9.957	-0.108	RNA	734638.0	734638.0	735534.0	735534.0
antisense_337	735929	-	CP063089.1 (820277-819886)	False	QRNA	22.115	0.522	COD	735536.0	735625.0	735927.0	735921.0
antisense_338	736733	-	CP076657.1 (899288-900070)	True	QRNA	25.058	1.571	RNA	735930.0	735930.0	736712.0	736712.0
antisense_339	741646	-		OTH Found	CNIT	-0.419	-0.774	RNA	740737.0	740746.0	741646.0	740799.0
antisense_340	746403	-		OTH Found	CNIT	-0.494	-0.018	RNA	745494.0	745890.0	746403.0	745946.0
antisense_341	748057	+		OTH Found	CNIT	-0.448	-0.481	RNA	748057.0	748340.0	748643.0	748381.0
antisense_342	748985	-		OTH Found	CNIT	-0.516	0.202	RNA	748629.0	748733.0	748985.0	748771.0
antisense_343	749417	-	CP059597.1 (580261-579835)	True	QRNA	17.016	0.677	RNA	748986.0	748986.0	749412.0	749412.0
antisense_344	750118	-	OU701459.1 (211541-210847)	True	QRNA	10.19	-0.082	RNA	749425.0	749425.0	750118.0	750118.0
antisense_345	750324	-	CP041617.1 (1424749-1424556)	False	QRNA	0.068	-0.989	COD	750127.0	750142.0	750320.0	750273.0
antisense_346	750521	-		OTH Found	CNIT	-0.621	1.249	RNA	750324.0	750375.0	750521.0	750398.0
antisense_347	750592	-		OTH Found	CNIT	-0.614	1.179	RNA	750521.0	750568.0	750592.0	750582.0
antisense_348	751187	-		OTH Found	CNIT	-0.492	-0.043	RNA	750592.0	751030.0	751187.0	751056.0
antisense_349	751535	-		OTH Found	CNIT	-0.563	0.672	RNA	751187.0	751486.0	751535.0	751518.0
antisense_350	754347	+	CP076657.1 (665979-666644)	True	QRNA	26.782	1.763	RNA	754347.0	754369.0	755013.0	755013.0
antisense_351	755066	+		OTH Found	CNIT	-0.539	0.433	RNA	755066.0	755210.0	755518.0	755239.0
antisense_352	755518	+		OTH Found	CNIT	-0.447	-0.493	RNA	755518.0	755592.0	756427.0	755720.0
antisense_353	764502	-		OTH Found	CNIT	-0.481	-0.155	RNA	763593.0	763751.0	764502.0	763801.0
antisense_354	764785	-		OTH Found	CNIT	-0.577	0.807	RNA	764502.0	764708.0	764785.0	764737.0
antisense_355	771426	-	CP080547.1 (474044-473144)	False	QRNA	0.362	-0.969	COD	770525.0	770603.0	771426.0	771426.0
antisense_357	772022	-		OTH Found	CNIT	-0.492	-0.043	RNA	771426.0	771865.0	772022.0	771891.0
antisense_358	772370	-		OTH Found	CNIT	-0.563	0.672	RNA	772022.0	772321.0	772370.0	772353.0
antisense_359	774171	+		OTH Found	CNIT	-0.42	-0.761	RNA	774171.0	774320.0	774536.0	774397.0
antisense_360	777010	-	CP063091.1 (1400337-1399439)	True	QRNA	15.529	0.512	RNA	776111.0	776173.0	777009.0	776953.0
antisense_361	778423	-	CP020478.1 (913558-914390)	False	QRNA	29.828	1.05	COD	777594.0	777623.0	778413.0	778413.0
antisense_362	779052	-		OTH Found	CNIT	-0.65	1.547	RNA	778423.0	778926.0	779052.0	778952.0
antisense_363	780612	-	CP059373.1 (703601-704493)	True	QRNA	9.495	-0.159	RNA	779720.0	779771.0	780612.0	780612.0
antisense_364	780855	+	CP022347.1 (466319-467221)	True	QRNA	49.399	2.391	COD	780861.0	780873.0	781763.0	781733.0
antisense_365	783726	+		OTH Found	CNIT	-0.51	0.137	RNA	783726.0	783842.0	783892.0	783874.0
antisense_366	783892	+		OTH Found	CNIT	-0.454	-0.428	RNA	783892.0	784018.0	784311.0	784155.0
antisense_367	784311	+	CP020478.1 (905449-904550)	True	QRNA	62.34	3.278	COD	784313.0	784314.0	785212.0	785210.0
antisense_368	785521	+		OTH Found	CNIT	0.632	0.834	COD	785521.0	785554.0	786430.0	785733.0
antisense_369	791454	+		OTH Found	CNIT	-0.503	0.064	RNA	791454.0	791489.0	792347.0	791512.0
antisense_370	792347	+	OU701461.1 (769638-769835)	False	QRNA	7.946	-0.449	COD	792356.0	792393.0	792553.0	792455.0
antisense_371	792554	+		OTH Found	CNIT	-0.766	2.706	RNA	792554.0	792642.0	792689.0	792680.0
antisense_372	792689	+		OTH Found	CNIT	-0.543	0.474	RNA	792689.0	793077.0	793598.0	793109.0
antisense_373	797467	+	CP076657.1 (560061-560600)	True	QRNA	13.808	0.32	RNA	797467.0	797467.0	798007.0	798007.0
antisense_374	798010	+	CP082871.1 (26515-25638)	False	QRNA	4.896	-0.658	COD	798012.0	798177.0	798889.0	798875.0
antisense_375	800317	-		OTH Found	CNIT	-0.521	0.253	RNA	799408.0	799738.0	800317.0	799800.0
antisense_376	801363	+		OTH Found	CNIT	-0.527	0.31	RNA	801363.0	801715.0	802272.0	801798.0
antisense_377	802407	+	HG326877.1 (1212492-1212140)	False	QRNA	5.319	-0.629	COD	802408.0	802498.0	802760.0	802743.0
antisense_378	802761	+		OTH Found	CNIT	-0.563	0.667	RNA	802761.0	802836.0	803256.0	802859.0
antisense_380	803256	+	CP059597.1 (630840-631742)	True	QRNA	6.073	-0.54	RNA	803260.0	803315.0	804162.0	804162.0
antisense_381	812136	-		OTH Found	CNIT	-0.505	0.091	RNA	811767.0	811777.0	812136.0	811806.0
antisense_382	813811	+	LR134534.1 (1091491-1090963)	True	QRNA	9.224	-0.19	RNA	813818.0	813818.0	814343.0	814332.0
antisense_383	814369	+		OTH Found	CNIT	-0.666	1.7	RNA	814369.0	814413.0	814434.0	814433.0
antisense_384	814434	+	CP059597.1 (641733-642407)	True	QRNA	13.26	0.259	RNA	814434.0	814434.0	815108.0	815108.0
antisense_385	815110	+		OTH Found	CNIT	-0.425	-0.716	RNA	815110.0	815744.0	816019.0	815803.0
antisense_386	825976	+	CP020478.1 (871598-872338)	False	QRNA	19.351	0.332	COD	825976.0	825976.0	826719.0	826699.0
antisense_387	829067	+		OTH Found	CNIT	-0.501	0.052	RNA	829067.0	829363.0	829722.0	829386.0
antisense_388	829722	+		OTH Found	CNIT	-0.453	-0.433	RNA	829722.0	830236.0	830631.0	830268.0
antisense_389	831081	+		OTH Found	CNIT	-0.576	0.8	RNA	831081.0	831175.0	831267.0	831231.0
antisense_390	831267	+	CP007181.1 (871166-870255)	True	QRNA	7.3	-0.404	RNA	831267.0	831267.0	832175.0	832175.0
antisense_391	833167	+		OTH Found	CNIT	-0.496	-0.004	RNA	833167.0	833799.0	834076.0	833849.0
antisense_392	837344	+		OTH Found	CNIT	-0.46	-0.363	RNA	837344.0	837345.0	837769.0	837389.0
antisense_393	837769	+	LR134508.1 (1160760-1161442)	True	QRNA	8.705	-0.247	RNA	837769.0	837769.0	838454.0	838454.0
antisense_394	839549	+		OTH Found	CNIT	-0.499	0.031	RNA	839549.0	839590.0	840458.0	839628.0
antisense_395	842320	+	CP022347.1 (785968-785857)	False	QRNA	15.082	0.04	COD	842322.0	842325.0	842433.0	842426.0
antisense_396	842438	+	CP068586.1 (877630-877729)	False	QRNA	0.61	-0.952	COD	842438.0	842439.0	842537.0	842456.0
antisense_397	842538	+	CP059597.1 (541830-540923)	True	QRNA	20.109	1.021	RNA	842538.0	842538.0	843446.0	843446.0
antisense_398	844993	+		OTH Found	CNIT	-0.456	-0.399	RNA	844993.0	845614.0	845902.0	845679.0
antisense_399	847558	-	CP044165.1 (1103237-1103070)	False	QRNA	1.963	-0.859	COD	847389.0	847484.0	847556.0	847546.0
antisense_400	849846	+	CP059597.1 (534575-533669)	True	QRNA	15.662	0.526	RNA	849846.0	849869.0	850754.0	850754.0
antisense_401	853981	-		OTH Found	CNIT	-0.477	-0.195	RNA	853072.0	853684.0	853981.0	853722.0
antisense_402	854183	-		OTH Found	CNIT	-0.586	0.9	RNA	853981.0	854112.0	854183.0	854162.0
antisense_403	854588	-		OTH Found	CNIT	-0.588	0.92	RNA	854183.0	854293.0	854588.0	854310.0
antisense_404	854671	-		OTH Found	CNIT	-0.523	0.268	RNA	854588.0	854588.0	854671.0	854617.0
antisense_405	862259	+		OTH Found	CNIT	-0.478	-0.184	RNA	862259.0	863032.0	863132.0	863082.0
antisense_406	863132	+	CP053849.1 (493359-494254)	False	QRNA	13.888	-0.042	COD	863133.0	863187.0	864028.0	863988.0
antisense_407	869239	-		OTH Found	CNIT	-0.52	0.238	RNA	868330.0	869105.0	869239.0	869134.0
antisense_408	875741	+		OTH Found	CNIT	-0.454	-0.426	RNA	875741.0	875959.0	876650.0	876024.0
antisense_409	879198	-	LR134372.1 (709735-709482)	True	QRNA	0.206	-1.193	RNA	878932.0	878932.0	879198.0	879198.0
orphan_11	879931	+		OTH Found	CNIT	-0.528	0.323	RNA	879931.0	880020.0	880234.0	880052.0
orphan_12	880052	-		OTH Found	CNIT	0.571	-0.801	COD	879198.0	879199.0	880052.0	879336.0
orphan_13	880088	-		OTH Found	CNIT	-0.627	1.316	RNA	880052.0	880056.0	880088.0	880073.0
orphan_14	880234	+	LR134359.1 (108774-108223)	True	QRNA	9.129	-0.2	RNA	880234.0	880234.0	880800.0	880800.0
orphan_15	880310	-		OTH Found	CNIT	-0.592	0.966	RNA	880088.0	880231.0	880310.0	880281.0
orphan_16	880586	-		OTH Found	CNIT	-0.521	0.249	RNA	880310.0	880449.0	880586.0	880499.0
antisense_410	882940	+		OTH Found	CNIT	-0.403	-0.938	RNA	882940.0	883750.0	883849.0	883848.0
antisense_411	884452	+		OTH Found	CNIT	-0.538	0.422	RNA	884452.0	884741.0	884817.0	884776.0
orphan_17	884817	+		No QRNA hit	CNIT	-0.571	0.753	RNA	884817.0	884831.0	884848.0	884848.0
antisense_412	884848	+		OTH Found	CNIT	-0.538	0.415	RNA	884848.0	885648.0	885703.0	885671.0
antisense_413	886158	-	CP006702.2 (992505-993065)	True	QRNA	7.517	-0.379	RNA	885611.0	885611.0	886158.0	886158.0
antisense_414	888609	+	CP043428.1 (864164-863953)	False	QRNA	0.852	-0.935	COD	888609.0	888609.0	888820.0	888815.0
antisense_415	888821	+	CP068566.1 (1087158-1086251)	False	QRNA	0.954	-0.928	COD	888822.0	888822.0	889729.0	889616.0
antisense_416	889908	+	CP014744.1 (919470-920405)	True	QRNA	20.93	1.112	RNA	889908.0	889908.0	890816.0	890816.0
antisense_417	891585	+		OTH Found	CNIT	-0.569	0.735	RNA	891585.0	891639.0	891737.0	891662.0
antisense_418	891737	+		OTH Found	CNIT	-0.453	-0.436	RNA	891737.0	892226.0	892646.0	892303.0
antisense_419	893178	+		OTH Found	CNIT	-0.48	-0.161	RNA	893178.0	893431.0	894087.0	893520.0
antisense_420	895070	+		OTH Found	CNIT	-0.498	0.021	RNA	895070.0	895744.0	895979.0	895785.0
antisense_421	896396	-		OTH Found	CNIT	-0.582	0.864	RNA	895982.0	896261.0	896396.0	896287.0
antisense_422	896432	-		OTH Found	CNIT	-0.797	3.022	RNA	896396.0	896421.0	896432.0	896429.0
antisense_423	899008	-	CP063536.1 (804638-804471)	False	QRNA	2.46	-0.825	COD	898841.0	898856.0	899008.0	898957.0
antisense_424	906656	+		OTH Found	CNIT	-0.511	0.151	RNA	906656.0	907047.0	907159.0	907094.0
antisense_425	907159	+		OTH Found	CNIT	-0.449	-0.471	RNA	907159.0	907216.0	908068.0	907251.0
antisense_426	910437	+		OTH Found	CNIT	-0.424	-0.726	RNA	910437.0	910941.0	911346.0	910994.0
antisense_428	915591	-		OTH Found	CNIT	-0.482	-0.139	RNA	914682.0	915005.0	915591.0	915079.0
antisense_429	916162	-		OTH Found	CNIT	-0.466	-0.306	RNA	915591.0	915980.0	916162.0	916093.0
antisense_430	916224	-		OTH Found	CNIT	-0.522	0.258	RNA	916162.0	916194.0	916224.0	916223.0
orphan_18	917052	+		OTH Found	CNIT	-0.479	-0.168	RNA	917052.0	917206.0	917460.0	917316.0
orphan_19	917357	-	CP022551.1 (457936-457589)	True	QRNA	14.728	0.422	RNA	916999.0	916999.0	917357.0	917357.0
antisense_431	917975	-		OTH Found	CNIT	-0.54	0.435	RNA	917357.0	917583.0	917975.0	917627.0
antisense_432	918559	-	CP066243.1 (1712986-1713546)	True	QRNA	13.204	0.253	RNA	917976.0	917976.0	918559.0	918559.0
antisense_433	921338	-	CP020045.1 (907435-906756)	True	QRNA	9.626	-0.145	RNA	920650.0	920650.0	921338.0	921338.0
antisense_434	923773	-	LR134359.1 (903629-902725)	True	QRNA	10.58	-0.039	RNA	922865.0	922865.0	923773.0	923773.0
antisense_435	925892	-	CP063090.1 (1541278-1542187)	True	QRNA	20.256	1.037	RNA	924984.0	924984.0	925892.0	925892.0
antisense_436	931404	-	CP063536.1 (827669-827060)	True	QRNA	21.912	1.221	RNA	930785.0	930785.0	931401.0	931401.0
antisense_437	931900	-		OTH Found	CNIT	-0.522	0.259	RNA	931404.0	931815.0	931900.0	931859.0
antisense_438	932202	-		OTH Found	CNIT	-0.619	1.233	RNA	931900.0	931922.0	932202.0	931954.0
antisense_439	935613	+		OTH Found	CNIT	-0.512	0.16	RNA	935613.0	936431.0	936522.0	936478.0
antisense_440	938010	+		OTH Found	CNIT	-0.533	0.374	RNA	938010.0	938695.0	938919.0	938718.0
antisense_441	942101	-		OTH Found	CNIT	-0.502	0.055	RNA	941366.0	941563.0	942101.0	941595.0
antisense_442	942883	+	CP059597.1 (494025-493122)	False	QRNA	2.298	-0.836	COD	942888.0	943000.0	943791.0	943721.0
antisense_443	945227	-	CP059597.1 (491656-492539)	True	QRNA	21.713	1.199	RNA	944356.0	944356.0	945227.0	945227.0
antisense_444	947560	+	HG326877.1 (1074145-1073307)	True	QRNA	8.106	-0.314	RNA	947569.0	947569.0	948406.0	948406.0
antisense_445	950436	+		OTH Found	CNIT	-0.478	-0.183	RNA	950436.0	951022.0	951319.0	951066.0
antisense_446	951319	+		OTH Found	CNIT	-0.48	-0.163	RNA	951319.0	951620.0	952209.0	951664.0
antisense_447	952209	+		OTH Found	CNIT	-0.44	-0.559	RNA	952209.0	952380.0	953118.0	952415.0
antisense_448	953781	+	CP063091.1 (1527088-1526294)	True	QRNA	18.094	0.797	RNA	953781.0	953781.0	954584.0	954584.0
antisense_449	954591	+		OTH Found	CNIT	-0.725	2.3	RNA	954591.0	954615.0	954640.0	954632.0
antisense_450	954640	+		OTH Found	CNIT	-0.511	0.148	RNA	954640.0	955358.0	955549.0	955426.0
antisense_451	956519	-		OTH Found	CNIT	-0.494	-0.024	RNA	955789.0	955791.0	956519.0	955847.0
antisense_452	958929	+	CP059597.1 (714785-715690)	True	QRNA	15.764	0.538	RNA	958932.0	958932.0	959837.0	959837.0
antisense_453	961047	+	CP076657.1 (753338-754234)	True	QRNA	7.826	-0.345	RNA	961050.0	961050.0	961955.0	961955.0
antisense_454	962867	+		OTH Found	CNIT	-0.414	-0.821	RNA	962867.0	963315.0	963523.0	963398.0
antisense_455	963523	+	CP007769.1 (1068318-1067420)	False	QRNA	42.54	1.921	COD	963531.0	963560.0	964430.0	964428.0
antisense_456	970857	+		OTH Found	CNIT	0.553	-1.27	COD	970857.0	971026.0	971766.0	971247.0
antisense_457	974744	+		OTH Found	CNIT	-0.465	-0.315	RNA	974744.0	975003.0	975653.0	975071.0
antisense_458	976192	+		OTH Found	CNIT	-0.476	-0.199	RNA	976192.0	976943.0	977101.0	976978.0
antisense_459	978075	-	CP063536.1 (871316-870857)	True	QRNA	13.76	0.315	RNA	977626.0	977626.0	978075.0	978049.0
antisense_460	978370	-		OTH Found	CNIT	-0.555	0.591	RNA	978075.0	978237.0	978370.0	978272.0
antisense_461	980273	-	CP076657.1 (779894-779003)	True	QRNA	5.021	-0.657	RNA	979375.0	979375.0	980266.0	980266.0
antisense_462	982768	+	CP063091.1 (1839626-1840531)	True	QRNA	12.927	0.222	RNA	982768.0	982768.0	983672.0	983672.0
antisense_463	996243	+	CP017032.1 (1016893-1017800)	True	QRNA	15.118	0.466	RNA	996243.0	996243.0	997150.0	997150.0
antisense_464	1000756	+		OTH Found	CNIT	-0.453	-0.437	RNA	1000756.0	1001520.0	1001665.0	1001585.0
antisense_465	1001786	+	CP059366.1 (170357-169444)	True	QRNA	18.962	0.893	RNA	1001786.0	1001786.0	1002694.0	1002694.0
antisense_466	1002897	+		OTH Found	CNIT	-0.525	0.292	RNA	1002897.0	1003320.0	1003806.0	1003379.0
antisense_467	1005608	+		OTH Found	CNIT	-0.426	-0.7	RNA	1005608.0	1006051.0	1006517.0	1006191.0
antisense_468	1007093	+		OTH Found	CNIT	-0.41	-0.87	RNA	1007093.0	1007125.0	1008002.0	1007196.0
antisense_469	1013553	+	CP059597.1 (769694-770610)	True	QRNA	29.145	2.026	RNA	1013559.0	1013559.0	1014461.0	1014382.0
antisense_470	1016814	-		OTH Found	CNIT	-0.662	1.669	RNA	1016524.0	1016763.0	1016814.0	1016795.0
antisense_471	1018403	-	CP017878.1 (799886-800762)	True	QRNA	20.009	1.01	RNA	1017527.0	1017527.0	1018403.0	1018403.0
antisense_472	1019821	-	CP059597.1 (775497-774617)	True	QRNA	4.105	-0.759	RNA	1018913.0	1018913.0	1019819.0	1019819.0
antisense_474	1021679	-	CP076657.1 (1026905-1026044)	True	QRNA	20.82	1.1	RNA	1020812.0	1020812.0	1021678.0	1021678.0
antisense_475	1023039	-		OTH Found	CNIT	-0.436	-0.605	RNA	1022130.0	1022570.0	1023039.0	1022611.0
antisense_476	1023680	+		OTH Found	CNIT	-0.499	0.029	RNA	1023680.0	1024137.0	1024589.0	1024190.0
antisense_477	1025631	+		OTH Found	CNIT	-0.443	-0.536	RNA	1025631.0	1026042.0	1026516.0	1026080.0
antisense_478	1027147	-		OTH Found	CNIT	-0.428	-0.685	RNA	1026544.0	1026821.0	1027147.0	1026880.0
antisense_479	1027280	-		OTH Found	CNIT	-0.59	0.938	RNA	1027147.0	1027204.0	1027280.0	1027236.0
antisense_480	1027979	-	CP059368.1 (607575-606884)	False	QRNA	7.799	-0.459	COD	1027284.0	1027286.0	1027978.0	1027687.0
antisense_481	1028127	-		OTH Found	CNIT	-0.75	2.55	RNA	1027979.0	1028111.0	1028127.0	1028125.0
antisense_482	1028996	-	CP031611.1 (321321-322186)	True	QRNA	29.604	2.077	RNA	1028128.0	1028128.0	1028996.0	1028996.0
antisense_483	1033303	+	OU701459.1 (581338-580473)	False	QRNA	8.498	-0.411	COD	1033304.0	1033309.0	1034169.0	1034082.0
antisense_484	1042075	+	CP022347.1 (762759-761868)	False	QRNA	3.221	-0.773	COD	1042075.0	1042111.0	1042976.0	1042974.0
antisense_485	1045898	-		OTH Found	CNIT	-0.526	0.303	RNA	1045082.0	1045779.0	1045898.0	1045805.0
antisense_486	1046168	-		OTH Found	CNIT	-0.595	0.995	RNA	1045898.0	1046012.0	1046168.0	1046029.0
antisense_487	1046582	+		OTH Found	CNIT	-0.465	-0.317	RNA	1046582.0	1046875.0	1047132.0	1046922.0
antisense_488	1047132	+	CP007770.1 (967931-968583)	False	QRNA	28.732	0.975	COD	1047132.0	1047132.0	1047784.0	1047776.0
antisense_489	1050094	-	CP043426.1 (972979-972104)	True	QRNA	3.355	-0.842	RNA	1049211.0	1049211.0	1050094.0	1050094.0
antisense_490	1050441	-		OTH Found	CNIT	-0.619	1.237	RNA	1050094.0	1050355.0	1050441.0	1050369.0
antisense_491	1050810	-		OTH Found	CNIT	-0.605	1.091	RNA	1050441.0	1050781.0	1050810.0	1050807.0
antisense_492	1050978	-		OTH Found	CNIT	-0.525	0.288	RNA	1050810.0	1050951.0	1050978.0	1050977.0
antisense_493	1051255	-		OTH Found	CNIT	-0.424	-0.722	RNA	1050978.0	1051204.0	1051255.0	1051245.0
antisense_494	1051307	-		OTH Found	CNIT	-0.693	1.973	RNA	1051255.0	1051261.0	1051307.0	1051272.0
antisense_495	1052526	-	CP059597.1 (811188-810284)	True	QRNA	19.74	0.98	RNA	1051618.0	1051618.0	1052525.0	1052525.0
antisense_496	1052738	-		OTH Found	CNIT	-0.62	1.238	RNA	1052526.0	1052526.0	1052738.0	1052552.0
antisense_497	1054550	-	HG326877.1 (970369-971222)	True	QRNA	15.821	0.544	RNA	1053688.0	1053688.0	1054550.0	1054550.0
antisense_498	1055013	-		OTH Found	CNIT	-0.554	0.578	RNA	1054550.0	1054904.0	1055013.0	1054969.0
antisense_499	1056381	-		OTH Found	CNIT	-0.425	-0.714	RNA	1055472.0	1056109.0	1056381.0	1056201.0
antisense_500	1056560	-	CP053848.1 (1107956-1107778)	False	QRNA	1.458	-0.894	COD	1056384.0	1056395.0	1056559.0	1056508.0
antisense_501	1056620	-		OTH Found	CNIT	-0.625	1.295	RNA	1056560.0	1056573.0	1056620.0	1056593.0
antisense_502	1056808	-		OTH Found	CNIT	-0.645	1.49	RNA	1056620.0	1056750.0	1056808.0	1056776.0
antisense_503	1057852	-		OTH Found	CNIT	-0.541	0.446	RNA	1056943.0	1057201.0	1057852.0	1057224.0
antisense_504	1059250	-		OTH Found	CNIT	-0.445	-0.517	RNA	1058341.0	1058775.0	1059250.0	1058855.0
antisense_505	1060020	-	CP076657.1 (1095772-1095006)	True	QRNA	15.768	0.538	RNA	1059251.0	1059251.0	1060020.0	1060020.0
antisense_506	1060804	+		OTH Found	CNIT	-0.462	-0.343	RNA	1060804.0	1061490.0	1061713.0	1061543.0
antisense_507	1063242	-		OTH Found	CNIT	-0.467	-0.293	RNA	1062565.0	1063167.0	1063242.0	1063220.0
antisense_508	1063317	-	CP018793.1 (809464-809524)	False	QRNA	3.682	-0.741	COD	1063247.0	1063260.0	1063307.0	1063289.0
antisense_509	1063660	+		OTH Found	CNIT	-0.339	-1.578	RNA	1063660.0	1063881.0	1064100.0	1064030.0
antisense_510	1064100	+		OTH Found	CNIT	-0.475	-0.213	RNA	1064100.0	1064111.0	1065009.0	1064128.0
antisense_511	1066460	+		OTH Found	CNIT	-0.55	0.538	RNA	1066460.0	1066465.0	1067176.0	1066491.0
antisense_513	1067176	+	CP085925.1 (676461-676401)	False	QRNA	2.951	-0.791	COD	1067183.0	1067199.0	1067243.0	1067237.0
antisense_514	1067247	+		OTH Found	CNIT	-0.43	-0.662	RNA	1067247.0	1067597.0	1068156.0	1067641.0
antisense_515	1068944	+		OTH Found	CNIT	-0.47	-0.265	RNA	1068944.0	1069335.0	1069853.0	1069376.0
antisense_516	1073266	+		OTH Found	CNIT	-0.539	0.434	RNA	1073266.0	1073712.0	1074175.0	1073750.0
antisense_517	1076084	+		OTH Found	CNIT	-0.435	-0.618	RNA	1076084.0	1076703.0	1076993.0	1076786.0
antisense_518	1077110	+		OTH Found	CNIT	-0.571	0.755	RNA	1077110.0	1077227.0	1078019.0	1077262.0
antisense_519	1081974	+		OTH Found	CNIT	-0.56	0.641	RNA	1081974.0	1081999.0	1082883.0	1082034.0
antisense_520	1083447	-		OTH Found	CNIT	-0.579	0.827	RNA	1083101.0	1083171.0	1083447.0	1083200.0
antisense_521	1083637	-		OTH Found	CNIT	-0.575	0.788	RNA	1083447.0	1083494.0	1083637.0	1083511.0
antisense_522	1085176	-		OTH Found	CNIT	-0.468	-0.287	RNA	1084267.0	1084829.0	1085176.0	1084873.0
antisense_523	1085431	-		OTH Found	CNIT	-0.612	1.165	RNA	1085176.0	1085213.0	1085431.0	1085233.0
antisense_524	1085869	-		OTH Found	CNIT	-0.612	1.167	RNA	1085431.0	1085485.0	1085869.0	1085511.0
antisense_525	1090148	-		OTH Found	CNIT	-0.507	0.109	RNA	1089239.0	1089250.0	1090148.0	1089327.0
antisense_526	1091251	-	DQ535890.1 (7405-6496)	True	QRNA	33.405	2.5	RNA	1090343.0	1090343.0	1091251.0	1091251.0
antisense_527	1094947	+		OTH Found	CNIT	-0.546	0.498	RNA	1094947.0	1094971.0	1095347.0	1094997.0
antisense_528	1096460	-	CP012206.1 (1035326-1034418)	True	QRNA	21.315	1.155	RNA	1095552.0	1095552.0	1096460.0	1096460.0
antisense_529	1097079	-	CP007777.1 (1201879-1201263)	True	QRNA	23.322	1.378	RNA	1096463.0	1096463.0	1097079.0	1097079.0
antisense_530	1097750	-		OTH Found	CNIT	-0.633	1.368	RNA	1097079.0	1097114.0	1097750.0	1097128.0
antisense_531	1097869	-		OTH Found	CNIT	-0.665	1.693	RNA	1097750.0	1097830.0	1097869.0	1097841.0
antisense_532	1099279	-	CP059597.1 (860375-860003)	True	QRNA	9.589	-0.149	RNA	1098906.0	1099013.0	1099279.0	1099279.0
antisense_533	1099530	-		OTH Found	CNIT	-0.454	-0.424	RNA	1099279.0	1099391.0	1099530.0	1099429.0
antisense_534	1100013	-	LR134530.1 (1249426-1248952)	True	QRNA	18.456	0.837	RNA	1099532.0	1099532.0	1100013.0	1100013.0
antisense_535	1100783	-		OTH Found	CNIT	-0.505	0.085	RNA	1100013.0	1100597.0	1100783.0	1100644.0
antisense_536	1101765	-	CP044262.1 (1331808-1332717)	True	QRNA	5.323	-0.623	RNA	1100857.0	1101020.0	1101765.0	1101765.0
antisense_537	1102239	-		OTH Found	CNIT	-0.744	2.486	RNA	1101765.0	1102086.0	1102239.0	1102103.0
antisense_538	1108411	+	CP063083.1 (986621-986340)	False	QRNA	5.85	-0.593	COD	1108411.0	1108412.0	1108692.0	1108534.0
antisense_539	1108693	+		OTH Found	CNIT	-0.633	1.372	RNA	1108693.0	1108840.0	1109010.0	1108893.0
antisense_541	1110949	-		OTH Found	CNIT	0.517	-2.242	COD	1110040.0	1110540.0	1110949.0	1110896.0
antisense_542	1111474	-	LS483295.1 (1163512-1162991)	True	QRNA	17.455	0.726	RNA	1110950.0	1110950.0	1111474.0	1111474.0
antisense_543	1111537	-	CP040616.1 (1168280-1168219)	False	QRNA	3.649	-0.744	COD	1111476.0	1111491.0	1111537.0	1111526.0
antisense_544	1115944	+		OTH Found	CNIT	-0.378	-1.182	RNA	1115944.0	1116358.0	1116853.0	1116486.0
antisense_545	1123448	+		OTH Found	CNIT	-0.464	-0.324	RNA	1123448.0	1124059.0	1124357.0	1124139.0
antisense_546	1127031	+	CP020478.1 (449073-448173)	False	QRNA	9.271	-0.358	COD	1127039.0	1127095.0	1127939.0	1127679.0
antisense_547	1133474	+		OTH Found	CNIT	-0.41	-0.865	RNA	1133474.0	1133658.0	1134383.0	1133723.0
antisense_548	1134648	+		OTH Found	CNIT	-0.966	4.712	RNA	1134648.0	1134651.0	1134686.0	1134659.0
antisense_549	1134686	+		OTH Found	CNIT	-0.528	0.323	RNA	1134686.0	1135439.0	1135587.0	1135501.0
antisense_550	1135587	+		OTH Found	CNIT	-0.612	1.166	RNA	1135587.0	1135798.0	1136011.0	1135836.0
antisense_551	1136011	+		OTH Found	CNIT	-0.457	-0.391	RNA	1136011.0	1136852.0	1136920.0	1136902.0
antisense_552	1140063	+		OTH Found	CNIT	-0.579	0.835	RNA	1140063.0	1140594.0	1140636.0	1140635.0
antisense_553	1141644	-	CP053825.1 (1182403-1181506)	True	QRNA	9.207	-0.192	RNA	1140747.0	1140747.0	1141644.0	1141644.0
antisense_554	1142533	+		OTH Found	CNIT	-0.821	3.262	RNA	1142533.0	1142561.0	1142673.0	1142572.0
antisense_555	1142673	+		OTH Found	CNIT	-0.487	-0.091	RNA	1142673.0	1142794.0	1143008.0	1142847.0
antisense_556	1145116	+		OTH Found	CNIT	-0.513	0.164	RNA	1145116.0	1145297.0	1146025.0	1145338.0
antisense_557	1155682	+		OTH Found	CNIT	-0.425	-0.72	RNA	1155682.0	1155870.0	1156389.0	1155941.0
antisense_558	1156389	+		OTH Found	CNIT	-0.451	-0.455	RNA	1156389.0	1156544.0	1157288.0	1156609.0
antisense_559	1157288	+		OTH Found	CNIT	-0.465	-0.311	RNA	1157288.0	1157310.0	1157639.0	1157354.0
antisense_560	1159307	-	CP022347.1 (642129-643036)	False	QRNA	28.279	0.944	COD	1158400.0	1158645.0	1159307.0	1159307.0
antisense_562	1160722	-	CP059597.1 (330484-331393)	True	QRNA	36.143	2.804	RNA	1159814.0	1159814.0	1160721.0	1160721.0
antisense_563	1163561	+		OTH Found	CNIT	-0.49	-0.058	RNA	1163561.0	1164008.0	1164470.0	1164034.0
antisense_564	1164891	-		OTH Found	CNIT	-0.53	0.34	RNA	1164509.0	1164649.0	1164891.0	1164738.0
antisense_565	1169044	+		OTH Found	CNIT	-0.645	1.489	RNA	1169044.0	1169053.0	1169262.0	1169070.0
antisense_566	1169262	+		OTH Found	CNIT	-0.525	0.287	RNA	1169262.0	1169591.0	1169863.0	1169641.0
antisense_567	1170790	-		OTH Found	CNIT	-0.428	-0.683	RNA	1169979.0	1170506.0	1170790.0	1170580.0
antisense_568	1174441	-	CP001900.1 (87852-88427)	True	QRNA	5.212	-0.636	RNA	1173865.0	1173865.0	1174440.0	1174440.0
antisense_569	1174912	+	CP059597.1 (316582-315686)	True	QRNA	15.939	0.557	RNA	1174912.0	1174912.0	1175818.0	1175818.0
antisense_570	1182508	-		OTH Found	CNIT	-0.472	-0.246	RNA	1181599.0	1181692.0	1182508.0	1181748.0
antisense_571	1182973	-		OTH Found	CNIT	-0.562	0.663	RNA	1182508.0	1182670.0	1182973.0	1182717.0
antisense_572	1183308	-		OTH Found	CNIT	-0.53	0.341	RNA	1182973.0	1183078.0	1183308.0	1183134.0
antisense_573	1184123	-	CP020478.1 (826486-827287)	False	QRNA	5.896	-0.59	COD	1183321.0	1183379.0	1184122.0	1184056.0
antisense_574	1184915	-	CP020867.1 (406111-406878)	True	QRNA	15.851	0.547	RNA	1184131.0	1184131.0	1184904.0	1184904.0
antisense_575	1192376	-		OTH Found	CNIT	-0.449	-0.478	RNA	1191467.0	1192193.0	1192376.0	1192252.0
antisense_576	1193038	-		OTH Found	CNIT	-0.495	-0.008	RNA	1192376.0	1192785.0	1193038.0	1192826.0
antisense_577	1194704	+		OTH Found	CNIT	-0.485	-0.116	RNA	1194704.0	1195267.0	1195613.0	1195326.0
antisense_578	1196075	+		OTH Found	CNIT	-0.477	-0.196	RNA	1196075.0	1196141.0	1196386.0	1196218.0
antisense_579	1196386	+		OTH Found	CNIT	-0.592	0.961	RNA	1196386.0	1196390.0	1196944.0	1196404.0
antisense_580	1196944	+	HG326877.1 (839073-838726)	False	QRNA	6.417	-0.554	COD	1196944.0	1197007.0	1197290.0	1197263.0
antisense_581	1198635	-	CP053844.1 (600711-599847)	False	QRNA	28.421	0.954	COD	1197771.0	1197798.0	1198635.0	1198514.0
antisense_582	1198948	-	LR698972.1 (533234-532931)	False	QRNA	1.057	-0.921	COD	1198636.0	1198638.0	1198939.0	1198841.0
antisense_583	1201162	-	OU701461.1 (973616-974477)	True	QRNA	7.98	-0.328	RNA	1200295.0	1200295.0	1201160.0	1201068.0
antisense_584	1203416	-	CP020478.1 (1168382-1169288)	True	QRNA	8.374	-0.284	RNA	1202509.0	1202509.0	1203415.0	1203415.0
antisense_585	1203653	-		OTH Found	CNIT	-0.422	-0.742	RNA	1203416.0	1203460.0	1203653.0	1203588.0
antisense_586	1203801	-		OTH Found	CNIT	-0.432	-0.64	RNA	1203653.0	1203681.0	1203801.0	1203755.0
antisense_587	1210375	-	CP029054.1 (1235127-1234216)	True	QRNA	26.927	1.779	RNA	1209467.0	1209467.0	1210375.0	1210375.0
antisense_588	1210469	-		OTH Found	CNIT	-0.538	0.416	RNA	1210375.0	1210380.0	1210469.0	1210454.0
antisense_589	1212914	-		OTH Found	CNIT	-0.512	0.157	RNA	1212624.0	1212714.0	1212914.0	1212761.0
antisense_590	1220983	+	CP041617.1 (451256-450378)	False	QRNA	33.787	1.322	COD	1221008.0	1221078.0	1221889.0	1221884.0
antisense_591	1225552	+		OTH Found	CNIT	-0.543	0.465	RNA	1225552.0	1225815.0	1226461.0	1225856.0
antisense_592	1227836	+		OTH Found	CNIT	-0.453	-0.436	RNA	1227836.0	1228178.0	1228745.0	1228264.0
antisense_593	1234201	+		OTH Found	CNIT	-0.515	0.185	RNA	1234201.0	1234296.0	1234779.0	1234379.0
antisense_594	1235634	-		OTH Found	CNIT	-0.447	-0.489	RNA	1234779.0	1235204.0	1235634.0	1235251.0
antisense_595	1240579	+		OTH Found	CNIT	-0.423	-0.735	RNA	1240579.0	1240761.0	1241488.0	1240817.0
antisense_596	1244649	+	CP020867.1 (535343-535824)	True	QRNA	1.074	-1.096	RNA	1244649.0	1244649.0	1245120.0	1245120.0
antisense_597	1255960	-	CP059364.1 (1225302-1224388)	True	QRNA	38.907	3.111	RNA	1255052.0	1255052.0	1255960.0	1255960.0
antisense_598	1256238	-		OTH Found	CNIT	-0.606	1.106	RNA	1255960.0	1255966.0	1256238.0	1255980.0
antisense_599	1257652	+	CP059597.1 (977224-978118)	False	QRNA	35.157	1.416	COD	1257656.0	1257697.0	1258550.0	1258401.0
antisense_600	1260752	-	CP047482.1 (334235-333450)	True	QRNA	10.373	-0.062	RNA	1259966.0	1259966.0	1260745.0	1260745.0
antisense_601	1261627	-	CP076513.1 (1371747-1370893)	True	QRNA	13.295	0.263	RNA	1260766.0	1260886.0	1261620.0	1261620.0
antisense_602	1262382	-	AP025970.1 (1415927-1415157)	True	QRNA	37.121	2.913	RNA	1261628.0	1261628.0	1262379.0	1262379.0
antisense_603	1262647	-		OTH Found	CNIT	-0.463	-0.338	RNA	1262382.0	1262540.0	1262647.0	1262575.0
antisense_604	1263329	-		OTH Found	CNIT	-0.528	0.315	RNA	1262647.0	1262960.0	1263329.0	1262977.0
antisense_605	1263471	-		OTH Found	CNIT	-0.751	2.56	RNA	1263329.0	1263398.0	1263471.0	1263409.0
antisense_606	1264204	-		OTH Found	CNIT	-0.553	0.573	RNA	1263471.0	1264093.0	1264204.0	1264125.0
antisense_607	1264342	-		OTH Found	CNIT	-0.598	1.021	RNA	1264204.0	1264246.0	1264342.0	1264257.0
antisense_608	1264417	-		OTH Found	CNIT	-0.726	2.309	RNA	1264342.0	1264374.0	1264417.0	1264409.0
antisense_609	1269819	+	CP059597.1 (989389-990275)	True	QRNA	26.575	1.74	RNA	1269832.0	1269832.0	1270721.0	1270721.0
antisense_610	1271001	+	CP005388.1 (1271911-1272765)	True	QRNA	17.023	0.678	RNA	1271001.0	1271001.0	1271909.0	1271909.0
antisense_611	1281073	-		OTH Found	CNIT	-0.415	-0.819	RNA	1280164.0	1280379.0	1281073.0	1280507.0
antisense_612	1282445	-		OTH Found	CNIT	-0.428	-0.683	RNA	1281536.0	1281604.0	1282445.0	1281771.0
antisense_613	1283545	-	CP076657.1 (687348-686456)	True	QRNA	12.452	0.169	RNA	1282640.0	1282640.0	1283545.0	1283545.0
antisense_614	1283701	-	CP076657.1 (687503-687351)	False	QRNA	2.581	-0.817	COD	1283548.0	1283590.0	1283700.0	1283679.0
antisense_615	1283887	-		OTH Found	CNIT	-0.588	0.921	RNA	1283701.0	1283853.0	1283887.0	1283885.0
antisense_616	1285031	+	LR134530.1 (1408011-1408915)	True	QRNA	21.829	1.212	RNA	1285031.0	1285031.0	1285939.0	1285939.0
antisense_618	1288652	-		OTH Found	CNIT	-0.532	0.358	RNA	1288375.0	1288528.0	1288652.0	1288560.0
antisense_619	1289357	-	CP063083.1 (1076824-1076120)	False	QRNA	25.908	0.782	COD	1288653.0	1288666.0	1289357.0	1289265.0
antisense_620	1290650	+		OTH Found	CNIT	-0.524	0.277	RNA	1290650.0	1290937.0	1291242.0	1290954.0
antisense_621	1291242	+		OTH Found	CNIT	-0.415	-0.818	RNA	1291242.0	1291618.0	1292151.0	1291857.0
antisense_622	1299167	+		OTH Found	CNIT	-0.468	-0.285	RNA	1299167.0	1299946.0	1300037.0	1299993.0
antisense_623	1300037	+	CP059373.1 (186282-185374)	True	QRNA	15.893	0.552	RNA	1300037.0	1300037.0	1300945.0	1300945.0
antisense_624	1305398	-		OTH Found	CNIT	-0.459	-0.372	RNA	1304489.0	1304502.0	1305398.0	1304546.0
antisense_625	1308105	-	CP076657.1 (1222324-1221427)	True	QRNA	13.333	0.267	RNA	1307199.0	1307199.0	1308105.0	1308105.0
antisense_626	1308385	-		OTH Found	CNIT	-0.399	-0.98	RNA	1308105.0	1308190.0	1308385.0	1308330.0
antisense_627	1309742	-	CP053827.1 (161460-161108)	False	QRNA	2.208	-0.842	COD	1309387.0	1309488.0	1309742.0	1309742.0
antisense_628	1309903	-		OTH Found	CNIT	-0.402	-0.951	RNA	1309742.0	1309772.0	1309903.0	1309897.0
antisense_629	1310038	-		OTH Found	CNIT	-0.664	1.682	RNA	1309903.0	1310005.0	1310038.0	1310022.0
antisense_630	1315117	-		OTH Found	CNIT	-0.486	-0.107	RNA	1314208.0	1315070.0	1315117.0	1315102.0
antisense_631	1316100	-		OTH Found	CNIT	-0.419	-0.772	RNA	1315191.0	1315646.0	1316100.0	1315687.0
antisense_632	1318163	+		OTH Found	CNIT	-0.584	0.878	RNA	1318163.0	1318334.0	1318561.0	1318360.0
antisense_633	1318917	-	CP022347.1 (1639730-1640120)	True	QRNA	-0.489	-1.161	RNA	1318528.0	1318528.0	1318917.0	1318917.0
antisense_634	1326037	-	CP035946.1 (68848-69746)	True	QRNA	8.225	-0.301	RNA	1325130.0	1325130.0	1326037.0	1326037.0
antisense_635	1327119	-	CP028187.1 (1080212-1081117)	True	QRNA	20.11	1.021	RNA	1326211.0	1326211.0	1327119.0	1327119.0
antisense_636	1327466	-	CP076657.1 (1001228-1001573)	False	QRNA	0.065	-0.989	COD	1327123.0	1327225.0	1327466.0	1327308.0
antisense_637	1328316	-	CP076657.1 (1000378-1001223)	True	QRNA	14.429	0.389	RNA	1327471.0	1327699.0	1328316.0	1328316.0
antisense_638	1341055	+		OTH Found	CNIT	-0.677	1.811	RNA	1341055.0	1341060.0	1341251.0	1341080.0
antisense_639	1341251	+	CP037747.1 (1145815-1146297)	False	QRNA	13.172	-0.091	COD	1341259.0	1341338.0	1341741.0	1341694.0
antisense_640	1341744	+	CP020867.1 (1480396-1479444)	True	QRNA	8.873	-0.229	RNA	1341745.0	1341745.0	1342652.0	1342652.0
antisense_641	1344528	+		OTH Found	CNIT	-0.597	1.011	RNA	1344528.0	1344788.0	1345038.0	1344805.0
antisense_642	1345038	+	CP063536.1 (1221595-1222501)	True	QRNA	10.758	-0.019	RNA	1345038.0	1345038.0	1345944.0	1345944.0
antisense_643	1347429	+		OTH Found	CNIT	-0.543	0.472	RNA	1347429.0	1347640.0	1347764.0	1347669.0
antisense_644	1347764	+	CP012211.1 (1281121-1281944)	True	QRNA	14.279	0.373	RNA	1347764.0	1347764.0	1348587.0	1348587.0
antisense_645	1348588	+		OTH Found	CNIT	-0.532	0.36	RNA	1348588.0	1348742.0	1348784.0	1348774.0
antisense_646	1348784	+		OTH Found	CNIT	-0.447	-0.489	RNA	1348784.0	1348903.0	1349365.0	1348944.0
antisense_647	1349365	+		OTH Found	CNIT	-0.71	2.149	RNA	1349365.0	1349494.0	1349747.0	1349517.0
antisense_648	1349747	+	CP082874.1 (501249-502157)	True	QRNA	19.432	0.946	RNA	1349747.0	1349747.0	1350655.0	1350655.0
antisense_649	1351022	+	CP082874.1 (502524-503432)	True	QRNA	20.777	1.095	RNA	1351022.0	1351022.0	1351930.0	1351930.0
antisense_655	1352036	+		OTH Found	CNIT	-0.656	1.606	RNA	1352036.0	1352237.0	1352356.0	1352266.0
antisense_650	1352356	+		OTH Found	CNIT	-0.922	4.27	RNA	1352356.0	1352461.0	1352528.0	1352481.0
antisense_651	1352528	+	LR134534.1 (1348181-1349086)	True	QRNA	12.917	0.221	RNA	1352529.0	1352529.0	1353434.0	1353434.0
antisense_652	1355877	+	CP082874.1 (507366-508277)	True	QRNA	19.669	0.972	RNA	1355877.0	1355877.0	1356785.0	1356785.0
antisense_653	1357809	+		OTH Found	CNIT	-0.567	0.714	RNA	1357809.0	1357837.0	1357943.0	1357872.0
antisense_654	1357943	+	CP082874.1 (509468-510376)	True	QRNA	30.364	2.161	RNA	1357943.0	1357943.0	1358851.0	1358851.0
antisense_656	1362804	+	CP022347.1 (284206-285104)	False	QRNA	4.827	-0.663	COD	1362806.0	1362820.0	1363712.0	1363712.0
antisense_657	1364200	+	KT868849.1 (19665-20533)	True	QRNA	24.052	1.459	RNA	1364200.0	1364200.0	1365108.0	1365108.0
antisense_658	1365987	+	CP076657.1 (316387-315489)	True	QRNA	18.215	0.81	RNA	1365988.0	1366093.0	1366893.0	1366893.0
antisense_659	1371990	+		OTH Found	CNIT	-0.46	-0.367	RNA	1371990.0	1372053.0	1372714.0	1372085.0
antisense_660	1372714	+	CP076657.1 (308994-308145)	True	QRNA	13.882	0.328	RNA	1372716.0	1372716.0	1373584.0	1373584.0
antisense_661	1375487	-	CP076657.1 (304416-305319)	True	QRNA	23.081	1.351	RNA	1374579.0	1374579.0	1375487.0	1375487.0
antisense_662	1377628	+	CP059682.1 (918031-917522)	False	QRNA	3.351	-0.764	COD	1377634.0	1377691.0	1378144.0	1378029.0
antisense_663	1382664	-	CP020867.1 (347382-348225)	True	QRNA	29.125	2.024	RNA	1381807.0	1381807.0	1382657.0	1382657.0
antisense_664	1383278	-	CP091310.1 (1012314-1011718)	False	QRNA	14.891	0.027	COD	1382677.0	1382957.0	1383273.0	1383262.0
antisense_665	1384280	-		OTH Found	CNIT	-0.443	-0.532	RNA	1383371.0	1383590.0	1384280.0	1383637.0
antisense_666	1385375	-		OTH Found	CNIT	-0.362	-1.347	RNA	1384466.0	1384470.0	1385375.0	1384520.0
antisense_667	1385790	-		OTH Found	CNIT	-0.47	-0.263	RNA	1385375.0	1385683.0	1385790.0	1385712.0
antisense_668	1386547	-	OU701461.1 (1466964-1467709)	False	QRNA	-0.012	-0.993	COD	1385792.0	1385851.0	1386537.0	1386537.0
antisense_669	1393667	+		OTH Found	CNIT	-0.489	-0.068	RNA	1393667.0	1394287.0	1394576.0	1394319.0
antisense_670	1399722	+		OTH Found	CNIT	-0.409	-0.875	RNA	1399722.0	1399875.0	1400612.0	1399952.0
antisense_671	1400612	+		OTH Found	CNIT	-0.418	-0.783	RNA	1400612.0	1400685.0	1401521.0	1400768.0
antisense_672	1405730	+	CP059597.1 (1156993-1157826)	True	QRNA	32.639	2.414	RNA	1405730.0	1405730.0	1406563.0	1406563.0
antisense_673	1406593	+	CP059597.1 (1157858-1158752)	True	QRNA	15.976	0.561	RNA	1406595.0	1406595.0	1407492.0	1407492.0
antisense_674	1415698	+		OTH Found	CNIT	-0.421	-0.756	RNA	1415698.0	1416460.0	1416607.0	1416552.0
antisense_675	1420412	+	CP063083.1 (1462501-1461626)	False	QRNA	9.936	-0.313	COD	1420418.0	1420419.0	1421292.0	1421284.0
antisense_676	1421786	+	CP041617.1 (1559950-1559042)	False	QRNA	54.044	2.71	COD	1421786.0	1421786.0	1422694.0	1422694.0
antisense_677	1422955	+	OU701461.1 (1523371-1523155)	False	QRNA	9.466	-0.345	COD	1422958.0	1422962.0	1423174.0	1423111.0
antisense_678	1423201	+	CP020478.1 (99118-100026)	False	QRNA	7.054	-0.51	COD	1423201.0	1423436.0	1424109.0	1424062.0
antisense_679	1424344	+	CP007769.1 (347985-347194)	True	QRNA	13.663	0.304	RNA	1424345.0	1424345.0	1425119.0	1425099.0
antisense_680	1426410	+		OTH Found	CNIT	0.581	-0.535	COD	1426410.0	1426701.0	1427099.0	1426994.0
antisense_681	1427099	+	CP076657.1 (1404701-1405598)	True	QRNA	23.691	1.419	RNA	1427099.0	1427099.0	1427993.0	1427993.0
antisense_682	1428305	+		OTH Found	CNIT	-0.469	-0.276	RNA	1428305.0	1428628.0	1428769.0	1428669.0
antisense_683	1428769	+	OU701459.1 (1472850-1471957)	True	QRNA	16.829	0.656	RNA	1428769.0	1428769.0	1429677.0	1429677.0
antisense_684	1434771	+		OTH Found	CNIT	-0.383	-1.132	RNA	1434771.0	1434846.0	1435680.0	1434908.0
antisense_685	1437740	-	CP059597.1 (1181693-1181066)	True	QRNA	9.456	-0.164	RNA	1437098.0	1437098.0	1437738.0	1437738.0
antisense_686	1439746	-	CP007769.1 (337292-338186)	True	QRNA	11.136	0.023	RNA	1438839.0	1438839.0	1439741.0	1439741.0
antisense_687	1446912	-	HG326877.1 (586402-587309)	False	QRNA	1.398	-0.898	COD	1446004.0	1446150.0	1446911.0	1446803.0
antisense_688	1447273	-		OTH Found	CNIT	0.655	1.461	COD	1446912.0	1446947.0	1447273.0	1447147.0
antisense_689	1448211	+	CP091644.1 (1487295-1488204)	True	QRNA	3.501	-0.826	RNA	1448211.0	1448211.0	1449119.0	1449119.0
antisense_691	1450255	-	CP076657.1 (273199-274087)	True	QRNA	32.444	2.393	RNA	1449368.0	1449368.0	1450254.0	1450254.0
antisense_692	1452230	+		OTH Found	CNIT	-0.644	1.482	RNA	1452230.0	1452249.0	1452419.0	1452260.0
antisense_693	1452419	+	CP063536.1 (1345193-1346042)	True	QRNA	18.455	0.837	RNA	1452420.0	1452420.0	1453327.0	1453327.0
antisense_694	1458371	+	CP020478.1 (347119-347848)	True	QRNA	27.482	0.89	COD	1458372.0	1458383.0	1459100.0	1458991.0
antisense_695	1462580	+		OTH Found	CNIT	-0.431	-0.651	RNA	1462580.0	1462688.0	1463489.0	1462750.0
antisense_696	1464428	-		OTH Found	CNIT	-0.524	0.281	RNA	1464085.0	1464286.0	1464428.0	1464342.0
antisense_697	1465320	+	CP063091.1 (565978-566673)	False	QRNA	12.431	-0.142	COD	1465320.0	1465320.0	1466024.0	1465847.0
antisense_698	1469647	-	CP022080.1 (41494-42378)	True	QRNA	19.412	0.943	RNA	1468739.0	1468739.0	1469647.0	1469647.0
antisense_699	1470816	-	CP059967.1 (952007-951065)	True	QRNA	21.995	1.231	RNA	1469909.0	1469909.0	1470816.0	1470816.0
antisense_700	1473279	-	CP059599.1 (1562604-1563479)	True	QRNA	24.307	1.488	RNA	1472381.0	1472381.0	1473274.0	1473274.0
antisense_701	1473466	+	CP053848.1 (326014-326959)	True	QRNA	12.468	0.171	RNA	1473466.0	1473466.0	1474364.0	1474364.0
antisense_702	1474711	+	CP028187.1 (872889-872004)	False	QRNA	2.86	-0.798	COD	1474737.0	1474744.0	1475619.0	1475496.0
antisense_703	1476338	-		OTH Found	CNIT	-0.452	-0.442	RNA	1475930.0	1476251.0	1476338.0	1476304.0
antisense_704	1476891	-	CP053848.1 (708931-708344)	True	QRNA	2.996	-0.882	RNA	1476340.0	1476340.0	1476891.0	1476891.0
antisense_705	1479579	-	CP044163.1 (576813-576433)	True	QRNA	15.352	0.492	RNA	1479191.0	1479191.0	1479573.0	1479573.0
antisense_706	1485397	+		OTH Found	CNIT	-0.438	-0.585	RNA	1485397.0	1485768.0	1486306.0	1485821.0
antisense_707	1497206	+		OTH Found	CNIT	-0.561	0.653	RNA	1497206.0	1497551.0	1497634.0	1497583.0
antisense_708	1497634	+		OTH Found	CNIT	-0.7	2.049	RNA	1497634.0	1497714.0	1497764.0	1497728.0
antisense_709	1497764	+	CP059597.1 (1405172-1404269)	True	QRNA	20.568	1.072	RNA	1497764.0	1497764.0	1498667.0	1498667.0
antisense_710	1500950	+	CP076657.1 (171988-171443)	True	QRNA	20.438	1.058	RNA	1500950.0	1500950.0	1501495.0	1501495.0
antisense_711	1501502	+		OTH Found	CNIT	-0.62	1.246	RNA	1501502.0	1501553.0	1501736.0	1501570.0
antisense_712	1501736	+		OTH Found	CNIT	-0.724	2.289	RNA	1501736.0	1501768.0	1502067.0	1501785.0
antisense_713	1503966	-	CP059373.1 (1563904-1564813)	False	QRNA	23.586	0.623	COD	1503058.0	1503080.0	1503966.0	1503906.0
antisense_714	1505159	-	HG326877.1 (518849-519736)	False	QRNA	11.831	-0.183	COD	1504266.0	1504336.0	1505154.0	1505080.0
antisense_715	1507772	+		OTH Found	CNIT	-0.385	-1.118	RNA	1507772.0	1508549.0	1508681.0	1508638.0
antisense_716	1510414	-		OTH Found	CNIT	-0.709	2.133	RNA	1510057.0	1510129.0	1510414.0	1510140.0
antisense_717	1514690	-		OTH Found	CNIT	-0.534	0.378	RNA	1513781.0	1514244.0	1514690.0	1514309.0
antisense_718	1515874	-	CP041617.1 (1463861-1464762)	True	QRNA	7.892	-0.338	RNA	1514967.0	1514967.0	1515872.0	1515872.0
antisense_719	1517007	-	CP037746.1 (1474697-1475604)	True	QRNA	10.786	-0.016	RNA	1516099.0	1516099.0	1517006.0	1516902.0
antisense_720	1522454	+		OTH Found	CNIT	-0.48	-0.163	RNA	1522454.0	1522542.0	1522798.0	1522613.0
antisense_721	1524155	-	CP041617.1 (1308989-1308090)	True	QRNA	9.082	-0.205	RNA	1523251.0	1523251.0	1524147.0	1524147.0
antisense_722	1524231	-	CP041617.1 (1309073-1308998)	False	QRNA	5.266	-0.633	COD	1524156.0	1524193.0	1524231.0	1524231.0
antisense_723	1524374	-		OTH Found	CNIT	-0.529	0.334	RNA	1524231.0	1524281.0	1524374.0	1524298.0
antisense_724	1525946	-	CP041617.1 (1310797-1309949)	True	QRNA	19.08	0.906	RNA	1525098.0	1525098.0	1525946.0	1525946.0
antisense_725	1530534	-	CP065357.1 (1343073-1343977)	True	QRNA	9.54	-0.154	RNA	1529626.0	1529626.0	1530527.0	1530466.0
antisense_726	1533307	-	CP063091.1 (384242-385148)	True	QRNA	17.551	0.736	RNA	1532400.0	1532400.0	1533306.0	1533306.0
antisense_727	1533449	-		OTH Found	CNIT	-0.506	0.094	RNA	1533307.0	1533312.0	1533449.0	1533338.0
orphan_20	1542619	+		OTH Found	CNIT	-0.55	0.539	RNA	1542619.0	1542653.0	1542790.0	1542676.0
antisense_728	1542790	+		OTH Found	CNIT	-0.504	0.074	RNA	1542790.0	1542867.0	1542973.0	1542941.0
antisense_729	1542973	+	CP059597.1 (1229845-1230725)	True	QRNA	8.502	-0.27	RNA	1542975.0	1542975.0	1543854.0	1543854.0
antisense_730	1545049	-	CP076657.1 (39298-38384)	True	QRNA	12.432	0.167	RNA	1544143.0	1544143.0	1545049.0	1545049.0
antisense_732	1545349	-		OTH Found	CNIT	-0.51	0.143	RNA	1545049.0	1545181.0	1545349.0	1545225.0
antisense_733	1545599	+		OTH Found	CNIT	-0.438	-0.581	RNA	1545599.0	1545875.0	1546508.0	1545904.0
antisense_734	1547659	-		OTH Found	CNIT	-0.471	-0.254	RNA	1546750.0	1547261.0	1547659.0	1547329.0
antisense_735	1547709	-		OTH Found	CNIT	-0.864	3.693	RNA	1547659.0	1547666.0	1547709.0	1547674.0
antisense_736	1547786	-		OTH Found	CNIT	-0.861	3.66	RNA	1547709.0	1547752.0	1547786.0	1547760.0
antisense_737	1547987	+		OTH Found	CNIT	-0.414	-0.828	RNA	1547987.0	1548470.0	1548896.0	1548529.0
antisense_738	1549112	+	CP020867.1 (1422031-1422936)	False	QRNA	6.768	-0.53	COD	1549115.0	1549125.0	1550019.0	1549899.0
antisense_739	1552166	-	CP076657.1 (425388-426293)	True	QRNA	7.973	-0.329	RNA	1551258.0	1551258.0	1552166.0	1552166.0
antisense_740	1552219	-	CP059373.1 (1509307-1509358)	False	QRNA	1.677	-0.879	COD	1552168.0	1552185.0	1552219.0	1552217.0
antisense_741	1554796	-		OTH Found	CNIT	-0.412	-0.85	RNA	1553887.0	1553908.0	1554796.0	1553955.0
antisense_742	1565283	+	CP017875.1 (226832-225924)	False	QRNA	26.004	0.788	COD	1565286.0	1565497.0	1566191.0	1566180.0
antisense_743	1567877	+		OTH Found	CNIT	-0.486	-0.098	RNA	1567877.0	1568284.0	1568321.0	1568319.0
orphan_21	1568600	+		No QRNA hit	CNIT	-0.575	0.786	RNA	1568600.0	1568693.0	1568871.0	1568725.0
antisense_744	1569009	-	CP048760.1 (1607381-1606606)	True	QRNA	34.53	2.625	RNA	1568267.0	1568267.0	1569009.0	1569009.0
antisense_745	1570756	-		OTH Found	CNIT	-0.541	0.446	RNA	1569847.0	1570249.0	1570756.0	1570290.0
antisense_746	1572469	-		OTH Found	CNIT	-0.536	0.395	RNA	1571560.0	1572367.0	1572469.0	1572399.0
antisense_747	1573433	-		OTH Found	CNIT	-0.447	-0.495	RNA	1572524.0	1572679.0	1573433.0	1572762.0
antisense_748	1577673	+		OTH Found	CNIT	0.607	0.178	COD	1577673.0	1578367.0	1578582.0	1578534.0
antisense_750	1580235	+		OTH Found	CNIT	-0.538	0.42	RNA	1580235.0	1580255.0	1580378.0	1580278.0
antisense_751	1580378	+	CP041617.1 (1564053-1564961)	False	QRNA	42.773	1.937	COD	1580378.0	1580674.0	1581286.0	1581285.0
antisense_752	1584089	-	CP000932.1 (134506-133596)	True	QRNA	11.594	0.074	RNA	1583181.0	1583181.0	1584079.0	1584079.0
antisense_753	1585035	+		OTH Found	CNIT	-0.653	1.571	RNA	1585035.0	1585075.0	1585166.0	1585086.0
antisense_754	1585166	+	CP006702.2 (1616575-1617461)	True	QRNA	30.871	2.218	RNA	1585167.0	1585295.0	1586065.0	1586065.0
antisense_755	1586336	+		OTH Found	CNIT	-0.383	-1.135	RNA	1586336.0	1587103.0	1587245.0	1587186.0
antisense_756	1590801	+		OTH Found	CNIT	-0.451	-0.456	RNA	1590801.0	1591277.0	1591710.0	1591330.0
antisense_757	1593159	-	CP020867.1 (1888085-1888955)	True	QRNA	21.356	0.47	COD	1592285.0	1592315.0	1593158.0	1593126.0
antisense_758	1593368	-	CP059597.1 (1483831-1483623)	False	QRNA	4.851	-0.661	COD	1593160.0	1593214.0	1593368.0	1593300.0
antisense_759	1594255	-		OTH Found	CNIT	-0.462	-0.346	RNA	1593368.0	1593537.0	1594255.0	1593563.0
antisense_760	1595087	-	CP031611.1 (1258277-1259100)	True	QRNA	20.217	1.033	RNA	1594256.0	1594341.0	1595087.0	1595087.0
antisense_761	1595823	-		OTH Found	CNIT	-0.52	0.242	RNA	1595087.0	1595232.0	1595823.0	1595288.0
antisense_762	1596875	-	CP031611.1 (1256768-1257595)	True	QRNA	35.206	2.7	RNA	1596047.0	1596047.0	1596875.0	1596875.0
antisense_763	1597557	-		OTH Found	CNIT	-0.463	-0.337	RNA	1596875.0	1597100.0	1597557.0	1597177.0
antisense_764	1602432	+	CP049232.1 (1855113-1856014)	False	QRNA	21.739	0.496	COD	1602434.0	1602478.0	1603335.0	1603300.0
antisense_765	1610128	+		OTH Found	CNIT	-0.403	-0.936	RNA	1610128.0	1610489.0	1611037.0	1610542.0
orphan_22	1616125	-	CP076657.1 (1135121-1134738)	True	QRNA	2.287	-0.961	RNA	1615730.0	1615730.0	1616125.0	1616125.0
orphan_24	1616338	-		OTH Found	CNIT	-0.564	0.679	RNA	1616125.0	1616237.0	1616338.0	1616263.0
antisense_766	1617294	-	CP029053.1 (1657539-1656675)	True	QRNA	13.658	0.303	RNA	1616407.0	1616407.0	1617294.0	1617294.0
antisense_767	1624141	+		OTH Found	CNIT	-0.396	-1.002	RNA	1624141.0	1624867.0	1625050.0	1625049.0
antisense_768	1625301	+	CP005081.1 (1793045-1793786)	True	QRNA	3.513	-0.825	RNA	1625301.0	1625301.0	1626072.0	1626072.0
antisense_769	1628092	+		No QRNA hit	CNIT	-0.79	2.949	RNA	1628092.0	1628098.0	1628116.0	1628115.0
