transcript_id	position	strand	alignedTo	same_classification?	source	score	z_score	winner	GenomeStart	PredictionStart	GenomeEnd	PredictionEnd
antisense_0	1036	-		OTH Found	CNIT	-0.488	-0.072	RNA	174.0	698.0	1036.0	796.0
antisense_1	2199	-		OTH Found	CNIT	-0.508	0.123	RNA	1337.0	1664.0	2199.0	1699.0
antisense_2	2398	-		OTH Found	CNIT	-0.611	1.154	RNA	2199.0	2228.0	2398.0	2254.0
antisense_3	2522	-		OTH Found	CNIT	-0.53	0.347	RNA	2398.0	2480.0	2522.0	2521.0
antisense_4	4463	-	CP053849.1 (4422-3632)	False	QRNA	12.055	-0.258	COD	3674.0	3676.0	4461.0	4311.0
antisense_5	11810	-	OU701459.1 (1574227-1573366)	False	QRNA	73.504	3.872	COD	10949.0	10982.0	11810.0	11638.0
antisense_6	12083	-	CP022347.1 (1704204-1703932)	False	QRNA	8.725	-0.481	COD	11811.0	11825.0	12083.0	12040.0
antisense_7	14811	+	CP037747.1 (48237-48099)	False	QRNA	0.743	-1.018	COD	14811.0	14826.0	14950.0	14933.0
antisense_8	14975	+		OTH Found	CNIT	-0.43	-0.645	RNA	14975.0	15032.0	15373.0	15067.0
antisense_9	15373	+		OTH Found	CNIT	-0.438	-0.571	RNA	15373.0	15401.0	15807.0	15589.0
antisense_10	18417	+		OTH Found	CNIT	-0.496	0.008	RNA	18417.0	18576.0	19263.0	18608.0
antisense_11	22939	+	CP059597.1 (23475-24341)	True	QRNA	10.27	-0.055	RNA	22939.0	22939.0	23799.0	23567.0
antisense_12	24348	+		OTH Found	CNIT	-0.522	0.267	RNA	24348.0	24391.0	24535.0	24435.0
antisense_13	24535	+	CP020867.1 (575926-576748)	True	QRNA	7.834	-0.344	RNA	24553.0	24951.0	25371.0	25371.0
antisense_14	25374	+	CP066487.1 (24595-25217)	True	QRNA	19.567	1.05	RNA	25374.0	25374.0	25995.0	25995.0
antisense_15	25996	+		OTH Found	CNIT	-0.608	1.124	RNA	25996.0	26076.0	26473.0	26093.0
antisense_16	34551	-	CP063091.1 (556874-557734)	False	QRNA	21.467	0.375	COD	33690.0	33760.0	34550.0	34537.0
orphan_0	37025	+	CP058336.1 (36715-37107)	True	QRNA	13.729	0.356	RNA	37025.0	37025.0	37395.0	37395.0
antisense_17	38477	-		OTH Found	CNIT	-0.33	-1.637	RNA	37615.0	37866.0	38477.0	38135.0
orphan_2	39346	+	CP059597.1 (206825-207225)	True	QRNA	20.386	1.148	RNA	39353.0	39353.0	39706.0	39706.0
antisense_18	39636	-	AF074836.1 (703-1)	True	QRNA	28.13	2.068	RNA	38962.0	38962.0	39636.0	39636.0
antisense_19	44253	-		OTH Found	CNIT	-0.532	0.366	RNA	43391.0	44113.0	44253.0	44145.0
antisense_20	45065	-		OTH Found	CNIT	-0.566	0.701	RNA	44253.0	44850.0	45065.0	44885.0
antisense_21	49964	-	LR134499.1 (58492-57579)	True	QRNA	28.236	2.081	RNA	49105.0	49105.0	49964.0	49964.0
antisense_22	50072	-		OTH Found	CNIT	-0.791	2.935	RNA	49964.0	50004.0	50072.0	50012.0
antisense_23	50942	-	CP007771.1 (1358597-1359449)	True	QRNA	38.617	3.315	RNA	50089.0	50089.0	50941.0	50941.0
antisense_24	54637	+	CP063089.1 (1564571-1565241)	False	QRNA	18.474	0.174	COD	54638.0	54746.0	55308.0	55300.0
antisense_25	56003	+	CP037747.1 (1388694-1387848)	False	QRNA	7.594	-0.557	COD	56012.0	56021.0	56864.0	56859.0
antisense_26	60798	-		OTH Found	CNIT	-0.334	-1.594	RNA	59936.0	60331.0	60798.0	60468.0
antisense_27	61348	-		OTH Found	CNIT	-0.337	-1.574	RNA	60798.0	61087.0	61348.0	61230.0
antisense_28	62933	+	CP065357.1 (1166794-1166197)	True	QRNA	22.893	1.446	RNA	62935.0	62935.0	63568.0	63568.0
antisense_29	63576	+		OTH Found	CNIT	-0.582	0.865	RNA	63576.0	64411.0	64438.0	64425.0
antisense_30	65034	+		No QRNA hit	CNIT	-0.626	1.296	RNA	65034.0	65054.0	65069.0	65068.0
antisense_31	65069	+		OTH Found	CNIT	-0.669	1.724	RNA	65069.0	65194.0	65436.0	65205.0
antisense_32	66207	-	CP092018.1 (66221-65500)	True	QRNA	15.541	0.572	RNA	65475.0	65475.0	66207.0	66207.0
antisense_33	66373	-	OU701459.1 (601611-601454)	False	QRNA	8.984	-0.464	COD	66208.0	66238.0	66365.0	66365.0
antisense_34	68462	+		OTH Found	CNIT	-0.468	-0.268	RNA	68462.0	68635.0	69324.0	68712.0
antisense_35	69694	+	CP092026.1 (1111418-1110764)	True	QRNA	24.922	1.687	RNA	69694.0	69694.0	70362.0	70362.0
antisense_36	71919	-	CP012221.1 (30876-30015)	True	QRNA	17.166	0.765	RNA	71058.0	71058.0	71919.0	71919.0
antisense_37	72988	+	CP022347.1 (233861-234731)	False	QRNA	8.398	-0.503	COD	72988.0	73008.0	73849.0	73831.0
antisense_38	77266	+		OTH Found	CNIT	-0.473	-0.218	RNA	77266.0	77521.0	77696.0	77559.0
antisense_39	77696	+		OTH Found	CNIT	-0.969	4.703	RNA	77696.0	77705.0	77739.0	77716.0
antisense_40	77739	+	CP041617.1 (1024948-1025790)	True	QRNA	11.698	0.115	RNA	77739.0	77739.0	78600.0	78600.0
antisense_41	81082	-	CP058336.1 (92769-91879)	True	QRNA	4.485	-0.743	RNA	80223.0	80223.0	81082.0	81082.0
antisense_42	82774	+	CP017871.1 (176493-177397)	True	QRNA	30.086	2.301	RNA	82775.0	82775.0	83635.0	83635.0
antisense_43	87858	+	CP048767.1 (93571-94090)	True	QRNA	11.74	0.12	RNA	87858.0	87858.0	88395.0	88395.0
antisense_44	88396	+		OTH Found	CNIT	-0.457	-0.376	RNA	88396.0	88397.0	88553.0	88432.0
antisense_45	88553	+		OTH Found	CNIT	0.613	0.165	COD	88553.0	88986.0	89415.0	89207.0
antisense_46	90720	-		OTH Found	CNIT	-0.47	-0.248	RNA	90104.0	90443.0	90720.0	90475.0
antisense_48	91475	-	CP037747.1 (1411786-1411032)	False	QRNA	28.652	0.858	COD	90721.0	90732.0	91475.0	91358.0
antisense_49	92296	-		OTH Found	CNIT	-0.423	-0.715	RNA	91475.0	91717.0	92296.0	91809.0
antisense_50	94350	+	CP063091.1 (1258630-1259134)	True	QRNA	11.408	0.08	RNA	94351.0	94351.0	94857.0	94857.0
antisense_51	103090	-		OTH Found	CNIT	-0.534	0.385	RNA	102228.0	102962.0	103090.0	103039.0
antisense_52	103946	-		OTH Found	CNIT	-0.448	-0.465	RNA	103090.0	103830.0	103946.0	103919.0
antisense_53	108099	-	CP049272.1 (466359-465537)	False	QRNA	13.302	-0.174	COD	107274.0	107329.0	108099.0	108039.0
antisense_54	108283	-		OTH Found	CNIT	-0.528	0.322	RNA	108099.0	108235.0	108283.0	108282.0
antisense_55	108318	-		No QRNA hit	CNIT	-0.851	3.53	RNA	108283.0	108289.0	108318.0	108300.0
antisense_56	111034	-	CP022347.1 (1335633-1336484)	False	QRNA	24.162	0.556	COD	110178.0	110190.0	111030.0	110973.0
antisense_58	117040	-	CP076657.1 (85438-86230)	True	QRNA	10.004	-0.087	RNA	116243.0	116243.0	117034.0	117034.0
antisense_59	125435	+		OTH Found	CNIT	-0.58	0.84	RNA	125435.0	125477.0	125587.0	125497.0
antisense_60	125587	+		OTH Found	CNIT	-0.553	0.574	RNA	125587.0	125706.0	125919.0	125738.0
antisense_61	125919	+	CP059597.1 (31238-32091)	True	QRNA	5.905	-0.574	RNA	125919.0	125919.0	126771.0	126771.0
antisense_62	127495	+	CP063079.1 (828852-829479)	True	QRNA	9.063	-0.198	RNA	127495.0	127495.0	128129.0	128129.0
antisense_63	129488	+		OTH Found	CNIT	-0.426	-0.683	RNA	129488.0	129754.0	130350.0	129789.0
antisense_64	131354	-		OTH Found	CNIT	-0.807	3.096	RNA	131306.0	131341.0	131354.0	131352.0
antisense_65	131946	-		OTH Found	CNIT	-0.46	-0.347	RNA	131354.0	131440.0	131946.0	131481.0
antisense_66	132264	-		OTH Found	CNIT	-0.62	1.241	RNA	131946.0	132106.0	132264.0	132120.0
antisense_67	141505	-		OTH Found	CNIT	-0.483	-0.121	RNA	140643.0	140667.0	141505.0	140732.0
antisense_68	142838	+		OTH Found	CNIT	-0.479	-0.159	RNA	142838.0	143371.0	143700.0	143427.0
antisense_69	146445	-	CP003871.4 (1487370-1486525)	True	QRNA	16.217	0.652	RNA	145586.0	145586.0	146445.0	146445.0
antisense_70	147898	-		OTH Found	CNIT	-0.394	-1.005	RNA	147036.0	147106.0	147898.0	147183.0
antisense_71	157219	+	CP059597.1 (1364845-1363984)	True	QRNA	17.062	0.753	RNA	157219.0	157240.0	158080.0	158080.0
antisense_72	159680	+		OTH Found	CNIT	-0.44	-0.546	RNA	159680.0	160161.0	160542.0	160214.0
antisense_73	164619	+		OTH Found	CNIT	-0.897	3.991	RNA	164619.0	164643.0	164655.0	164654.0
antisense_74	164655	+	LS483295.1 (182143-182538)	True	QRNA	18.048	0.87	RNA	164655.0	164655.0	165117.0	165117.0
antisense_75	166364	+	CP012548.1 (1436662-1437380)	False	QRNA	10.41	-0.368	COD	166365.0	166365.0	167080.0	167000.0
antisense_76	167350	+	CP020867.1 (1759651-1758798)	True	QRNA	8.755	-0.235	RNA	167362.0	167362.0	168209.0	168209.0
antisense_77	168613	+		OTH Found	CNIT	-0.44	-0.546	RNA	168613.0	168979.0	169475.0	169023.0
antisense_78	169489	+		OTH Found	CNIT	-0.509	0.136	RNA	169489.0	169589.0	169657.0	169624.0
antisense_79	169657	+		OTH Found	CNIT	-0.609	1.132	RNA	169657.0	169965.0	170105.0	169994.0
antisense_80	170105	+	CP059373.1 (1268778-1267927)	True	QRNA	20.256	1.132	RNA	170105.0	170105.0	170944.0	170944.0
antisense_81	173393	-		OTH Found	CNIT	-0.416	-0.786	RNA	172531.0	173159.0	173393.0	173230.0
antisense_82	173837	-	CP044167.1 (872079-871637)	True	QRNA	4.068	-0.792	RNA	173395.0	173395.0	173837.0	173837.0
antisense_83	174806	-		OTH Found	CNIT	0.673	1.682	COD	173944.0	174493.0	174806.0	174720.0
antisense_84	180645	+		OTH Found	CNIT	-0.499	0.04	RNA	180645.0	180862.0	181010.0	180900.0
antisense_85	181010	+		OTH Found	CNIT	-0.439	-0.561	RNA	181010.0	181545.0	181872.0	181634.0
antisense_86	184608	+		OTH Found	CNIT	-0.4	-0.943	RNA	184608.0	184790.0	185470.0	184975.0
antisense_87	185701	+		OTH Found	CNIT	-0.476	-0.185	RNA	185701.0	185793.0	186028.0	185879.0
antisense_88	186028	+		OTH Found	CNIT	-0.498	0.029	RNA	186028.0	186285.0	186890.0	186353.0
antisense_89	189266	-	CP017258.1 (73890-74751)	False	QRNA	35.338	1.307	COD	188405.0	188421.0	189266.0	189266.0
antisense_90	193197	+		OTH Found	CNIT	-0.878	3.797	RNA	193197.0	193247.0	193264.0	193255.0
antisense_91	193264	+	CP063536.1 (172880-173549)	True	QRNA	31.178	2.431	RNA	193290.0	193290.0	193971.0	193971.0
antisense_92	193973	+	CP063536.1 (173551-173974)	True	QRNA	16.065	0.634	RNA	193973.0	193973.0	194416.0	194416.0
antisense_93	194417	+	CP054848.1 (1609701-1610559)	True	QRNA	32.5	2.588	RNA	194417.0	194417.0	195278.0	195278.0
antisense_94	196333	-		OTH Found	CNIT	-0.405	-0.89	RNA	195578.0	195605.0	196333.0	195760.0
antisense_95	196998	-		OTH Found	CNIT	-0.391	-1.029	RNA	196333.0	196874.0	196998.0	196990.0
antisense_96	200066	-	CP063083.1 (1531904-1532627)	False	QRNA	73.878	3.897	COD	199342.0	199346.0	200065.0	200056.0
antisense_97	203387	-	CP053830.1 (33147-32302)	True	QRNA	11.782	0.125	RNA	202536.0	202536.0	203383.0	203383.0
antisense_98	203912	-	CP101194.1 (205880-205354)	True	QRNA	29.506	2.232	RNA	203388.0	203388.0	203912.0	203912.0
antisense_99	204541	-		OTH Found	CNIT	-0.539	0.435	RNA	203912.0	204421.0	204541.0	204468.0
antisense_100	210118	+	CP018900.1 (1241142-1240286)	True	QRNA	12.581	0.22	RNA	210118.0	210118.0	210977.0	210977.0
antisense_101	211561	+	CP011777.1 (1462943-1462082)	True	QRNA	12.261	0.182	RNA	211561.0	211561.0	212422.0	212422.0
antisense_102	220241	+	CP091310.1 (1106262-1105401)	True	QRNA	26.089	1.826	RNA	220242.0	220242.0	221102.0	221102.0
antisense_103	221782	+	CP007773.1 (948244-949066)	True	QRNA	33.477	2.704	RNA	221782.0	221782.0	222643.0	222643.0
antisense_105	231399	-		OTH Found	CNIT	-0.54	0.442	RNA	230537.0	230659.0	231399.0	230679.0
antisense_106	232404	-		OTH Found	CNIT	-0.528	0.331	RNA	231542.0	231657.0	232404.0	231683.0
antisense_107	235007	+	CP068586.1 (1272214-1271569)	True	QRNA	20.339	1.142	RNA	235008.0	235008.0	235653.0	235653.0
antisense_108	235654	+	CP083379.1 (1237227-1238087)	True	QRNA	19.034	0.987	RNA	235654.0	235654.0	236514.0	236514.0
antisense_109	236791	+		OTH Found	CNIT	-0.543	0.472	RNA	236791.0	236832.0	237560.0	236855.0
antisense_110	237560	+	CP007773.1 (962738-963598)	True	QRNA	17.303	0.781	RNA	237560.0	237560.0	238421.0	238421.0
antisense_111	241245	+	CP007773.1 (966395-967243)	True	QRNA	12.497	0.21	RNA	241245.0	241245.0	242105.0	242105.0
antisense_112	243767	-	CP010458.1 (195612-194765)	True	QRNA	15.363	0.551	RNA	242906.0	242906.0	243767.0	243767.0
antisense_113	250033	+	HG326877.1 (175808-174911)	True	QRNA	11.203	0.056	RNA	250042.0	250042.0	250894.0	250894.0
antisense_114	251994	+	CP076657.1 (1465493-1464634)	True	QRNA	14.864	0.491	RNA	251995.0	251995.0	252845.0	252845.0
antisense_115	253859	+		OTH Found	CNIT	-0.651	1.55	RNA	253859.0	253860.0	253931.0	253880.0
antisense_116	253931	+		OTH Found	CNIT	0.607	-0.007	COD	253931.0	254133.0	254573.0	254384.0
antisense_117	254911	-	CP035946.1 (1607218-1607482)	False	QRNA	4.778	-0.747	COD	254638.0	254761.0	254902.0	254901.0
antisense_118	256869	-		OTH Found	CNIT	-0.407	-0.87	RNA	256007.0	256460.0	256869.0	256546.0
antisense_119	257513	+		OTH Found	CNIT	-0.381	-1.131	RNA	257513.0	258268.0	258375.0	258375.0
antisense_120	259704	+		OTH Found	CNIT	-0.567	0.713	RNA	259704.0	259852.0	260426.0	259884.0
antisense_121	260426	+	CP019977.1 (1812658-1811874)	True	QRNA	26.986	1.932	RNA	260431.0	260431.0	261215.0	261215.0
antisense_122	261933	-		OTH Found	CNIT	-0.464	-0.304	RNA	261241.0	261825.0	261933.0	261875.0
antisense_123	262867	+		OTH Found	CNIT	-0.602	1.057	RNA	262867.0	263021.0	263083.0	263080.0
antisense_124	263083	+	CP000814.1 (231279-231782)	True	QRNA	17.821	0.843	RNA	263083.0	263083.0	263592.0	263592.0
antisense_125	263591	-	CP085965.1 (878211-877756)	True	QRNA	14.072	0.397	RNA	263130.0	263130.0	263591.0	263591.0
antisense_126	264560	-		OTH Found	CNIT	-0.429	-0.66	RNA	263698.0	263968.0	264560.0	263994.0
antisense_127	265122	+		OTH Found	CNIT	-0.468	-0.273	RNA	265122.0	265871.0	265984.0	265903.0
antisense_128	269492	-		OTH Found	CNIT	-0.511	0.153	RNA	269203.0	269241.0	269492.0	269279.0
antisense_129	269554	-		OTH Found	CNIT	-0.661	1.648	RNA	269492.0	269499.0	269554.0	269510.0
antisense_130	270004	-		OTH Found	CNIT	-0.526	0.303	RNA	269554.0	269730.0	270004.0	269792.0
antisense_131	270475	-	CP059597.1 (1460468-1460001)	False	QRNA	1.009	-1.0	COD	270008.0	270028.0	270475.0	270465.0
antisense_132	274785	-	CP092034.1 (228834-227978)	True	QRNA	16.112	0.64	RNA	273924.0	273924.0	274780.0	274780.0
antisense_133	276422	+	CP014742.1 (386798-387679)	True	QRNA	17.629	0.82	RNA	276422.0	276422.0	277283.0	277283.0
antisense_134	277817	+		OTH Found	CNIT	-0.51	0.143	RNA	277817.0	278445.0	278506.0	278468.0
antisense_135	279577	-	CP012220.1 (193344-192483)	True	QRNA	10.29	-0.053	RNA	278716.0	278716.0	279577.0	279577.0
antisense_136	279580	+	CP014742.1 (386798-387679)	True	QRNA	17.629	0.82	RNA	279580.0	279580.0	280441.0	280441.0
antisense_137	281785	+		OTH Found	CNIT	-0.914	4.157	RNA	281785.0	281790.0	281850.0	281798.0
antisense_138	281850	+	CP059597.1 (54931-55787)	True	QRNA	30.799	2.386	RNA	281855.0	281855.0	282711.0	282711.0
antisense_139	286456	-		OTH Found	CNIT	-0.507	0.116	RNA	285594.0	286138.0	286456.0	286215.0
antisense_140	287726	-		OTH Found	CNIT	-0.496	0.011	RNA	286864.0	287194.0	287726.0	287214.0
antisense_142	292448	-	CP049075.1 (81448-80587)	False	QRNA	1.904	-0.94	COD	291587.0	291631.0	292448.0	292425.0
antisense_143	294793	-		OTH Found	CNIT	-0.436	-0.589	RNA	293931.0	294707.0	294793.0	294790.0
antisense_144	295327	+	LR134534.1 (1460384-1461219)	True	QRNA	15.752	0.597	RNA	295336.0	295336.0	296180.0	296180.0
antisense_145	299472	+	CP007772.1 (1543292-1544144)	False	QRNA	14.368	-0.102	COD	299476.0	299563.0	300332.0	300282.0
antisense_146	301242	+	CP059682.1 (772386-771532)	False	QRNA	49.617	2.267	COD	301246.0	301280.0	302102.0	302082.0
antisense_147	302421	+	OU701461.1 (490432-490374)	False	QRNA	1.098	-0.994	COD	302428.0	302437.0	302486.0	302475.0
antisense_148	302489	+	LR134508.1 (1344290-1345131)	True	QRNA	30.427	2.341	RNA	302505.0	302505.0	303350.0	303350.0
antisense_149	303574	+		OTH Found	CNIT	-0.478	-0.166	RNA	303574.0	303670.0	303716.0	303696.0
antisense_150	303716	+		OTH Found	CNIT	-0.648	1.52	RNA	303716.0	303718.0	303833.0	303732.0
antisense_151	303833	+		OTH Found	CNIT	-0.44	-0.55	RNA	303833.0	304418.0	304635.0	304549.0
antisense_152	304635	+	CP059374.1 (1173260-1172585)	True	QRNA	11.158	0.051	RNA	304638.0	304638.0	305320.0	305320.0
antisense_153	308123	+		OTH Found	CNIT	-0.598	1.02	RNA	308123.0	308144.0	308298.0	308170.0
antisense_154	308298	+	CP022347.1 (979109-979742)	False	QRNA	22.707	0.458	COD	308298.0	308354.0	308931.0	308926.0
antisense_155	310373	+		OTH Found	CNIT	-0.473	-0.221	RNA	310373.0	310402.0	311235.0	310503.0
antisense_156	313016	+	CP059597.1 (91271-91799)	True	QRNA	19.088	0.993	RNA	313022.0	313022.0	313553.0	313553.0
antisense_157	313554	+	CP059597.1 (91803-92661)	True	QRNA	19.956	1.097	RNA	313557.0	313557.0	314415.0	314415.0
antisense_158	315569	-		OTH Found	CNIT	-0.527	0.315	RNA	315224.0	315529.0	315569.0	315561.0
antisense_159	316249	-	CP063091.1 (630106-629438)	False	QRNA	5.426	-0.703	COD	315577.0	315706.0	316245.0	316245.0
antisense_160	316774	+		OTH Found	CNIT	-0.614	1.182	RNA	316774.0	316885.0	316900.0	316896.0
antisense_161	316900	+		OTH Found	CNIT	-0.429	-0.652	RNA	316900.0	316935.0	317762.0	316964.0
antisense_162	320843	-	CP007769.1 (1344530-1345260)	True	QRNA	14.67	0.468	RNA	320108.0	320108.0	320841.0	320841.0
antisense_163	323326	-	CP043426.1 (1280028-1280883)	False	QRNA	15.125	-0.051	COD	322466.0	322471.0	323321.0	323010.0
antisense_164	327452	-		OTH Found	CNIT	-0.45	-0.451	RNA	326590.0	326784.0	327452.0	326852.0
antisense_165	329660	-		OTH Found	CNIT	-0.486	-0.087	RNA	328798.0	329513.0	329660.0	329563.0
antisense_166	332693	-	CP007777.1 (1297179-1298037)	True	QRNA	13.935	0.381	RNA	331832.0	331832.0	332693.0	332693.0
antisense_167	333063	-	CP059682.1 (1330060-1330415)	False	QRNA	14.842	-0.07	COD	332694.0	332699.0	333049.0	333049.0
antisense_168	334994	+		OTH Found	CNIT	-0.437	-0.575	RNA	334994.0	335138.0	335856.0	335242.0
antisense_169	336689	+		OTH Found	CNIT	-0.456	-0.386	RNA	336689.0	337274.0	337551.0	337351.0
antisense_170	347018	+		OTH Found	CNIT	-0.442	-0.527	RNA	347018.0	347026.0	347774.0	347076.0
antisense_171	347774	+	CP028187.1 (373087-372248)	True	QRNA	20.459	1.156	RNA	347774.0	347774.0	348635.0	348635.0
antisense_172	351904	+		OTH Found	CNIT	-0.419	-0.759	RNA	351904.0	352062.0	352488.0	352151.0
antisense_173	354990	-		OTH Found	CNIT	-0.482	-0.135	RNA	354128.0	354478.0	354990.0	354507.0
antisense_174	355200	-	CP053849.1 (889605-889406)	False	QRNA	13.477	-0.162	COD	354995.0	355017.0	355194.0	355190.0
antisense_176	359498	-	CP059682.1 (1144065-1143208)	True	QRNA	16.757	0.716	RNA	358638.0	358638.0	359491.0	359491.0
antisense_177	359684	-		OTH Found	CNIT	-0.432	-0.631	RNA	359498.0	359555.0	359684.0	359623.0
antisense_178	361806	+		OTH Found	CNIT	0.552	-1.385	COD	361806.0	362160.0	362668.0	362378.0
antisense_179	362976	+		OTH Found	CNIT	0.59	-0.437	COD	362976.0	363029.0	363680.0	363199.0
antisense_180	364062	-		OTH Found	CNIT	-0.378	-1.166	RNA	363669.0	363720.0	364062.0	363812.0
antisense_181	369224	+	CP059597.1 (140753-141608)	True	QRNA	8.286	-0.291	RNA	369226.0	369226.0	370081.0	369660.0
antisense_182	371211	+		OTH Found	CNIT	-0.432	-0.623	RNA	371211.0	371382.0	371488.0	371444.0
antisense_183	371488	+		OTH Found	CNIT	0.608	0.021	COD	371488.0	371617.0	372350.0	371919.0
antisense_184	372941	+		OTH Found	CNIT	0.631	0.619	COD	372941.0	373185.0	373803.0	373382.0
antisense_185	373836	+	HG326877.1 (55467-54595)	True	QRNA	5.497	-0.622	RNA	373837.0	374046.0	374692.0	374692.0
antisense_186	375495	+		OTH Found	CNIT	-0.709	2.119	RNA	375495.0	375578.0	375589.0	375589.0
antisense_187	375589	+	CP063083.1 (827703-827204)	False	QRNA	13.573	-0.156	COD	375595.0	375725.0	376094.0	376090.0
antisense_188	376097	+		OTH Found	CNIT	-0.558	0.623	RNA	376097.0	376470.0	376719.0	376496.0
antisense_189	377323	-	CP037747.1 (233913-233314)	True	QRNA	6.199	-0.539	RNA	376706.0	376706.0	377323.0	377323.0
antisense_190	379761	-		OTH Found	CNIT	-0.441	-0.534	RNA	378899.0	378900.0	379761.0	378947.0
antisense_191	381757	-		OTH Found	CNIT	-0.487	-0.082	RNA	380895.0	381487.0	381757.0	381546.0
antisense_192	382549	-	CP076657.1 (1296078-1296860)	True	QRNA	15.597	0.578	RNA	381773.0	381773.0	382549.0	382549.0
antisense_193	383146	-		OTH Found	CNIT	-0.436	-0.582	RNA	382549.0	382683.0	383146.0	382736.0
antisense_194	383800	+	LR134471.1 (993331-992492)	True	QRNA	8.121	-0.31	RNA	383818.0	383818.0	384651.0	384651.0
antisense_195	384855	+	CP059597.1 (156380-157222)	True	QRNA	19.7	1.066	RNA	384858.0	384885.0	385714.0	385714.0
antisense_196	386705	+		No QRNA hit	CNIT	-0.965	4.66	RNA	386705.0	386710.0	386743.0	386718.0
antisense_197	386743	+		OTH Found	CNIT	-0.366	-1.279	RNA	386743.0	387405.0	387605.0	387509.0
antisense_198	393562	-		OTH Found	CNIT	-0.435	-0.592	RNA	392700.0	392851.0	393562.0	392976.0
antisense_199	394899	-	CP076657.1 (434374-435227)	True	QRNA	13.31	0.307	RNA	394038.0	394038.0	394891.0	394891.0
antisense_200	395715	+		OTH Found	CNIT	-0.476	-0.191	RNA	395715.0	396011.0	396455.0	396124.0
antisense_201	396455	+	CP007773.1 (472830-473619)	False	QRNA	2.427	-0.905	COD	396455.0	396538.0	397244.0	397243.0
antisense_202	397261	+	CP020867.1 (164625-163758)	True	QRNA	10.036	-0.083	RNA	397262.0	397262.0	398122.0	398122.0
antisense_203	399973	+	CP059373.1 (1076131-1075273)	True	QRNA	21.933	1.332	RNA	399973.0	399973.0	400834.0	400797.0
antisense_204	401047	+		OTH Found	CNIT	-0.543	0.475	RNA	401047.0	401050.0	401484.0	401070.0
antisense_205	401484	+		OTH Found	CNIT	-0.572	0.765	RNA	401484.0	401717.0	401927.0	401758.0
antisense_206	407958	-	CP059597.1 (179388-178606)	True	QRNA	15.528	0.57	RNA	407170.0	407170.0	407958.0	407958.0
antisense_207	408525	+	HG326877.1 (20698-19866)	True	QRNA	25.03	1.7	RNA	408525.0	408525.0	409353.0	409353.0
antisense_208	413777	-	CP022347.1 (905714-906567)	False	QRNA	12.067	-0.257	COD	412916.0	413109.0	413769.0	413708.0
antisense_209	415455	-	CP020867.1 (496754-495895)	True	QRNA	14.083	0.398	RNA	414596.0	414596.0	415455.0	415386.0
antisense_210	416296	-	CP059597.1 (187654-186816)	True	QRNA	35.399	2.933	RNA	415458.0	415458.0	416296.0	416296.0
antisense_211	420136	-	CP063088.1 (849125-849988)	False	QRNA	22.302	0.431	COD	419275.0	419283.0	420136.0	419874.0
antisense_212	424119	+		OTH Found	CNIT	-0.548	0.528	RNA	424119.0	424483.0	424981.0	424503.0
antisense_213	430234	-		OTH Found	CNIT	-0.473	-0.22	RNA	429666.0	430118.0	430234.0	430165.0
antisense_214	431140	-	CP059373.1 (1050082-1050943)	True	QRNA	17.898	0.852	RNA	430279.0	430279.0	431140.0	431140.0
orphan_4	431840	+	CP017875.1 (1203179-1202787)	True	QRNA	13.729	0.356	RNA	431840.0	431840.0	432210.0	432210.0
antisense_215	433292	-		OTH Found	CNIT	-0.33	-1.637	RNA	432430.0	432681.0	433292.0	432950.0
orphan_6	434161	+	CP059597.1 (206825-207225)	True	QRNA	20.386	1.148	RNA	434168.0	434168.0	434521.0	434521.0
antisense_216	434451	-	AF074836.1 (703-1)	True	QRNA	28.947	2.166	RNA	433777.0	433777.0	434451.0	434451.0
antisense_217	444027	-	CP000767.2 (1011385-1011936)	False	QRNA	27.61	0.788	COD	443478.0	443557.0	444027.0	444009.0
antisense_218	447431	+		OTH Found	CNIT	-0.565	0.689	RNA	447431.0	447457.0	447835.0	447477.0
antisense_219	449331	-	CP022347.1 (1270418-1269559)	True	QRNA	44.299	1.909	COD	448470.0	448529.0	449329.0	449275.0
antisense_220	451868	-		OTH Found	CNIT	-0.466	-0.29	RNA	451006.0	451102.0	451868.0	451155.0
antisense_221	454793	+	CP020867.1 (392120-392422)	True	QRNA	4.765	-0.709	RNA	454796.0	454796.0	455102.0	455102.0
antisense_222	459674	+	CP076657.1 (469317-470170)	True	QRNA	11.368	0.076	RNA	459674.0	459674.0	460529.0	460529.0
antisense_223	460831	+	CP035946.1 (939190-940044)	True	QRNA	14.375	0.433	RNA	460837.0	460837.0	461691.0	461691.0
antisense_225	463191	-		OTH Found	CNIT	-0.478	-0.166	RNA	462329.0	462355.0	463191.0	462384.0
antisense_226	466171	-	CP053849.1 (1105470-1106330)	False	QRNA	21.871	0.402	COD	465310.0	465311.0	466170.0	466080.0
antisense_227	468072	-	CP076657.1 (492431-491580)	True	QRNA	18.646	0.941	RNA	467219.0	467219.0	468070.0	468070.0
antisense_228	473856	-	CP049263.1 (758621-757771)	True	QRNA	4.465	-0.745	RNA	473010.0	473010.0	473856.0	473856.0
antisense_229	478526	-		OTH Found	CNIT	-0.497	0.019	RNA	477664.0	478152.0	478526.0	478205.0
antisense_230	485057	-		OTH Found	CNIT	-0.46	-0.346	RNA	484195.0	484989.0	485057.0	485012.0
antisense_231	485994	+		OTH Found	CNIT	-0.446	-0.487	RNA	485994.0	486279.0	486817.0	486320.0
antisense_232	489698	-		OTH Found	CNIT	-0.408	-0.865	RNA	488836.0	489535.0	489698.0	489603.0
antisense_233	491193	-	CP059682.1 (1545326-1546032)	True	QRNA	13.663	0.348	RNA	490489.0	490489.0	491192.0	491192.0
antisense_234	498933	-	CP059375.1 (4181-5029)	True	QRNA	8.793	-0.23	RNA	498073.0	498073.0	498933.0	498933.0
antisense_235	499682	-		OTH Found	CNIT	-0.705	2.081	RNA	498933.0	499412.0	499682.0	499423.0
antisense_236	503287	+		OTH Found	CNIT	-0.569	0.729	RNA	503287.0	503733.0	504149.0	503750.0
antisense_237	507273	+	MZ667639.1 (12307-13044)	True	QRNA	47.977	4.428	RNA	507273.0	507273.0	508008.0	508008.0
antisense_238	508939	+	CP028910.1 (882813-883704)	True	QRNA	28.173	2.073	RNA	508939.0	508939.0	509800.0	509800.0
antisense_239	519636	-		OTH Found	CNIT	-0.516	0.205	RNA	518774.0	519102.0	519636.0	519149.0
antisense_240	521443	-		OTH Found	CNIT	-0.415	-0.794	RNA	520581.0	520872.0	521443.0	520961.0
antisense_241	521771	-		OTH Found	CNIT	-0.54	0.449	RNA	521443.0	521636.0	521771.0	521656.0
antisense_242	523175	-		OTH Found	CNIT	-0.561	0.657	RNA	522313.0	522615.0	523175.0	522635.0
antisense_243	525666	-		OTH Found	CNIT	-0.452	-0.432	RNA	524804.0	525605.0	525666.0	525643.0
antisense_244	526502	-	CP053825.1 (612541-611751)	True	QRNA	7.26	-0.413	RNA	525673.0	525673.0	526502.0	526502.0
orphan_8	526674	-		OTH Found	CNIT	-0.608	1.119	RNA	526502.0	526502.0	526674.0	526546.0
antisense_245	526959	+		OTH Found	CNIT	-0.501	0.061	RNA	526959.0	527504.0	527552.0	527533.0
antisense_246	527552	+		OTH Found	CNIT	-0.704	2.067	RNA	527552.0	527792.0	527979.0	527800.0
antisense_247	532315	-		OTH Found	CNIT	-0.402	-0.923	RNA	531453.0	531464.0	532315.0	531571.0
antisense_248	534676	-	CP066243.1 (1352423-1351568)	True	QRNA	13.918	0.379	RNA	533815.0	533815.0	534676.0	534676.0
antisense_249	537588	-		OTH Found	CNIT	-0.479	-0.158	RNA	536726.0	537017.0	537588.0	537082.0
antisense_250	537792	-		OTH Found	CNIT	-0.813	3.149	RNA	537588.0	537596.0	537792.0	537604.0
antisense_251	538999	-	CP048771.1 (490007-489143)	True	QRNA	15.036	0.512	RNA	538138.0	538138.0	538999.0	538999.0
antisense_252	542425	-		OTH Found	CNIT	-0.447	-0.478	RNA	541563.0	542161.0	542425.0	542211.0
antisense_253	545342	+	CP063088.1 (16369-16214)	False	QRNA	7.092	-0.591	COD	545343.0	545361.0	545498.0	545465.0
antisense_254	545511	+	CP063091.1 (729216-730095)	True	QRNA	7.383	-0.398	RNA	545514.0	545514.0	546372.0	546372.0
antisense_255	547230	+	CP044262.1 (1153771-1154552)	True	QRNA	9.884	-0.101	RNA	547233.0	547233.0	548018.0	548018.0
antisense_256	550881	-	CP027634.1 (1303562-1304423)	True	QRNA	4.977	-0.684	RNA	550020.0	550020.0	550877.0	550877.0
antisense_257	551996	-	CP020478.1 (392822-393676)	False	QRNA	10.949	-0.332	COD	551136.0	551270.0	551990.0	551965.0
antisense_258	552985	-		OTH Found	CNIT	-0.43	-0.643	RNA	552123.0	552850.0	552985.0	552882.0
antisense_259	553529	+	CP053841.1 (938796-937937)	False	QRNA	6.383	-0.639	COD	553531.0	553584.0	554390.0	554372.0
antisense_260	554713	+		OTH Found	CNIT	-0.422	-0.725	RNA	554713.0	554717.0	555575.0	554812.0
antisense_261	564201	-		OTH Found	CNIT	-0.507	0.121	RNA	563339.0	564107.0	564201.0	564184.0
antisense_262	566427	+		OTH Found	CNIT	-0.451	-0.441	RNA	566427.0	566588.0	567289.0	566641.0
antisense_263	567868	+	CP022347.1 (723011-723533)	False	QRNA	11.673	-0.283	COD	567872.0	567889.0	568394.0	568323.0
antisense_264	568403	+	CP076657.1 (953008-952181)	True	QRNA	8.274	-0.292	RNA	568403.0	568403.0	569264.0	569222.0
antisense_265	570157	-	CP091644.1 (484710-484627)	False	QRNA	-0.465	-1.037	COD	570074.0	570076.0	570157.0	570099.0
antisense_266	570519	-		OTH Found	CNIT	-0.489	-0.064	RNA	570157.0	570342.0	570519.0	570386.0
antisense_267	572362	-	CP017875.1 (1376806-1377665)	True	QRNA	23.387	1.505	RNA	571503.0	571503.0	572362.0	572362.0
antisense_268	574853	-		OTH Found	CNIT	-0.4	-0.939	RNA	573991.0	574160.0	574853.0	574252.0
antisense_269	580615	-	HG326877.1 (1488658-1489513)	True	QRNA	17.662	0.824	RNA	579754.0	579786.0	580615.0	580615.0
antisense_270	581213	-		OTH Found	CNIT	-0.502	0.072	RNA	580615.0	580979.0	581213.0	580999.0
antisense_271	582603	-		OTH Found	CNIT	-0.475	-0.199	RNA	581741.0	581928.0	582603.0	581969.0
antisense_272	585536	-		OTH Found	CNIT	-0.443	-0.515	RNA	584674.0	584982.0	585536.0	585026.0
antisense_273	587728	-	CP007777.1 (750824-751681)	True	QRNA	17.787	0.839	RNA	586868.0	586868.0	587728.0	587728.0
antisense_274	587774	-		OTH Found	CNIT	-0.701	2.04	RNA	587728.0	587756.0	587774.0	587773.0
antisense_275	587885	-	CP053844.1 (1259572-1259676)	False	QRNA	12.333	-0.239	COD	587775.0	587779.0	587879.0	587859.0
antisense_276	590777	-		OTH Found	CNIT	-0.48	-0.147	RNA	589915.0	589975.0	590777.0	590046.0
antisense_277	595346	-	LR134359.1 (536445-535584)	True	QRNA	21.312	1.258	RNA	594485.0	594485.0	595346.0	595346.0
antisense_278	595782	-		OTH Found	CNIT	-0.523	0.28	RNA	595346.0	595744.0	595782.0	595767.0
antisense_279	599041	+		OTH Found	CNIT	-0.594	0.984	RNA	599041.0	599287.0	599307.0	599298.0
antisense_280	599307	+	CP076657.1 (885641-886276)	True	QRNA	13.573	0.338	RNA	599307.0	599307.0	599941.0	599941.0
antisense_281	601577	-	CP011777.1 (801173-800266)	True	QRNA	0.999	-1.157	RNA	600716.0	600716.0	601577.0	601577.0
antisense_282	601910	-		OTH Found	CNIT	-0.489	-0.06	RNA	601577.0	601642.0	601910.0	601692.0
antisense_283	602423	+		OTH Found	CNIT	-0.507	0.121	RNA	602423.0	602632.0	602810.0	602661.0
antisense_284	602810	+	CP031611.1 (872391-871727)	True	QRNA	14.158	0.407	RNA	602811.0	602811.0	603493.0	603493.0
antisense_286	605072	-		OTH Found	CNIT	-0.49	-0.055	RNA	604210.0	604640.0	605072.0	604723.0
antisense_287	605937	-	CP048771.1 (556957-556106)	True	QRNA	18.363	0.907	RNA	605076.0	605076.0	605937.0	605937.0
antisense_288	610294	-		OTH Found	CNIT	-0.466	-0.292	RNA	609641.0	609865.0	610294.0	609975.0
antisense_289	613716	-		OTH Found	CNIT	-0.495	-0.001	RNA	612854.0	612973.0	613716.0	613014.0
antisense_290	613824	-		OTH Found	CNIT	-0.5	0.048	RNA	613716.0	613761.0	613824.0	613805.0
antisense_291	627017	+		OTH Found	CNIT	-0.458	-0.364	RNA	627017.0	627165.0	627201.0	627194.0
antisense_292	627201	+	CP065357.1 (740981-740156)	True	QRNA	12.581	0.22	RNA	627202.0	627202.0	628004.0	628004.0
antisense_293	628005	+	CP076657.1 (572140-571660)	True	QRNA	4.175	-0.779	RNA	628005.0	628005.0	628499.0	628499.0
antisense_294	628500	+		OTH Found	CNIT	-0.444	-0.502	RNA	628500.0	629001.0	629362.0	629063.0
antisense_295	635529	+		OTH Found	CNIT	-0.592	0.962	RNA	635529.0	635589.0	635641.0	635618.0
antisense_297	635641	+	CP085963.1 (1285479-1285516)	False	QRNA	6.943	-0.601	COD	635642.0	635644.0	635679.0	635676.0
antisense_298	635692	+	CP059373.1 (893878-893083)	False	QRNA	1.551	-0.964	COD	635695.0	635695.0	636490.0	636488.0
antisense_299	636491	+		OTH Found	CNIT	-0.517	0.213	RNA	636491.0	636899.0	637124.0	636946.0
antisense_300	637124	+	CP063536.1 (501635-502496)	True	QRNA	10.685	-0.006	RNA	637124.0	637124.0	637985.0	637985.0
antisense_301	639262	-	OU701459.1 (266093-266624)	False	QRNA	17.485	0.107	COD	638729.0	638803.0	639260.0	639214.0
antisense_302	645111	-	CP076657.1 (880006-880866)	True	QRNA	13.778	0.362	RNA	644251.0	644251.0	645111.0	645111.0
antisense_303	648814	+		OTH Found	CNIT	-0.646	1.495	RNA	648814.0	648854.0	649054.0	648889.0
antisense_304	649054	+	LR134534.1 (977129-976750)	True	QRNA	9.936	-0.095	RNA	649061.0	649061.0	649444.0	649444.0
antisense_305	652515	-	CP022347.1 (937697-938479)	True	QRNA	45.612	1.998	COD	651734.0	651809.0	652513.0	652431.0
antisense_306	654287	-		OTH Found	CNIT	-0.564	0.688	RNA	653425.0	653496.0	654287.0	653513.0
antisense_307	658112	-		OTH Found	CNIT	-0.485	-0.104	RNA	657250.0	657944.0	658112.0	658000.0
antisense_308	658576	-		OTH Found	CNIT	-0.477	-0.179	RNA	658112.0	658352.0	658576.0	658387.0
antisense_309	659059	-		OTH Found	CNIT	-0.569	0.729	RNA	658576.0	659034.0	659059.0	659057.0
antisense_310	659794	-		OTH Found	CNIT	-0.492	-0.028	RNA	659059.0	659078.0	659794.0	659110.0
antisense_311	660162	-		OTH Found	CNIT	-0.626	1.298	RNA	659794.0	659942.0	660162.0	659962.0
antisense_312	660337	-		OTH Found	CNIT	-0.514	0.19	RNA	660162.0	660306.0	660337.0	660323.0
antisense_313	663898	-		OTH Found	CNIT	-0.533	0.373	RNA	663036.0	663085.0	663898.0	663117.0
antisense_314	666282	-		OTH Found	CNIT	-0.475	-0.202	RNA	665420.0	666186.0	666282.0	666221.0
antisense_315	668685	+	CP037747.1 (435394-434616)	True	QRNA	23.266	1.49	RNA	668685.0	668753.0	669463.0	669463.0
antisense_316	676896	+		OTH Found	CNIT	0.627	0.503	COD	676896.0	677518.0	677758.0	677718.0
antisense_317	680469	-		OTH Found	CNIT	-0.449	-0.462	RNA	679607.0	679875.0	680469.0	679901.0
antisense_318	684468	-	OU701459.1 (834882-835740)	False	QRNA	3.38	-0.841	COD	683607.0	683624.0	684468.0	684468.0
antisense_319	684697	-	CP041617.1 (767601-767375)	False	QRNA	0.318	-1.046	COD	684470.0	684643.0	684696.0	684690.0
antisense_320	685484	-		OTH Found	CNIT	-0.388	-1.062	RNA	684697.0	685420.0	685484.0	685473.0
antisense_321	692899	+	CP063091.1 (1776240-1776743)	False	QRNA	14.707	-0.079	COD	692903.0	693023.0	693408.0	693370.0
antisense_322	693469	+		OTH Found	CNIT	-0.607	1.108	RNA	693469.0	693802.0	693888.0	693837.0
antisense_323	693888	+		OTH Found	CNIT	-0.476	-0.187	RNA	693888.0	693977.0	694750.0	694087.0
orphan_9	695304	-	CP012212.1 (585627-585096)	True	QRNA	2.423	-0.988	RNA	694747.0	694747.0	695304.0	695304.0
orphan_10	695391	-		No QRNA hit	CNIT	-0.911	4.125	RNA	695304.0	695373.0	695391.0	695381.0
orphan_11	696140	+		OTH Found	CNIT	-0.729	2.317	RNA	696140.0	696150.0	696202.0	696164.0
orphan_12	696202	+		OTH Found	CNIT	-0.656	1.591	RNA	696202.0	696251.0	696289.0	696265.0
antisense_324	696289	+		No QRNA hit	CNIT	-0.577	0.808	RNA	696289.0	696381.0	696468.0	696401.0
antisense_325	696468	+		OTH Found	CNIT	-0.879	3.803	RNA	696468.0	696470.0	696521.0	696484.0
antisense_326	696521	+	CP065357.1 (677428-676591)	True	QRNA	36.735	3.091	RNA	696533.0	696533.0	697370.0	697370.0
antisense_327	700784	+		OTH Found	CNIT	-0.449	-0.453	RNA	700784.0	701031.0	701600.0	701135.0
antisense_328	701849	-		OTH Found	CNIT	-0.556	0.601	RNA	701477.0	701513.0	701849.0	701545.0
antisense_329	705340	-	CP076657.1 (931625-930766)	True	QRNA	6.268	-0.531	RNA	704480.0	704971.0	705339.0	705339.0
antisense_330	705632	-	CP012548.1 (427546-427831)	False	QRNA	3.317	-0.845	COD	705347.0	705364.0	705632.0	705624.0
antisense_331	706110	-		OTH Found	CNIT	-0.517	0.215	RNA	705632.0	705732.0	706110.0	705797.0
antisense_332	709729	-		OTH Found	CNIT	0.627	0.503	COD	708867.0	709266.0	709729.0	709472.0
antisense_333	711643	-	CP059597.1 (422114-421686)	True	QRNA	6.786	-0.469	RNA	711207.0	711207.0	711634.0	711634.0
antisense_334	714053	+		OTH Found	CNIT	-0.504	0.091	RNA	714053.0	714286.0	714409.0	714348.0
antisense_336	716433	-	CP007775.1 (1415611-1416472)	True	QRNA	16.189	0.649	RNA	715572.0	715572.0	716433.0	716433.0
antisense_337	717239	+		OTH Found	CNIT	-0.641	1.449	RNA	717239.0	717252.0	717414.0	717263.0
antisense_338	717414	+		OTH Found	CNIT	-0.527	0.321	RNA	717414.0	717479.0	718126.0	717508.0
antisense_339	718126	+		OTH Found	CNIT	-0.478	-0.167	RNA	718126.0	718265.0	718633.0	718297.0
antisense_340	720085	+		OTH Found	CNIT	-0.531	0.36	RNA	720085.0	720128.0	720191.0	720145.0
antisense_341	720191	+	CP076657.1 (661351-660979)	False	QRNA	27.717	0.795	COD	720193.0	720211.0	720565.0	720516.0
antisense_342	726630	+		OTH Found	CNIT	-0.614	1.178	RNA	726630.0	726666.0	727005.0	726698.0
antisense_343	728235	+	CP059375.1 (1213327-1214182)	True	QRNA	18.682	0.945	RNA	728240.0	728240.0	729096.0	729096.0
antisense_344	731092	-		OTH Found	CNIT	-0.532	0.365	RNA	730230.0	730318.0	731092.0	730380.0
antisense_345	739057	-	CP063083.1 (863552-864408)	False	QRNA	11.976	-0.263	COD	738201.0	738206.0	739057.0	739029.0
antisense_346	740532	-		OTH Found	CNIT	-0.429	-0.655	RNA	739670.0	739743.0	740532.0	739787.0
antisense_347	745236	-		OTH Found	CNIT	-0.46	-0.353	RNA	744374.0	744905.0	745236.0	744940.0
antisense_348	747232	-	CP059597.1 (455565-454701)	True	QRNA	21.395	1.268	RNA	746371.0	746371.0	747232.0	747232.0
antisense_349	749451	-		OTH Found	CNIT	-0.452	-0.424	RNA	748589.0	748620.0	749451.0	748730.0
antisense_350	752522	-	CP022347.1 (254292-255153)	False	QRNA	26.375	0.705	COD	751661.0	751795.0	752522.0	752460.0
antisense_351	755780	+	CP059597.1 (464075-464956)	True	QRNA	25.765	1.787	RNA	755780.0	755780.0	756641.0	756641.0
antisense_352	756790	+	CP020867.1 (932980-932347)	True	QRNA	9.968	-0.091	RNA	756790.0	756790.0	757423.0	757423.0
antisense_353	757424	+		OTH Found	CNIT	-0.523	0.279	RNA	757424.0	757516.0	758286.0	757542.0
antisense_354	760835	-	CP022347.1 (1358051-1358737)	True	QRNA	8.973	-0.209	RNA	760149.0	760149.0	760835.0	760835.0
antisense_355	762546	-		OTH Found	CNIT	-0.497	0.021	RNA	761684.0	761963.0	762546.0	762013.0
antisense_356	765209	-	CP065357.1 (620130-620989)	True	QRNA	13.323	0.308	RNA	764348.0	764348.0	765209.0	765209.0
antisense_357	765623	-	CP022347.1 (1355310-1355717)	False	QRNA	5.007	-0.731	COD	765210.0	765269.0	765617.0	765583.0
antisense_358	768166	-	OU532558.1 (725129-724435)	True	QRNA	37.92	3.232	RNA	767445.0	767445.0	768166.0	768166.0
antisense_359	769306	-	CP022080.1 (810765-811615)	True	QRNA	20.802	1.197	RNA	768445.0	768445.0	769306.0	769306.0
antisense_360	770068	-	AP025992.1 (728880-728185)	True	QRNA	14.412	0.438	RNA	769388.0	769388.0	770068.0	770068.0
antisense_361	771587	-		OTH Found	CNIT	-0.504	0.083	RNA	770725.0	771244.0	771587.0	771276.0
orphan_13	773341	-		OTH Found	CNIT	-0.442	-0.525	RNA	772479.0	772763.0	773341.0	772825.0
orphan_14	773831	-		OTH Found	CNIT	-0.502	0.064	RNA	773341.0	773373.0	773831.0	773414.0
antisense_362	774701	-	LR134497.1 (693916-693049)	True	QRNA	20.474	1.158	RNA	773840.0	773840.0	774701.0	774701.0
orphan_15	774799	+	CP058336.1 (395041-395433)	True	QRNA	13.729	0.356	RNA	774799.0	774799.0	775169.0	775169.0
antisense_363	776251	-		OTH Found	CNIT	-0.33	-1.637	RNA	775389.0	775640.0	776251.0	775909.0
orphan_17	777120	+	CP059597.1 (1327431-1327031)	True	QRNA	20.386	1.148	RNA	777127.0	777127.0	777480.0	777480.0
antisense_364	777410	-	AF074836.1 (703-1)	True	QRNA	27.821	2.032	RNA	776736.0	776736.0	777410.0	777410.0
antisense_365	781582	-	CP023343.1 (691319-690484)	True	QRNA	16.358	0.669	RNA	780861.0	780861.0	781582.0	781582.0
antisense_366	781946	-		OTH Found	CNIT	-0.595	0.994	RNA	781582.0	781819.0	781946.0	781845.0
antisense_367	784723	-		OTH Found	CNIT	-0.373	-1.209	RNA	783861.0	784545.0	784723.0	784679.0
antisense_368	784977	-		OTH Found	CNIT	-0.514	0.187	RNA	784723.0	784814.0	784977.0	784879.0
orphan_19	789659	-	CP017875.1 (1179233-1180098)	True	QRNA	8.95	-0.212	RNA	788800.0	789253.0	789658.0	789658.0
antisense_369	790219	-		OTH Found	CNIT	-0.498	0.028	RNA	789659.0	789787.0	790219.0	789813.0
antisense_370	791291	+		OTH Found	CNIT	-0.436	-0.587	RNA	791291.0	791890.0	792153.0	791952.0
antisense_371	793857	+	HG004426.1 (1073554-1074414)	True	QRNA	12.47	0.207	RNA	793857.0	793857.0	794717.0	794717.0
antisense_372	795371	+		OTH Found	CNIT	-0.451	-0.438	RNA	795371.0	795784.0	796233.0	795855.0
antisense_374	799285	+	CP041617.1 (382522-383374)	True	QRNA	10.577	-0.018	RNA	799288.0	799288.0	800146.0	800146.0
antisense_375	802305	+		OTH Found	CNIT	-0.465	-0.302	RNA	802305.0	802321.0	802600.0	802404.0
antisense_376	802600	+	CP063091.1 (1480069-1479250)	False	QRNA	2.135	-0.924	COD	802600.0	802600.0	803421.0	803076.0
antisense_377	803423	+		OTH Found	CNIT	-0.717	2.204	RNA	803423.0	803462.0	803496.0	803488.0
antisense_378	803496	+		OTH Found	CNIT	-0.52	0.245	RNA	803496.0	803585.0	804062.0	803620.0
antisense_379	804062	+		OTH Found	CNIT	-0.499	0.034	RNA	804062.0	804405.0	804662.0	804464.0
antisense_380	804662	+		OTH Found	CNIT	-0.491	-0.037	RNA	804662.0	805089.0	805524.0	805157.0
antisense_381	807699	-	CP007771.1 (754567-753796)	True	QRNA	17.363	0.788	RNA	806925.0	806925.0	807698.0	807698.0
antisense_382	807825	-		OTH Found	CNIT	-0.621	1.249	RNA	807699.0	807769.0	807825.0	807801.0
antisense_383	808219	-	CP063089.1 (820277-819886)	False	QRNA	21.556	0.381	COD	807826.0	807915.0	808217.0	808211.0
antisense_384	809015	-		OTH Found	CNIT	-0.475	-0.198	RNA	808219.0	808407.0	809015.0	808466.0
antisense_385	814909	-	CP076657.1 (816553-817417)	True	QRNA	7.477	-0.387	RNA	814048.0	814048.0	814909.0	814909.0
antisense_386	816398	-	CP092026.1 (760819-759965)	True	QRNA	31.724	2.496	RNA	815540.0	815540.0	816397.0	816397.0
antisense_387	818689	-		OTH Found	CNIT	-0.51	0.147	RNA	817827.0	818159.0	818689.0	818209.0
antisense_388	822404	-	CP041617.1 (1424543-1423689)	True	QRNA	11.0	0.032	RNA	821544.0	821544.0	822400.0	822400.0
antisense_389	822610	-	CP041617.1 (1424749-1424556)	False	QRNA	0.068	-1.063	COD	822413.0	822428.0	822606.0	822559.0
antisense_390	822807	-		OTH Found	CNIT	-0.67	1.737	RNA	822610.0	822661.0	822807.0	822675.0
antisense_391	823641	-		OTH Found	CNIT	-0.504	0.086	RNA	822807.0	822937.0	823641.0	822960.0
antisense_392	826088	+		OTH Found	CNIT	-0.556	0.608	RNA	826088.0	826326.0	826615.0	826340.0
antisense_393	826615	+	CP076657.1 (665979-666644)	True	QRNA	30.772	2.382	RNA	826615.0	826637.0	827281.0	827281.0
antisense_394	827334	+	OU701461.1 (430012-430464)	False	QRNA	11.108	-0.321	COD	827334.0	827334.0	827785.0	827759.0
antisense_395	827786	+		OTH Found	CNIT	-0.466	-0.287	RNA	827786.0	827860.0	828648.0	827988.0
antisense_396	836770	-		OTH Found	CNIT	-0.518	0.225	RNA	835908.0	836375.0	836770.0	836398.0
antisense_397	837053	-		OTH Found	CNIT	-0.577	0.808	RNA	836770.0	836976.0	837053.0	837005.0
antisense_398	843693	-	CP080547.1 (474044-473273)	False	QRNA	0.655	-1.024	COD	842921.0	843150.0	843693.0	843661.0
antisense_399	846360	+		OTH Found	CNIT	-0.437	-0.579	RNA	846360.0	846509.0	846725.0	846586.0
antisense_400	848407	-		OTH Found	CNIT	-0.456	-0.385	RNA	847545.0	847899.0	848407.0	847997.0
antisense_401	849199	-	CP020867.1 (813551-812762)	True	QRNA	16.644	0.703	RNA	848409.0	848409.0	849198.0	849198.0
antisense_402	850612	-	CP020478.1 (913558-914390)	False	QRNA	34.179	1.229	COD	849783.0	849812.0	850602.0	850602.0
antisense_403	851241	-		OTH Found	CNIT	-0.607	1.113	RNA	850612.0	850655.0	851241.0	850681.0
antisense_404	852801	-	CP059373.1 (703601-704461)	True	QRNA	9.189	-0.183	RNA	851941.0	851941.0	852801.0	852801.0
antisense_405	853044	+	CP022347.1 (466319-467174)	True	QRNA	43.625	1.864	COD	853050.0	853062.0	853905.0	853898.0
antisense_406	856081	+		OTH Found	CNIT	-0.438	-0.567	RNA	856081.0	856207.0	856500.0	856344.0
antisense_407	856500	+	CP020478.1 (905449-904590)	True	QRNA	34.377	1.242	COD	856502.0	856503.0	857361.0	857360.0
antisense_408	859440	+	CP063091.1 (1410063-1410919)	True	QRNA	12.655	0.229	RNA	859440.0	859440.0	860299.0	860066.0
antisense_409	863643	+		OTH Found	CNIT	-0.472	-0.231	RNA	863643.0	863647.0	864505.0	863691.0
antisense_410	864536	+	CP076657.1 (554929-555108)	False	QRNA	0.695	-1.021	COD	864536.0	864579.0	864715.0	864644.0
antisense_411	864743	+		OTH Found	CNIT	-0.586	0.904	RNA	864743.0	864822.0	864878.0	864869.0
antisense_412	864878	+		OTH Found	CNIT	-0.561	0.656	RNA	864878.0	865658.0	865740.0	865684.0
antisense_413	869656	+	CP076657.1 (560061-560604)	True	QRNA	27.308	1.971	RNA	869656.0	869656.0	870200.0	870200.0
antisense_414	870201	+		OTH Found	CNIT	-0.489	-0.058	RNA	870201.0	870298.0	871063.0	870363.0
antisense_415	872506	-		OTH Found	CNIT	-0.517	0.213	RNA	871644.0	871927.0	872506.0	871989.0
antisense_416	873552	+		OTH Found	CNIT	-0.582	0.859	RNA	873552.0	873684.0	873898.0	873710.0
antisense_417	873898	+		OTH Found	CNIT	-0.518	0.231	RNA	873898.0	873904.0	874458.0	873987.0
antisense_418	874458	+	HG326877.1 (1212492-1212140)	False	QRNA	5.17	-0.72	COD	874459.0	874549.0	874811.0	874794.0
antisense_419	874812	+		OTH Found	CNIT	-0.563	0.67	RNA	874812.0	874887.0	875307.0	874910.0
antisense_421	875307	+	CP059597.1 (630840-631697)	True	QRNA	14.624	0.463	RNA	875311.0	875311.0	876168.0	876168.0
antisense_422	884186	-		OTH Found	CNIT	-0.505	0.101	RNA	883818.0	883828.0	884186.0	883857.0
antisense_423	886419	+	CP058336.1 (838405-838341)	False	QRNA	0.039	-1.065	COD	886419.0	886439.0	886483.0	886480.0
antisense_424	886484	+	CP059597.1 (641733-642407)	True	QRNA	27.334	1.974	RNA	886484.0	886484.0	887158.0	887158.0
antisense_425	887160	+	CP053828.1 (882857-882001)	True	QRNA	9.258	-0.175	RNA	887160.0	887160.0	888016.0	888016.0
antisense_426	889661	-		OTH Found	CNIT	-0.463	-0.321	RNA	888799.0	888917.0	889661.0	888952.0
antisense_427	890193	-		OTH Found	CNIT	-0.433	-0.619	RNA	889661.0	889708.0	890193.0	889782.0
orphan_20	893550	-	CP065357.1 (502605-502936)	True	QRNA	23.096	0.484	COD	893207.0	893261.0	893539.0	893476.0
orphan_21	893621	-		OTH Found	CNIT	-0.996	4.971	RNA	893550.0	893601.0	893621.0	893609.0
antisense_428	897607	+	OU701461.1 (788371-787632)	False	QRNA	38.88	1.545	COD	897607.0	897607.0	898349.0	898330.0
antisense_429	900420	+		OTH Found	CNIT	-0.549	0.539	RNA	900420.0	900499.0	900702.0	900534.0
antisense_430	900702	+		OTH Found	CNIT	-0.512	0.163	RNA	900702.0	901240.0	901357.0	901275.0
antisense_431	901357	+	CP076657.1 (808420-809272)	True	QRNA	7.423	-0.393	RNA	901362.0	901362.0	902216.0	902216.0
antisense_432	902430	+	CP063083.1 (611840-612109)	False	QRNA	2.325	-0.912	COD	902433.0	902455.0	902702.0	902700.0
antisense_433	902717	+		OTH Found	CNIT	-0.567	0.71	RNA	902717.0	902742.0	902903.0	902777.0
antisense_434	902903	+		OTH Found	CNIT	-0.456	-0.391	RNA	902903.0	903334.0	903765.0	903405.0
antisense_435	904805	+		OTH Found	CNIT	-0.536	0.401	RNA	904805.0	905601.0	905667.0	905630.0
antisense_436	908966	+		OTH Found	CNIT	-0.447	-0.476	RNA	908966.0	908974.0	909407.0	909027.0
antisense_437	909407	+	CP063079.1 (266384-267065)	True	QRNA	8.152	-0.307	RNA	909408.0	909408.0	910092.0	910092.0
antisense_438	911187	+		OTH Found	CNIT	-0.51	0.149	RNA	911187.0	911228.0	912049.0	911266.0
antisense_439	913394	+	CP059597.1 (542605-542051)	True	QRNA	12.374	0.195	RNA	913402.0	913402.0	913956.0	913956.0
antisense_440	913958	+	CP022347.1 (785968-785857)	False	QRNA	14.85	-0.07	COD	913960.0	913963.0	914071.0	914064.0
antisense_441	914076	+	CP027639.1 (846290-846389)	False	QRNA	0.61	-1.027	COD	914076.0	914077.0	914175.0	914094.0
antisense_442	914176	+	CP059597.1 (541830-540985)	True	QRNA	12.053	0.157	RNA	914176.0	914176.0	915022.0	915022.0
antisense_443	916631	+		OTH Found	CNIT	-0.459	-0.355	RNA	916631.0	916995.0	917493.0	917075.0
antisense_444	919196	-		OTH Found	CNIT	-0.548	0.528	RNA	918866.0	919122.0	919196.0	919145.0
antisense_445	919541	-	CP053831.1 (368482-368142)	False	QRNA	8.17	-0.519	COD	919204.0	919209.0	919541.0	919541.0
antisense_446	921484	+	CP059597.1 (534575-533718)	True	QRNA	16.061	0.634	RNA	921484.0	921484.0	922343.0	922343.0
antisense_447	925821	-	HG326877.1 (1121441-1122151)	True	QRNA	19.778	1.075	RNA	925109.0	925109.0	925820.0	925820.0
antisense_448	926306	-	CP063536.1 (763322-762838)	True	QRNA	14.656	0.467	RNA	925822.0	926013.0	926303.0	926303.0
antisense_449	927581	+		OTH Found	CNIT	0.598	-0.212	COD	927581.0	928130.0	928443.0	928336.0
antisense_450	932948	+	CP012552.1 (1516503-1517053)	False	QRNA	39.548	1.59	COD	932948.0	933017.0	933498.0	933490.0
antisense_451	933499	+		OTH Found	CNIT	-0.487	-0.082	RNA	933499.0	933660.0	933897.0	933734.0
antisense_452	933897	+		OTH Found	CNIT	-0.478	-0.171	RNA	933897.0	934670.0	934759.0	934720.0
antisense_453	934770	+	CP053849.1 (493359-494219)	False	QRNA	13.976	-0.129	COD	934771.0	934825.0	935631.0	935626.0
antisense_454	937472	+	CP076657.1 (613384-612552)	True	QRNA	9.593	-0.135	RNA	937472.0	937472.0	938306.0	938306.0
antisense_455	940877	-		OTH Found	CNIT	-0.52	0.246	RNA	940015.0	940790.0	940877.0	940819.0
antisense_456	947379	+		OTH Found	CNIT	-0.494	-0.011	RNA	947379.0	948141.0	948241.0	948203.0
antisense_457	951163	-		OTH Found	CNIT	0.671	1.62	COD	950504.0	950724.0	951163.0	950972.0
antisense_458	953436	+	CP007766.1 (1050539-1049706)	True	QRNA	15.929	0.618	RNA	953444.0	953444.0	954277.0	954256.0
antisense_459	954476	+	CP059373.1 (732453-731603)	True	QRNA	7.26	-0.413	RNA	954477.0	954477.0	955327.0	955327.0
antisense_460	955563	+	CP014744.1 (919470-920358)	True	QRNA	21.52	1.283	RNA	955563.0	955563.0	956424.0	956424.0
antisense_461	957241	+		OTH Found	CNIT	-0.569	0.737	RNA	957241.0	957295.0	957393.0	957318.0
antisense_462	957393	+		OTH Found	CNIT	-0.453	-0.42	RNA	957393.0	957882.0	958255.0	957959.0
antisense_463	958834	+		OTH Found	CNIT	-0.48	-0.149	RNA	958834.0	959087.0	959696.0	959176.0
antisense_464	962051	-		OTH Found	CNIT	-0.582	0.865	RNA	961638.0	961917.0	962051.0	961943.0
antisense_466	962094	-		OTH Found	CNIT	-0.936	4.369	RNA	962051.0	962080.0	962094.0	962088.0
antisense_467	964663	-		OTH Found	CNIT	-0.607	1.109	RNA	964495.0	964530.0	964663.0	964547.0
antisense_468	972311	+		No QRNA hit	CNIT	-0.615	1.186	RNA	972311.0	972320.0	972363.0	972334.0
antisense_469	972363	+		OTH Found	CNIT	-0.528	0.325	RNA	972363.0	972754.0	972814.0	972792.0
antisense_470	972814	+		OTH Found	CNIT	-0.449	-0.455	RNA	972814.0	972871.0	973676.0	972906.0
antisense_471	976092	+	CP076657.1 (647792-646937)	True	QRNA	13.193	0.293	RNA	976098.0	976098.0	976953.0	976953.0
antisense_473	981246	-	CP076657.1 (642631-643460)	True	QRNA	10.36	-0.044	RNA	980417.0	980417.0	981246.0	981246.0
antisense_474	981879	-	CP059374.1 (609132-608495)	True	QRNA	9.45	-0.152	RNA	981247.0	981247.0	981878.0	981878.0
antisense_475	983506	-		OTH Found	CNIT	-0.515	0.195	RNA	982800.0	982805.0	983506.0	982852.0
antisense_476	983977	-		OTH Found	CNIT	-0.538	0.423	RNA	983506.0	983515.0	983977.0	983553.0
antisense_477	984206	-		OTH Found	CNIT	-0.446	-0.491	RNA	983977.0	983983.0	984206.0	984015.0
antisense_478	986495	-		OTH Found	CNIT	-0.437	-0.576	RNA	985719.0	985723.0	986495.0	985794.0
antisense_479	987883	-		OTH Found	CNIT	-0.533	0.376	RNA	987021.0	987439.0	987883.0	987453.0
antisense_480	989772	-	LS483295.1 (941863-941002)	True	QRNA	24.5	1.637	RNA	988911.0	988911.0	989772.0	989772.0
antisense_481	995285	-	CP063536.1 (827669-827045)	True	QRNA	17.292	0.78	RNA	994653.0	994653.0	995282.0	995092.0
antisense_482	995781	-		OTH Found	CNIT	-0.453	-0.423	RNA	995285.0	995696.0	995781.0	995770.0
antisense_483	996202	-		OTH Found	CNIT	-0.601	1.047	RNA	995781.0	995808.0	996202.0	995831.0
antisense_484	996338	-		OTH Found	CNIT	-0.55	0.545	RNA	996202.0	996227.0	996338.0	996262.0
antisense_485	998887	+		OTH Found	CNIT	-0.491	-0.038	RNA	998887.0	999648.0	999749.0	999749.0
antisense_486	999982	+	CP007777.1 (1080391-1079545)	True	QRNA	15.115	0.521	RNA	999982.0	999982.0	1000834.0	1000834.0
antisense_487	1001284	+		OTH Found	CNIT	-0.533	0.38	RNA	1001284.0	1001922.0	1002146.0	1001945.0
antisense_488	1005375	-	CP007778.1 (1113643-1114316)	True	QRNA	15.939	0.619	RNA	1004704.0	1004704.0	1005375.0	1005375.0
antisense_489	1006157	+	CP066487.1 (801626-800772)	True	QRNA	12.885	0.256	RNA	1006157.0	1006188.0	1007018.0	1007018.0
antisense_491	1008505	-	CP059597.1 (491656-492528)	True	QRNA	19.729	1.07	RNA	1007644.0	1007644.0	1008505.0	1008505.0
antisense_492	1010839	+	CP053849.1 (602675-602010)	True	QRNA	7.405	-0.395	RNA	1010846.0	1010846.0	1011509.0	1011509.0
antisense_493	1013716	+		OTH Found	CNIT	-0.443	-0.52	RNA	1013716.0	1014001.0	1014578.0	1014066.0
antisense_494	1014599	+		OTH Found	CNIT	-0.499	0.036	RNA	1014599.0	1014872.0	1015461.0	1014916.0
antisense_495	1015489	+		OTH Found	CNIT	-0.44	-0.542	RNA	1015489.0	1015660.0	1016351.0	1015695.0
antisense_496	1017061	+	CP063091.1 (1527088-1526294)	True	QRNA	17.93	0.856	RNA	1017061.0	1017061.0	1017864.0	1017864.0
antisense_497	1017871	+		OTH Found	CNIT	-0.511	0.157	RNA	1017871.0	1018638.0	1018733.0	1018706.0
antisense_498	1019799	-	OU701461.1 (627583-626859)	False	QRNA	6.634	-0.622	COD	1019070.0	1019105.0	1019794.0	1019794.0
antisense_499	1021220	-	CP059364.1 (869708-868908)	True	QRNA	21.819	1.318	RNA	1020407.0	1020407.0	1021220.0	1021220.0
antisense_500	1021274	-		OTH Found	CNIT	-1.0	5.008	RNA	1021220.0	1021266.0	1021274.0	1021271.0
antisense_501	1021954	+	LR134534.1 (778088-778935)	True	QRNA	17.853	0.847	RNA	1021954.0	1021954.0	1022800.0	1022800.0
antisense_502	1025756	+		OTH Found	CNIT	-0.41	-0.846	RNA	1025756.0	1026076.0	1026208.0	1026138.0
antisense_503	1026208	+	CP068568.1 (539-1402)	True	QRNA	4.246	-0.771	RNA	1026211.0	1026211.0	1027069.0	1027069.0
antisense_504	1028529	+		OTH Found	CNIT	-0.52	0.247	RNA	1028529.0	1028629.0	1028914.0	1028682.0
antisense_505	1028914	+	CP007772.1 (907838-908753)	True	QRNA	31.922	2.519	RNA	1028914.0	1028914.0	1029775.0	1029775.0
antisense_506	1031191	+		OTH Found	CNIT	-0.488	-0.074	RNA	1031191.0	1031207.0	1032053.0	1031227.0
antisense_507	1034125	+		OTH Found	CNIT	-0.569	0.733	RNA	1034125.0	1034442.0	1034464.0	1034462.0
antisense_508	1034464	+	CP037747.1 (658824-658284)	True	QRNA	16.229	0.654	RNA	1034464.0	1034464.0	1035004.0	1035004.0
antisense_509	1035005	+	CP020478.1 (616931-617762)	True	QRNA	39.078	3.37	RNA	1035005.0	1035005.0	1035866.0	1035866.0
antisense_510	1040952	+	CP063084.1 (11980-12696)	True	QRNA	16.047	0.632	RNA	1040953.0	1040953.0	1041669.0	1041669.0
antisense_511	1041672	+		OTH Found	CNIT	-0.569	0.732	RNA	1041672.0	1041706.0	1042315.0	1041729.0
antisense_512	1042315	+	CP066243.1 (1655418-1654570)	True	QRNA	23.795	1.553	RNA	1042315.0	1042315.0	1043176.0	1043176.0
orphan_22	1045148	+	AP025973.1 (18300-17943)	True	QRNA	2.068	-1.03	RNA	1045148.0	1045148.0	1045458.0	1045458.0
antisense_514	1050043	-		OTH Found	CNIT	-0.562	0.662	RNA	1049181.0	1049869.0	1050043.0	1049886.0
antisense_515	1050570	-		OTH Found	CNIT	-0.507	0.121	RNA	1050043.0	1050178.0	1050570.0	1050207.0
antisense_516	1051272	-	CP037747.1 (566614-566037)	True	QRNA	16.127	0.641	RNA	1050691.0	1050691.0	1051270.0	1051270.0
antisense_517	1052490	-	OU532557.1 (41668-42524)	True	QRNA	16.193	0.649	RNA	1051629.0	1051629.0	1052490.0	1052490.0
antisense_518	1053419	-	OU532557.1 (40754-41602)	True	QRNA	27.188	1.956	RNA	1052558.0	1052558.0	1053419.0	1053419.0
antisense_519	1053507	-		OTH Found	CNIT	-0.661	1.646	RNA	1053419.0	1053460.0	1053507.0	1053474.0
antisense_520	1054545	-	CP068568.1 (20216-21059)	True	QRNA	23.383	1.504	RNA	1053684.0	1053684.0	1054545.0	1054545.0
antisense_521	1055910	-		OTH Found	CNIT	-0.421	-0.737	RNA	1055048.0	1055690.0	1055910.0	1055755.0
antisense_522	1056556	+		OTH Found	CNIT	-0.538	0.428	RNA	1056556.0	1056621.0	1057001.0	1056662.0
antisense_523	1057431	-	CP007772.1 (1032904-1032453)	True	QRNA	17.689	0.827	RNA	1056975.0	1056975.0	1057425.0	1057425.0
antisense_524	1057684	-		OTH Found	CNIT	-0.633	1.368	RNA	1057431.0	1057607.0	1057684.0	1057621.0
antisense_525	1058034	-		OTH Found	CNIT	-0.495	-0.003	RNA	1057684.0	1057738.0	1058034.0	1057773.0
antisense_526	1058773	-		OTH Found	CNIT	-0.568	0.72	RNA	1058034.0	1058056.0	1058773.0	1058073.0
antisense_527	1059753	-		OTH Found	CNIT	-0.445	-0.494	RNA	1058891.0	1059545.0	1059753.0	1059592.0
antisense_528	1059884	-		OTH Found	CNIT	-0.747	2.495	RNA	1059753.0	1059759.0	1059884.0	1059803.0
antisense_529	1060938	-	CP012212.1 (811383-810610)	True	QRNA	15.692	0.59	RNA	1060181.0	1060181.0	1060927.0	1060927.0
antisense_530	1061475	-		OTH Found	CNIT	-0.551	0.558	RNA	1060938.0	1060960.0	1061475.0	1060980.0
antisense_531	1064013	-	CP037747.1 (632107-633024)	True	QRNA	26.027	1.818	RNA	1063152.0	1063152.0	1064013.0	1064013.0
antisense_532	1064597	-	CP007775.1 (1075388-1074835)	True	QRNA	26.071	1.824	RNA	1064017.0	1064017.0	1064597.0	1064597.0
antisense_533	1066056	-	CP068568.1 (121052-120188)	True	QRNA	26.319	1.853	RNA	1065195.0	1065195.0	1066056.0	1066056.0
antisense_534	1067668	-	CP063088.1 (521278-520422)	True	QRNA	18.209	0.889	RNA	1066808.0	1066808.0	1067667.0	1067667.0
antisense_535	1068271	-		OTH Found	CNIT	-0.657	1.601	RNA	1067668.0	1068019.0	1068271.0	1068042.0
antisense_536	1071079	-	AP025968.1 (1109436-1108604)	True	QRNA	16.819	0.724	RNA	1070218.0	1070218.0	1071079.0	1071079.0
orphan_23	1071137	+		OTH Found	CNIT	-0.512	0.171	RNA	1071137.0	1071368.0	1071528.0	1071415.0
orphan_24	1071290	-		OTH Found	CNIT	-0.541	0.458	RNA	1071079.0	1071209.0	1071290.0	1071235.0
orphan_25	1071467	-		OTH Found	CNIT	-0.554	0.582	RNA	1071290.0	1071365.0	1071467.0	1071409.0
antisense_537	1071857	+		OTH Found	CNIT	-0.52	0.246	RNA	1071857.0	1072273.0	1072719.0	1072314.0
antisense_538	1072983	+	CP059597.1 (714785-715643)	True	QRNA	12.95	0.264	RNA	1072986.0	1072986.0	1073844.0	1073844.0
antisense_539	1075101	+		OTH Found	CNIT	-0.401	-0.938	RNA	1075101.0	1075806.0	1075963.0	1075922.0
antisense_540	1076921	+		OTH Found	CNIT	-0.386	-1.085	RNA	1076921.0	1077369.0	1077577.0	1077452.0
antisense_541	1077577	+	OU701461.1 (442277-441417)	False	QRNA	44.843	1.946	COD	1077578.0	1077593.0	1078438.0	1078419.0
antisense_542	1084912	+		OTH Found	CNIT	0.567	-1.001	COD	1084912.0	1085034.0	1085774.0	1085255.0
antisense_543	1088799	+		OTH Found	CNIT	-0.488	-0.073	RNA	1088799.0	1089058.0	1089661.0	1089126.0
antisense_544	1090247	+		OTH Found	CNIT	-0.476	-0.186	RNA	1090247.0	1090951.0	1091109.0	1090986.0
antisense_545	1092129	-	CP063536.1 (871316-870857)	True	QRNA	14.307	0.425	RNA	1091681.0	1091681.0	1092129.0	1092129.0
antisense_546	1092424	-		OTH Found	CNIT	-0.555	0.595	RNA	1092129.0	1092291.0	1092424.0	1092326.0
antisense_547	1096808	+	CP020867.1 (1252832-1253692)	True	QRNA	12.692	0.233	RNA	1096808.0	1096808.0	1097669.0	1097669.0
antisense_548	1109945	+		OTH Found	CNIT	-0.46	-0.352	RNA	1109945.0	1110382.0	1110807.0	1110408.0
antisense_549	1113495	+	CP020478.1 (292651-291800)	True	QRNA	14.331	0.428	RNA	1113496.0	1113496.0	1114356.0	1114356.0
antisense_550	1114989	+	CP059366.1 (166505-165645)	False	QRNA	4.363	-0.775	COD	1114990.0	1114990.0	1115850.0	1115773.0
antisense_551	1122933	+	CP018900.1 (973721-974564)	True	QRNA	25.314	1.734	RNA	1122933.0	1122933.0	1123762.0	1123762.0
antisense_552	1126194	-		OTH Found	CNIT	-0.662	1.66	RNA	1125904.0	1126143.0	1126194.0	1126175.0
antisense_554	1131061	-	CP076657.1 (1026905-1026056)	True	QRNA	18.353	0.906	RNA	1130206.0	1130206.0	1131060.0	1131060.0
antisense_556	1132441	-		OTH Found	CNIT	-0.42	-0.748	RNA	1131579.0	1131952.0	1132441.0	1132008.0
antisense_557	1135009	+		OTH Found	CNIT	-0.475	-0.2	RNA	1135009.0	1135420.0	1135871.0	1135458.0
antisense_558	1136525	-		OTH Found	CNIT	-0.428	-0.666	RNA	1135922.0	1136199.0	1136525.0	1136258.0
antisense_559	1136658	-		OTH Found	CNIT	-0.59	0.938	RNA	1136525.0	1136582.0	1136658.0	1136614.0
antisense_560	1137357	-	CP066486.1 (709886-710577)	True	QRNA	3.031	-0.915	RNA	1136662.0	1136662.0	1137356.0	1137356.0
antisense_561	1137505	-		OTH Found	CNIT	-0.762	2.646	RNA	1137357.0	1137359.0	1137505.0	1137370.0
antisense_562	1138374	-	CP065357.1 (321269-322127)	True	QRNA	33.882	2.752	RNA	1137513.0	1137513.0	1138374.0	1138374.0
antisense_563	1140975	+	CP020867.1 (1754199-1753314)	True	QRNA	16.893	0.732	RNA	1140977.0	1140977.0	1141836.0	1141836.0
antisense_564	1151453	+		OTH Found	CNIT	-0.398	-0.964	RNA	1151453.0	1151835.0	1152315.0	1151897.0
antisense_565	1155276	-		OTH Found	CNIT	-0.526	0.31	RNA	1154430.0	1155157.0	1155276.0	1155183.0
antisense_566	1155549	-		OTH Found	CNIT	-0.595	0.995	RNA	1155276.0	1155393.0	1155549.0	1155410.0
antisense_567	1155959	+		OTH Found	CNIT	-0.467	-0.277	RNA	1155959.0	1156252.0	1156821.0	1156299.0
antisense_568	1159127	-	CP053830.1 (1004722-1003868)	True	QRNA	13.139	-0.185	COD	1158266.0	1158293.0	1159123.0	1159027.0
antisense_569	1159471	-		OTH Found	CNIT	-0.58	0.842	RNA	1159127.0	1159277.0	1159471.0	1159339.0
antisense_570	1159818	-		OTH Found	CNIT	-0.619	1.233	RNA	1159471.0	1159732.0	1159818.0	1159746.0
antisense_571	1160187	-		OTH Found	CNIT	-0.571	0.749	RNA	1159818.0	1159858.0	1160187.0	1159884.0
antisense_572	1160632	-		OTH Found	CNIT	-0.421	-0.736	RNA	1160187.0	1160428.0	1160632.0	1160469.0
antisense_573	1160684	-		OTH Found	CNIT	-0.691	1.945	RNA	1160632.0	1160662.0	1160684.0	1160679.0
antisense_574	1161903	-	CP059597.1 (811188-810336)	True	QRNA	19.063	0.99	RNA	1161047.0	1161047.0	1161902.0	1161902.0
antisense_575	1162115	-		OTH Found	CNIT	-0.62	1.235	RNA	1161903.0	1161903.0	1162115.0	1161929.0
antisense_576	1164390	-	CP059373.1 (436724-437582)	True	QRNA	13.945	0.382	RNA	1163529.0	1163529.0	1164387.0	1164387.0
antisense_577	1164897	-	CP076657.1 (1091256-1090757)	True	QRNA	18.232	0.892	RNA	1164391.0	1164391.0	1164895.0	1164895.0
antisense_578	1165758	-		OTH Found	CNIT	-0.462	-0.332	RNA	1164897.0	1165486.0	1165758.0	1165578.0
antisense_579	1165937	-	CP068172.1 (1247973-1248148)	False	QRNA	2.245	-0.917	COD	1165761.0	1165799.0	1165934.0	1165888.0
antisense_580	1165997	-		OTH Found	CNIT	-0.583	0.868	RNA	1165937.0	1165950.0	1165997.0	1165970.0
antisense_581	1166185	-		OTH Found	CNIT	-0.661	1.644	RNA	1165997.0	1166166.0	1166185.0	1166183.0
antisense_582	1168627	-	CP041617.1 (720795-719956)	True	QRNA	11.775	0.124	RNA	1167782.0	1167782.0	1168627.0	1168627.0
antisense_583	1169397	-	CP076657.1 (1095772-1095006)	True	QRNA	16.48	0.683	RNA	1168628.0	1168628.0	1169397.0	1169397.0
antisense_584	1170180	+		OTH Found	CNIT	-0.462	-0.328	RNA	1170180.0	1170819.0	1171042.0	1170872.0
antisense_585	1172618	-		OTH Found	CNIT	-0.51	0.152	RNA	1171963.0	1172543.0	1172618.0	1172596.0
antisense_586	1173452	+	CP046317.1 (412588-411722)	True	QRNA	8.809	-0.229	RNA	1173453.0	1173453.0	1174313.0	1174313.0
antisense_588	1175836	+		OTH Found	CNIT	-0.55	0.543	RNA	1175836.0	1175841.0	1176107.0	1175867.0
antisense_589	1176107	+		OTH Found	CNIT	-0.588	0.921	RNA	1176107.0	1176225.0	1176552.0	1176257.0
antisense_590	1176552	+	CP092025.1 (1110091-1110155)	False	QRNA	10.59	-0.356	COD	1176557.0	1176572.0	1176621.0	1176604.0
antisense_591	1176623	+		OTH Found	CNIT	-0.43	-0.643	RNA	1176623.0	1176973.0	1177485.0	1177017.0
antisense_592	1178320	+		OTH Found	CNIT	-0.513	0.179	RNA	1178320.0	1178759.0	1179182.0	1178797.0
antisense_593	1182642	+		OTH Found	CNIT	-0.509	0.135	RNA	1182642.0	1182944.0	1183504.0	1182988.0
antisense_594	1184908	+		OTH Found	CNIT	-0.481	-0.14	RNA	1184908.0	1185140.0	1185770.0	1185226.0
antisense_595	1186486	+	OU701461.1 (1106058-1106911)	False	QRNA	7.529	-0.562	COD	1186488.0	1186489.0	1187347.0	1187345.0
antisense_596	1192824	-		OTH Found	CNIT	-0.613	1.169	RNA	1192477.0	1192548.0	1192824.0	1192577.0
antisense_597	1193014	-		OTH Found	CNIT	-0.575	0.789	RNA	1192824.0	1192871.0	1193014.0	1192888.0
antisense_598	1194914	-	CP044163.1 (151556-150692)	True	QRNA	12.98	0.267	RNA	1194053.0	1194053.0	1194914.0	1194914.0
antisense_599	1201500	-	CP076657.1 (1120866-1120274)	True	QRNA	14.907	0.496	RNA	1200905.0	1200905.0	1201500.0	1201500.0
antisense_600	1208733	+		OTH Found	CNIT	-0.671	1.748	RNA	1208733.0	1208747.0	1209050.0	1208755.0
antisense_601	1210967	-		OTH Found	CNIT	0.527	-2.023	COD	1210105.0	1210555.0	1210967.0	1210935.0
antisense_602	1211513	-		OTH Found	CNIT	-0.503	0.078	RNA	1210967.0	1211208.0	1211513.0	1211237.0
antisense_603	1211576	-		OTH Found	CNIT	-0.67	1.734	RNA	1211513.0	1211560.0	1211576.0	1211574.0
antisense_604	1215840	+		OTH Found	CNIT	-0.455	-0.395	RNA	1215840.0	1215916.0	1215982.0	1215969.0
antisense_605	1215982	+		OTH Found	CNIT	-0.373	-1.212	RNA	1215982.0	1216395.0	1216844.0	1216523.0
antisense_606	1219840	+		OTH Found	CNIT	-0.373	-1.213	RNA	1219840.0	1220145.0	1220702.0	1220285.0
antisense_607	1223504	+		OTH Found	CNIT	-0.479	-0.155	RNA	1223504.0	1224115.0	1224366.0	1224195.0
antisense_608	1227090	+	CP020478.1 (449073-448220)	False	QRNA	14.44	-0.097	COD	1227098.0	1227154.0	1227951.0	1227937.0
antisense_609	1233535	+		OTH Found	CNIT	-0.435	-0.599	RNA	1233535.0	1233672.0	1234397.0	1233734.0
antisense_610	1234710	+		OTH Found	CNIT	-0.966	4.668	RNA	1234710.0	1234713.0	1234748.0	1234721.0
antisense_611	1234748	+		OTH Found	CNIT	-0.441	-0.534	RNA	1234748.0	1235351.0	1235502.0	1235416.0
antisense_612	1235502	+		OTH Found	CNIT	-0.524	0.291	RNA	1235502.0	1235503.0	1235649.0	1235556.0
antisense_613	1235649	+		OTH Found	CNIT	-0.587	0.909	RNA	1235649.0	1235812.0	1236073.0	1235865.0
antisense_614	1236073	+	LR134534.1 (1197836-1198679)	True	QRNA	14.551	0.454	RNA	1236075.0	1236075.0	1236918.0	1236918.0
antisense_615	1240123	+		OTH Found	CNIT	-0.559	0.638	RNA	1240123.0	1240187.0	1240698.0	1240219.0
antisense_616	1241704	-	CP059682.1 (1458905-1458095)	False	QRNA	18.998	0.209	COD	1240897.0	1240917.0	1241704.0	1241696.0
antisense_617	1242733	+		OTH Found	CNIT	-0.56	0.647	RNA	1242733.0	1242854.0	1243053.0	1242907.0
antisense_618	1244459	-		OTH Found	CNIT	0.689	2.086	COD	1243597.0	1244125.0	1244459.0	1244457.0
antisense_619	1245176	+	CP059374.1 (250809-249945)	True	QRNA	13.236	0.298	RNA	1245178.0	1245178.0	1246037.0	1246037.0
antisense_620	1255742	+		OTH Found	CNIT	-0.429	-0.651	RNA	1255742.0	1255930.0	1256449.0	1256001.0
antisense_621	1256449	+	CP007775.1 (1449417-1450126)	False	QRNA	7.944	-0.534	COD	1256453.0	1256453.0	1257162.0	1257141.0
antisense_622	1259367	-		OTH Found	CNIT	-0.458	-0.368	RNA	1258505.0	1259304.0	1259367.0	1259366.0
antisense_623	1260782	-	CP059597.1 (330484-331346)	True	QRNA	37.897	3.23	RNA	1259921.0	1259921.0	1260781.0	1260781.0
antisense_624	1263621	+		OTH Found	CNIT	-0.47	-0.25	RNA	1263621.0	1264021.0	1264483.0	1264047.0
antisense_625	1264951	-		OTH Found	CNIT	-0.53	0.347	RNA	1264616.0	1264756.0	1264951.0	1264845.0
antisense_626	1266267	+		OTH Found	CNIT	-0.48	-0.154	RNA	1266267.0	1266353.0	1267129.0	1266382.0
antisense_627	1269104	+		OTH Found	CNIT	-0.628	1.322	RNA	1269104.0	1269203.0	1269322.0	1269229.0
antisense_628	1269322	+		OTH Found	CNIT	-0.497	0.017	RNA	1269322.0	1269639.0	1269923.0	1269701.0
antisense_629	1270850	-		OTH Found	CNIT	-0.424	-0.702	RNA	1270039.0	1270566.0	1270850.0	1270640.0
antisense_630	1274501	-	CP010473.1 (824114-823541)	True	QRNA	4.898	-0.694	RNA	1273925.0	1273993.0	1274501.0	1274501.0
antisense_631	1274850	+	CP059597.1 (316582-315731)	True	QRNA	16.475	0.683	RNA	1274850.0	1274850.0	1275711.0	1275711.0
antisense_632	1282448	-		OTH Found	CNIT	-0.444	-0.509	RNA	1281586.0	1281937.0	1282448.0	1281978.0
antisense_633	1284063	-	CP059682.1 (976539-977363)	True	QRNA	2.814	-0.941	RNA	1283233.0	1283233.0	1284063.0	1284063.0
antisense_634	1284855	-	CP041617.1 (907663-906915)	True	QRNA	19.281	1.016	RNA	1284096.0	1284096.0	1284843.0	1284843.0
antisense_635	1292318	-		OTH Found	CNIT	-0.476	-0.193	RNA	1291456.0	1292182.0	1292318.0	1292241.0
antisense_636	1292980	-		OTH Found	CNIT	-0.495	0.003	RNA	1292318.0	1292727.0	1292980.0	1292768.0
antisense_637	1294646	+		OTH Found	CNIT	-0.501	0.059	RNA	1294646.0	1294933.0	1295508.0	1294980.0
antisense_638	1298483	-		OTH Found	CNIT	-0.388	-1.06	RNA	1297621.0	1297675.0	1298483.0	1297749.0
antisense_639	1298799	-	CP000767.2 (533237-532931)	False	QRNA	10.19	-0.383	COD	1298484.0	1298489.0	1298790.0	1298659.0
antisense_640	1300402	-	OU701461.1 (974221-975076)	True	QRNA	11.942	0.144	RNA	1299541.0	1299541.0	1300402.0	1300402.0
antisense_641	1301929	-		OTH Found	CNIT	-0.507	0.118	RNA	1301067.0	1301553.0	1301929.0	1301585.0
antisense_642	1303267	-		OTH Found	CNIT	-0.436	-0.588	RNA	1302405.0	1302625.0	1303267.0	1302663.0
antisense_643	1303504	-		OTH Found	CNIT	-0.422	-0.723	RNA	1303267.0	1303311.0	1303504.0	1303439.0
antisense_644	1303652	-		OTH Found	CNIT	-0.432	-0.622	RNA	1303504.0	1303532.0	1303652.0	1303606.0
antisense_645	1310005	-	CP031611.1 (146167-146985)	True	QRNA	33.203	2.671	RNA	1309185.0	1309185.0	1310001.0	1310001.0
antisense_646	1312867	-		OTH Found	CNIT	-0.509	0.141	RNA	1312299.0	1312440.0	1312867.0	1312472.0
antisense_647	1325230	+		OTH Found	CNIT	-0.528	0.322	RNA	1325230.0	1325524.0	1325625.0	1325583.0
antisense_648	1325625	+		OTH Found	CNIT	-0.529	0.333	RNA	1325625.0	1325935.0	1326487.0	1325994.0
antisense_649	1327514	+		OTH Found	CNIT	-0.459	-0.359	RNA	1327514.0	1328000.0	1328376.0	1328086.0
antisense_650	1333879	+		OTH Found	CNIT	-0.574	0.778	RNA	1333879.0	1333974.0	1334457.0	1334057.0
antisense_651	1335312	-		OTH Found	CNIT	-0.448	-0.466	RNA	1334457.0	1334894.0	1335312.0	1334929.0
antisense_652	1340804	+	CP007183.1 (858911-858289)	True	QRNA	19.506	1.043	RNA	1340804.0	1340804.0	1341398.0	1341398.0
antisense_653	1341399	+		OTH Found	CNIT	-0.557	0.616	RNA	1341399.0	1342168.0	1342261.0	1342197.0
antisense_654	1342990	+	CP010058.1 (1260540-1261399)	True	QRNA	10.061	-0.08	RNA	1342990.0	1342990.0	1343851.0	1343851.0
antisense_655	1348025	+	CP027403.1 (1250337-1249665)	True	QRNA	10.52	-0.025	RNA	1348025.0	1348025.0	1348683.0	1348683.0
antisense_656	1349404	+		OTH Found	CNIT	-0.56	0.642	RNA	1349404.0	1349610.0	1349685.0	1349642.0
antisense_657	1349685	+	CP066243.1 (402306-403155)	True	QRNA	15.321	0.546	RNA	1349685.0	1349685.0	1350546.0	1350400.0
antisense_658	1351771	+		OTH Found	CNIT	-0.402	-0.923	RNA	1351771.0	1352518.0	1352633.0	1352625.0
antisense_659	1355773	+		OTH Found	CNIT	-0.492	-0.033	RNA	1355773.0	1356051.0	1356635.0	1356080.0
antisense_660	1357815	+		OTH Found	CNIT	-0.495	-0.001	RNA	1357815.0	1358534.0	1358677.0	1358572.0
antisense_661	1359415	+		OTH Found	CNIT	-0.379	-1.152	RNA	1359415.0	1359899.0	1360277.0	1360000.0
antisense_662	1360542	+	CP066243.1 (1341417-1340569)	True	QRNA	10.264	-0.056	RNA	1360542.0	1360542.0	1361403.0	1361403.0
antisense_663	1363986	+	CP043428.1 (811672-811794)	False	QRNA	6.749	-0.614	COD	1363986.0	1363989.0	1364108.0	1364105.0
antisense_664	1364109	+		OTH Found	CNIT	-0.459	-0.359	RNA	1364109.0	1364564.0	1364971.0	1364593.0
antisense_665	1367063	+	CP000932.1 (818977-819688)	True	QRNA	12.461	0.206	RNA	1367063.0	1367063.0	1367777.0	1367777.0
antisense_666	1367803	+		OTH Found	CNIT	-0.49	-0.054	RNA	1367803.0	1367878.0	1367973.0	1367949.0
antisense_667	1367973	+		OTH Found	CNIT	-0.483	-0.116	RNA	1367973.0	1368433.0	1368835.0	1368468.0
antisense_668	1369134	+	CP007770.1 (804899-805753)	True	QRNA	22.307	1.376	RNA	1369134.0	1369134.0	1369988.0	1369988.0
antisense_669	1381614	-		OTH Found	CNIT	-0.38	-1.143	RNA	1380926.0	1381041.0	1381614.0	1381211.0
antisense_670	1392235	-		OTH Found	CNIT	-0.489	-0.065	RNA	1391373.0	1391604.0	1392235.0	1391651.0
antisense_671	1392926	-		OTH Found	CNIT	-0.731	2.342	RNA	1392235.0	1392467.0	1392926.0	1392481.0
antisense_672	1393404	-		OTH Found	CNIT	-0.561	0.65	RNA	1392926.0	1393178.0	1393404.0	1393213.0
antisense_673	1395134	-	CP027403.1 (868270-869089)	True	QRNA	30.682	2.372	RNA	1394306.0	1394306.0	1395119.0	1395119.0
antisense_674	1395386	-		OTH Found	CNIT	-0.48	-0.145	RNA	1395134.0	1395201.0	1395386.0	1395254.0
antisense_675	1397412	+		OTH Found	CNIT	-0.423	-0.716	RNA	1397412.0	1397537.0	1397887.0	1397629.0
antisense_676	1397887	+		OTH Found	CNIT	-0.502	0.067	RNA	1397887.0	1398136.0	1398283.0	1398162.0
antisense_677	1401612	+	CP059597.1 (977224-978081)	False	QRNA	20.247	0.293	COD	1401616.0	1401657.0	1402473.0	1402466.0
antisense_678	1404496	-	CP043427.1 (1561982-1562457)	True	QRNA	6.409	-0.514	RNA	1404024.0	1404024.0	1404496.0	1404496.0
antisense_679	1405029	-		OTH Found	CNIT	-0.468	-0.27	RNA	1404496.0	1404521.0	1405029.0	1404598.0
antisense_680	1406397	-		OTH Found	CNIT	-0.453	-0.417	RNA	1405535.0	1405775.0	1406397.0	1405801.0
antisense_681	1411389	-	CP083395.1 (521031-520181)	True	QRNA	9.175	-0.185	RNA	1410528.0	1410528.0	1411387.0	1411387.0
antisense_682	1411865	-		OTH Found	CNIT	-0.463	-0.319	RNA	1411389.0	1411738.0	1411865.0	1411779.0
antisense_683	1413244	-	CP059597.1 (982221-981483)	True	QRNA	28.019	2.055	RNA	1412506.0	1412506.0	1413244.0	1413244.0
antisense_684	1413970	-		OTH Found	CNIT	-0.453	-0.415	RNA	1413244.0	1413785.0	1413970.0	1413826.0
antisense_685	1414395	-		OTH Found	CNIT	-0.579	0.836	RNA	1413970.0	1414197.0	1414395.0	1414217.0
antisense_686	1414728	-		OTH Found	CNIT	-0.585	0.896	RNA	1414395.0	1414441.0	1414728.0	1414485.0
antisense_687	1414922	-		OTH Found	CNIT	-0.672	1.75	RNA	1414728.0	1414829.0	1414922.0	1414876.0
antisense_688	1417062	-	CP063536.1 (1140070-1139220)	True	QRNA	9.295	-0.171	RNA	1416202.0	1416202.0	1417060.0	1417060.0
antisense_689	1417644	-		OTH Found	CNIT	-0.505	0.1	RNA	1417062.0	1417565.0	1417644.0	1417591.0
antisense_690	1418180	-	CP058336.1 (1324588-1324054)	True	QRNA	11.473	0.088	RNA	1417645.0	1417645.0	1418164.0	1418164.0
antisense_691	1418969	-	AP026011.1 (1249236-1248603)	True	QRNA	13.596	0.341	RNA	1418342.0	1418342.0	1418969.0	1418969.0
antisense_692	1423827	+		OTH Found	CNIT	-0.495	-0.003	RNA	1423827.0	1424230.0	1424689.0	1424283.0
antisense_693	1425329	+	HG326877.1 (753058-752209)	True	QRNA	23.343	1.499	RNA	1425329.0	1425329.0	1426190.0	1426190.0
antisense_694	1427149	+	CP063536.1 (1146543-1147406)	True	QRNA	17.395	0.792	RNA	1427149.0	1427149.0	1428010.0	1428010.0
antisense_695	1429887	+	CP063091.1 (679679-678890)	True	QRNA	17.014	0.747	RNA	1429891.0	1429891.0	1430680.0	1430680.0
antisense_696	1430681	+	CP053830.1 (1477225-1478070)	True	QRNA	15.531	0.571	RNA	1430683.0	1430683.0	1431534.0	1431109.0
antisense_697	1437215	-	CP059373.1 (202207-203116)	True	QRNA	10.629	-0.012	RNA	1436354.0	1436354.0	1437215.0	1437215.0
antisense_698	1438587	-	CP076657.1 (686254-685455)	True	QRNA	7.82	-0.346	RNA	1437781.0	1437863.0	1438580.0	1438580.0
antisense_699	1439686	-		OTH Found	CNIT	-0.497	0.018	RNA	1438824.0	1439442.0	1439686.0	1439513.0
antisense_700	1443997	-		OTH Found	CNIT	-0.532	0.365	RNA	1443719.0	1443873.0	1443997.0	1443905.0
antisense_701	1444702	-	CP063083.1 (1076824-1076120)	False	QRNA	26.419	0.708	COD	1443998.0	1444011.0	1444702.0	1444610.0
antisense_702	1446590	+		OTH Found	CNIT	0.574	-0.835	COD	1446590.0	1446963.0	1447452.0	1447202.0
antisense_703	1454591	+		OTH Found	CNIT	-0.669	1.722	RNA	1454591.0	1454610.0	1454710.0	1454624.0
antisense_704	1454710	+		OTH Found	CNIT	-0.431	-0.638	RNA	1454710.0	1454713.0	1455446.0	1454811.0
antisense_705	1455446	+		OTH Found	CNIT	-0.487	-0.078	RNA	1455446.0	1455915.0	1456308.0	1456043.0
antisense_706	1457586	+		OTH Found	CNIT	-0.468	-0.271	RNA	1457586.0	1458357.0	1458448.0	1458404.0
antisense_707	1458456	+		OTH Found	CNIT	-0.575	0.789	RNA	1458456.0	1458837.0	1459318.0	1458875.0
antisense_708	1460796	-		OTH Found	CNIT	-0.549	0.53	RNA	1460265.0	1460268.0	1460796.0	1460288.0
antisense_709	1463818	-		OTH Found	CNIT	-0.444	-0.511	RNA	1462956.0	1462969.0	1463818.0	1463013.0
antisense_710	1466525	-		OTH Found	CNIT	-0.494	-0.008	RNA	1465663.0	1465851.0	1466525.0	1465910.0
antisense_711	1466805	-		OTH Found	CNIT	-0.409	-0.855	RNA	1466525.0	1466610.0	1466805.0	1466750.0
antisense_712	1468339	-		OTH Found	CNIT	0.608	0.043	COD	1467687.0	1468095.0	1468339.0	1468316.0
antisense_713	1468457	-		OTH Found	CNIT	-0.681	1.847	RNA	1468339.0	1468441.0	1468457.0	1468455.0
antisense_714	1473530	-		OTH Found	CNIT	-0.481	-0.139	RNA	1472668.0	1472742.0	1473530.0	1472792.0
antisense_715	1476483	+		OTH Found	CNIT	-0.824	3.265	RNA	1476483.0	1476521.0	1476576.0	1476532.0
antisense_716	1476576	+		OTH Found	CNIT	-0.584	0.879	RNA	1476576.0	1476747.0	1476974.0	1476773.0
antisense_717	1477330	-	CP059599.1 (1312276-1311878)	True	QRNA	4.399	-0.753	RNA	1476942.0	1476942.0	1477330.0	1477330.0
antisense_718	1478871	-		OTH Found	CNIT	-0.529	0.334	RNA	1478009.0	1478095.0	1478871.0	1478163.0
antisense_719	1479171	+		OTH Found	CNIT	-0.502	0.063	RNA	1479171.0	1479430.0	1479751.0	1479462.0
antisense_720	1480751	-		OTH Found	CNIT	-0.456	-0.386	RNA	1479889.0	1480547.0	1480751.0	1480639.0
antisense_721	1484451	-		OTH Found	CNIT	-0.424	-0.707	RNA	1483589.0	1483599.0	1484451.0	1483691.0
antisense_722	1485533	-	CP028187.1 (1080212-1081070)	True	QRNA	21.143	1.238	RNA	1484672.0	1484672.0	1485533.0	1485533.0
antisense_723	1486729	-	CP076657.1 (1000378-1001238)	True	QRNA	10.746	0.002	RNA	1485870.0	1486112.0	1486729.0	1486729.0
antisense_724	1487671	+	CP059373.1 (153219-152359)	False	QRNA	37.044	1.422	COD	1487671.0	1487828.0	1488531.0	1488415.0
antisense_725	1491127	+		OTH Found	CNIT	-0.477	-0.179	RNA	1491127.0	1491224.0	1491989.0	1491265.0
antisense_726	1499467	+		OTH Found	CNIT	-0.677	1.801	RNA	1499467.0	1499472.0	1499663.0	1499492.0
antisense_727	1499663	+	CP020478.1 (140046-139564)	False	QRNA	11.751	-0.278	COD	1499671.0	1499750.0	1500153.0	1500106.0
antisense_728	1500156	+	CP020867.1 (1480396-1479492)	True	QRNA	9.743	-0.118	RNA	1500157.0	1500157.0	1501016.0	1501016.0
antisense_729	1504201	+	CP066243.1 (1199842-1198991)	True	QRNA	17.82	0.843	RNA	1504201.0	1504201.0	1505062.0	1505062.0
antisense_730	1508561	+	CP007770.1 (269269-268709)	True	QRNA	18.583	0.933	RNA	1508562.0	1508562.0	1509118.0	1509118.0
antisense_731	1509119	+		OTH Found	CNIT	-0.529	0.336	RNA	1509119.0	1509572.0	1509981.0	1509610.0
antisense_732	1517379	+	CP066243.1 (1186818-1185975)	True	QRNA	30.312	2.328	RNA	1517379.0	1517379.0	1518239.0	1518239.0
antisense_733	1519162	+		OTH Found	CNIT	-0.66	1.64	RNA	1519162.0	1519403.0	1519425.0	1519417.0
antisense_734	1519425	+	CP066243.1 (1184797-1183947)	True	QRNA	18.365	0.907	RNA	1519425.0	1519425.0	1520286.0	1520286.0
antisense_735	1528451	-	CP076657.1 (304416-305272)	True	QRNA	23.975	1.574	RNA	1527590.0	1527659.0	1528451.0	1528451.0
antisense_736	1530592	+		OTH Found	CNIT	-0.446	-0.488	RNA	1530592.0	1530807.0	1531132.0	1530869.0
antisense_737	1532846	+	CP007769.1 (394245-393390)	True	QRNA	18.539	0.928	RNA	1532852.0	1532852.0	1533707.0	1533707.0
antisense_738	1535629	-	CP020867.1 (347382-348225)	True	QRNA	28.098	2.065	RNA	1534772.0	1534772.0	1535622.0	1535622.0
antisense_739	1536243	-	CP091310.1 (1012314-1011718)	False	QRNA	16.368	0.032	COD	1535642.0	1535913.0	1536238.0	1536227.0
antisense_740	1538340	-		OTH Found	CNIT	-0.445	-0.495	RNA	1537478.0	1538121.0	1538340.0	1538174.0
antisense_741	1538753	-		OTH Found	CNIT	-0.47	-0.25	RNA	1538340.0	1538648.0	1538753.0	1538677.0
antisense_742	1539510	-		OTH Found	CNIT	-0.509	0.139	RNA	1538753.0	1539335.0	1539510.0	1539355.0
antisense_743	1543488	+	CP007181.1 (1489157-1490005)	True	QRNA	11.618	0.105	RNA	1543492.0	1543538.0	1544347.0	1544347.0
antisense_744	1546630	+	OU701459.1 (144179-143370)	True	QRNA	13.599	0.341	RNA	1546631.0	1546631.0	1547445.0	1547445.0
antisense_745	1552685	+		OTH Found	CNIT	-0.425	-0.693	RNA	1552685.0	1552840.0	1553547.0	1552914.0
antisense_746	1557794	+		OTH Found	CNIT	-0.492	-0.029	RNA	1557794.0	1558098.0	1558656.0	1558172.0
antisense_747	1559556	+	CP059597.1 (1157863-1158713)	True	QRNA	11.031	0.036	RNA	1559563.0	1559563.0	1560416.0	1560416.0
antisense_748	1564408	+		OTH Found	CNIT	-0.517	0.214	RNA	1564408.0	1564812.0	1565270.0	1564841.0
antisense_749	1568670	+	CP059374.1 (1680113-1679269)	True	QRNA	4.887	-0.695	RNA	1568670.0	1568670.0	1569531.0	1569531.0
antisense_750	1572583	-		OTH Found	CNIT	-0.439	-0.553	RNA	1571721.0	1572229.0	1572583.0	1572309.0
antisense_751	1572999	+	LR134372.1 (1576426-1576052)	False	QRNA	30.408	0.976	COD	1573002.0	1573036.0	1573376.0	1573335.0
antisense_752	1573383	+	OU701459.1 (1491636-1490783)	False	QRNA	6.544	-0.628	COD	1573390.0	1573390.0	1574242.0	1573983.0
antisense_753	1574757	+	CP041617.1 (1559950-1559089)	False	QRNA	50.771	2.344	COD	1574757.0	1574757.0	1575618.0	1575617.0
antisense_754	1575926	+	LR134372.1 (1573483-1573256)	False	QRNA	5.902	-0.671	COD	1575929.0	1575933.0	1576156.0	1576122.0
antisense_755	1576172	+		OTH Found	CNIT	-0.529	0.334	RNA	1576172.0	1576820.0	1577034.0	1576855.0
antisense_756	1579382	+		OTH Found	CNIT	0.575	-0.808	COD	1579382.0	1579672.0	1580070.0	1579965.0
antisense_757	1580070	+	CP076657.1 (1404701-1405565)	True	QRNA	12.76	0.241	RNA	1580070.0	1580070.0	1580931.0	1580931.0
antisense_758	1581274	+	CP059597.1 (1172530-1173360)	True	QRNA	8.829	-0.226	RNA	1581276.0	1581276.0	1582135.0	1582135.0
antisense_759	1582659	+		OTH Found	CNIT	-0.444	-0.503	RNA	1582659.0	1583010.0	1583521.0	1583063.0
antisense_760	1587242	+		OTH Found	CNIT	-0.361	-1.334	RNA	1587242.0	1587506.0	1588104.0	1587664.0
antisense_761	1593127	-		OTH Found	CNIT	-0.461	-0.334	RNA	1592265.0	1593061.0	1593127.0	1593111.0
antisense_762	1599686	-		OTH Found	CNIT	-0.464	-0.307	RNA	1598846.0	1599032.0	1599686.0	1599082.0
antisense_763	1599978	-		OTH Found	CNIT	-0.39	-1.044	RNA	1599686.0	1599848.0	1599978.0	1599955.0
antisense_764	1602276	-	CP076657.1 (273199-274061)	True	QRNA	20.969	1.217	RNA	1601415.0	1601415.0	1602275.0	1602275.0
antisense_765	1603396	-	CP063091.1 (1331378-1332203)	True	QRNA	9.751	-0.117	RNA	1602553.0	1602553.0	1603393.0	1603393.0
antisense_766	1604248	+		OTH Found	CNIT	-0.644	1.476	RNA	1604248.0	1604267.0	1604437.0	1604278.0
antisense_767	1604437	+	CP063536.1 (1345193-1345997)	True	QRNA	16.378	0.671	RNA	1604438.0	1604438.0	1605298.0	1605298.0
antisense_768	1610388	+	CP020478.1 (347119-347491)	True	QRNA	32.469	1.114	COD	1610389.0	1610400.0	1610761.0	1610759.0
antisense_769	1610768	+		OTH Found	CNIT	-0.434	-0.604	RNA	1610768.0	1610803.0	1610850.0	1610838.0
antisense_770	1614597	+		OTH Found	CNIT	-0.485	-0.105	RNA	1614597.0	1614598.0	1615459.0	1614654.0
antisense_771	1616445	-		OTH Found	CNIT	-0.524	0.288	RNA	1616102.0	1616303.0	1616445.0	1616359.0
antisense_772	1622322	-		OTH Found	CNIT	-0.567	0.712	RNA	1621460.0	1621578.0	1622322.0	1621610.0
antisense_773	1622391	-	CP059364.1 (1472730-1472662)	False	QRNA	-0.151	-1.058	COD	1622323.0	1622325.0	1622391.0	1622384.0
antisense_774	1623694	-	AP025979.1 (1588153-1587313)	True	QRNA	17.15	0.763	RNA	1622833.0	1622833.0	1623694.0	1623694.0
antisense_775	1623950	-		OTH Found	CNIT	-0.532	0.368	RNA	1623694.0	1623820.0	1623950.0	1623849.0
antisense_776	1624230	-		OTH Found	CNIT	-0.678	1.814	RNA	1623950.0	1623955.0	1624230.0	1623978.0
antisense_777	1626635	-		OTH Found	CNIT	-0.559	0.636	RNA	1625773.0	1626427.0	1626635.0	1626468.0
antisense_778	1627775	+	CP013032.1 (284600-283764)	False	QRNA	6.276	-0.646	COD	1627801.0	1627808.0	1628634.0	1628560.0
antisense_779	1630776	-	CP059373.1 (4463-5321)	True	QRNA	20.053	1.108	RNA	1629915.0	1629915.0	1630775.0	1630775.0
antisense_780	1633479	-		OTH Found	CNIT	-0.581	0.852	RNA	1632979.0	1633078.0	1633479.0	1633101.0
antisense_781	1634156	-	CP065357.1 (834485-833813)	True	QRNA	15.736	0.595	RNA	1633484.0	1633484.0	1634152.0	1634152.0
antisense_782	1639296	+		OTH Found	CNIT	-0.529	0.339	RNA	1639296.0	1639316.0	1639644.0	1639405.0
antisense_783	1639644	+		OTH Found	CNIT	-0.438	-0.568	RNA	1639644.0	1640316.0	1640506.0	1640369.0
antisense_784	1647401	+		OTH Found	CNIT	-0.487	-0.083	RNA	1647401.0	1647575.0	1648263.0	1647628.0
antisense_785	1651105	+		OTH Found	CNIT	-0.585	0.891	RNA	1651105.0	1651206.0	1651380.0	1651304.0
antisense_786	1651380	+	CP059597.1 (1405454-1404617)	True	QRNA	18.714	0.949	RNA	1651381.0	1651381.0	1652218.0	1652218.0
antisense_787	1652241	+	CP059597.1 (1404583-1403738)	True	QRNA	15.203	0.532	RNA	1652252.0	1652252.0	1653097.0	1652873.0
antisense_788	1654088	+		OTH Found	CNIT	-0.597	1.009	RNA	1654088.0	1654148.0	1654286.0	1654162.0
antisense_789	1654286	+	CP076657.1 (172551-171713)	True	QRNA	16.384	0.672	RNA	1654286.0	1654286.0	1655124.0	1655124.0
antisense_790	1655257	+		OTH Found	CNIT	-0.521	0.26	RNA	1655257.0	1655490.0	1655691.0	1655519.0
antisense_791	1655691	+		OTH Found	CNIT	-0.56	0.641	RNA	1655691.0	1655856.0	1656127.0	1655906.0
antisense_792	1656127	+	CP010058.1 (1585851-1586721)	True	QRNA	16.171	0.647	RNA	1656131.0	1656131.0	1656988.0	1656988.0
antisense_793	1659901	+		OTH Found	CNIT	-0.385	-1.094	RNA	1659901.0	1660177.0	1660309.0	1660266.0
antisense_794	1660309	+		OTH Found	CNIT	-0.498	0.025	RNA	1660309.0	1660475.0	1661171.0	1660543.0
antisense_795	1662814	-		OTH Found	CNIT	-0.517	0.22	RNA	1662187.0	1662773.0	1662814.0	1662796.0
antisense_796	1666809	-		OTH Found	CNIT	-0.534	0.384	RNA	1665947.0	1666364.0	1666809.0	1666429.0
antisense_797	1667993	-		OTH Found	CNIT	-0.423	-0.718	RNA	1667131.0	1667892.0	1667993.0	1667990.0
antisense_798	1668721	-	OU701459.1 (230895-231622)	False	QRNA	17.703	0.122	COD	1667994.0	1668052.0	1668721.0	1668702.0
antisense_799	1669126	-		OTH Found	CNIT	-0.541	0.453	RNA	1668721.0	1668931.0	1669126.0	1668951.0
antisense_800	1677214	-		OTH Found	CNIT	-0.442	-0.529	RNA	1676352.0	1676673.0	1677214.0	1676726.0
antisense_801	1677290	-	CP041617.1 (1309073-1308998)	False	QRNA	5.266	-0.714	COD	1677215.0	1677252.0	1677290.0	1677290.0
antisense_802	1677433	-		OTH Found	CNIT	-0.529	0.341	RNA	1677290.0	1677340.0	1677433.0	1677357.0
antisense_803	1679005	-	CP037747.1 (1570599-1571421)	True	QRNA	9.658	-0.128	RNA	1678182.0	1678182.0	1679005.0	1679005.0
antisense_804	1680975	-	CP059974.1 (1688262-1687418)	False	QRNA	18.453	0.172	COD	1680126.0	1680137.0	1680970.0	1680742.0
antisense_805	1683631	-	CP063536.1 (1402372-1401545)	True	QRNA	19.148	1.001	RNA	1682770.0	1682770.0	1683624.0	1683531.0
antisense_806	1684860	-	CP059597.1 (1219914-1219050)	False	QRNA	13.63	-0.152	COD	1683999.0	1684252.0	1684860.0	1684851.0
antisense_807	1686404	-	CP063091.1 (384242-385102)	True	QRNA	13.191	0.292	RNA	1685543.0	1685543.0	1686403.0	1686403.0
antisense_808	1686546	-		OTH Found	CNIT	-0.506	0.104	RNA	1686404.0	1686409.0	1686546.0	1686435.0
antisense_809	1691290	-		OTH Found	CNIT	0.645	0.959	COD	1690428.0	1690848.0	1691290.0	1691201.0
orphan_26	1695716	+	CP101194.1 (1554542-1554895)	True	QRNA	10.446	-0.034	RNA	1695716.0	1695716.0	1696069.0	1696069.0
antisense_810	1696070	+	CP059597.1 (1229845-1230702)	True	QRNA	7.47	-0.388	RNA	1696072.0	1696072.0	1696929.0	1696929.0
antisense_811	1698148	-	CP076657.1 (39298-38429)	True	QRNA	13.106	0.282	RNA	1697287.0	1697287.0	1698148.0	1698148.0
antisense_812	1698444	-		OTH Found	CNIT	-0.46	-0.35	RNA	1698148.0	1698358.0	1698444.0	1698435.0
antisense_813	1698648	-		OTH Found	CNIT	-0.649	1.522	RNA	1698444.0	1698473.0	1698648.0	1698496.0
antisense_814	1698697	+	CP059373.1 (1523375-1522564)	True	QRNA	8.169	-0.305	RNA	1698702.0	1698702.0	1699498.0	1699498.0
antisense_815	1700879	-		OTH Found	CNIT	-0.458	-0.372	RNA	1700017.0	1700481.0	1700879.0	1700561.0
antisense_816	1700929	-		OTH Found	CNIT	-0.864	3.661	RNA	1700879.0	1700886.0	1700929.0	1700894.0
antisense_817	1701029	+		OTH Found	CNIT	-0.582	0.865	RNA	1701029.0	1701076.0	1701207.0	1701108.0
antisense_818	1701207	+		OTH Found	CNIT	-0.484	-0.109	RNA	1701207.0	1701532.0	1701558.0	1701558.0
antisense_819	1701558	+	LR134372.1 (301760-301000)	False	QRNA	27.585	0.786	COD	1701565.0	1701602.0	1702328.0	1702302.0
antisense_820	1702332	+	CP020867.1 (1422031-1422890)	False	QRNA	3.419	-0.838	COD	1702335.0	1702345.0	1703193.0	1703119.0
antisense_821	1705439	-	CP076657.1 (425337-426179)	True	QRNA	3.115	-0.906	RNA	1704591.0	1704591.0	1705437.0	1705437.0
antisense_822	1707618	-	CP007773.1 (100127-99269)	True	QRNA	10.325	-0.048	RNA	1706759.0	1706759.0	1707617.0	1707617.0
antisense_823	1708016	-	CP000932.1 (97518-97152)	False	QRNA	4.245	-0.783	COD	1707638.0	1707702.0	1708006.0	1707998.0
antisense_824	1721211	+		OTH Found	CNIT	-0.587	0.916	RNA	1721211.0	1721457.0	1721537.0	1721489.0
orphan_27	1722026	-	CP010498.1 (1526516-1525840)	True	QRNA	27.764	2.025	RNA	1721321.0	1721321.0	1722026.0	1722026.0
antisense_825	1722263	-	LS483295.1 (1662065-1661811)	True	QRNA	14.191	0.411	RNA	1722027.0	1722027.0	1722263.0	1722263.0
antisense_826	1724515	-		OTH Found	CNIT	-0.396	-0.982	RNA	1723653.0	1724276.0	1724515.0	1724380.0
antisense_827	1725721	-		OTH Found	CNIT	-0.513	0.182	RNA	1724859.0	1725628.0	1725721.0	1725669.0
antisense_828	1726685	-		OTH Found	CNIT	-0.475	-0.201	RNA	1725823.0	1725931.0	1726685.0	1726014.0
antisense_829	1729142	-		OTH Found	CNIT	-0.377	-1.177	RNA	1728280.0	1728760.0	1729142.0	1728867.0
antisense_830	1730926	+	CP044173.1 (292308-291440)	True	QRNA	23.536	1.522	RNA	1730926.0	1730926.0	1731787.0	1731787.0
antisense_832	1731862	+	CP076657.1 (77291-76439)	True	QRNA	26.074	1.824	RNA	1731862.0	1731862.0	1732713.0	1732713.0
antisense_833	1733474	+		OTH Found	CNIT	-0.538	0.425	RNA	1733474.0	1733494.0	1733617.0	1733517.0
antisense_834	1733617	+		OTH Found	CNIT	-0.819	3.215	RNA	1733617.0	1733636.0	1733705.0	1733650.0
antisense_835	1733705	+	CP022347.1 (1628054-1628910)	False	QRNA	9.507	-0.429	COD	1733710.0	1733710.0	1734566.0	1734533.0
antisense_836	1738274	+		OTH Found	CNIT	-0.718	2.208	RNA	1738274.0	1738333.0	1738405.0	1738344.0
antisense_837	1738405	+	CP066487.1 (1628430-1629276)	True	QRNA	22.865	1.442	RNA	1738406.0	1738544.0	1739265.0	1739265.0
antisense_838	1739575	+		OTH Found	CNIT	-0.376	-1.179	RNA	1739575.0	1740341.0	1740437.0	1740424.0
antisense_839	1742256	+		OTH Found	CNIT	-0.485	-0.097	RNA	1742256.0	1742960.0	1743118.0	1743025.0
antisense_840	1746395	-	CP020867.1 (1888086-1888943)	False	QRNA	14.79	-0.074	COD	1745535.0	1745553.0	1746395.0	1746364.0
antisense_841	1746606	-	CP059597.1 (1483831-1483623)	False	QRNA	6.123	-0.656	COD	1746398.0	1746452.0	1746606.0	1746538.0
antisense_842	1750136	+	CP049263.1 (1858093-1858946)	False	QRNA	16.278	0.026	COD	1750138.0	1750227.0	1750991.0	1750881.0
antisense_843	1757814	+		OTH Found	CNIT	-0.414	-0.81	RNA	1757814.0	1758175.0	1758676.0	1758228.0
antisense_844	1762684	-		OTH Found	CNIT	-0.379	-1.153	RNA	1762216.0	1762323.0	1762684.0	1762427.0
antisense_846	1762897	-		OTH Found	CNIT	-0.549	0.533	RNA	1762684.0	1762790.0	1762897.0	1762822.0
antisense_847	1763853	-	CP029053.1 (1657539-1656701)	True	QRNA	11.834	0.131	RNA	1762992.0	1762992.0	1763853.0	1763853.0
antisense_848	1770700	+		OTH Found	CNIT	-0.492	-0.035	RNA	1770700.0	1770956.0	1771248.0	1771006.0
antisense_849	1773501	+		OTH Found	CNIT	-0.42	-0.742	RNA	1773501.0	1773830.0	1774363.0	1773931.0
antisense_850	1775039	+	CP027403.1 (243235-243889)	True	QRNA	10.407	-0.039	RNA	1775039.0	1775039.0	1775684.0	1775684.0
antisense_851	1777807	+		No QRNA hit	CNIT	-0.993	4.939	RNA	1777807.0	1777810.0	1777832.0	1777818.0
