transcript_id	position	strand	alignedTo	same_classification?	source	score	z_score	winner	GenomeStart	PredictionStart	GenomeEnd	PredictionEnd
antisense_0	1896	-		OTH Found	CNIT	-0.434	-0.57	RNA	986.0	1696.0	1896.0	1767.0
antisense_1	2199	-		OTH Found	CNIT	-0.623	1.437	RNA	1896.0	1934.0	2199.0	1954.0
antisense_2	2398	-		OTH Found	CNIT	-0.621	1.42	RNA	2199.0	2271.0	2398.0	2291.0
antisense_3	4463	-	CP053849.1 (4422-3628)	False	QRNA	18.899	0.255	COD	3670.0	3670.0	4461.0	4311.0
antisense_4	4842	-		OTH Found	CNIT	-0.527	0.416	RNA	4463.0	4620.0	4842.0	4670.0
antisense_5	11812	-	CP022347.1 (1703931-1703023)	False	QRNA	44.3	2.002	COD	10904.0	10972.0	11812.0	11499.0
antisense_6	12085	-	CP022347.1 (1704204-1703932)	False	QRNA	9.104	-0.419	COD	11813.0	11827.0	12085.0	12042.0
antisense_7	13687	-		OTH Found	CNIT	-0.628	1.487	RNA	12777.0	13584.0	13687.0	13601.0
antisense_8	14034	-		OTH Found	CNIT	-0.524	0.382	RNA	13687.0	14010.0	14034.0	14030.0
antisense_9	14696	-		OTH Found	CNIT	-0.53	0.45	RNA	14034.0	14195.0	14696.0	14221.0
antisense_10	15907	+		OTH Found	CNIT	-0.403	-0.9	RNA	15907.0	16305.0	16567.0	16367.0
antisense_11	16567	+	CP037747.1 (48237-48099)	False	QRNA	0.415	-1.017	COD	16567.0	16582.0	16706.0	16689.0
antisense_12	16731	+		OTH Found	CNIT	-0.43	-0.616	RNA	16731.0	16788.0	17129.0	16823.0
antisense_13	17129	+	CP049272.1 (1779921-1780268)	False	QRNA	3.636	-0.795	COD	17129.0	17129.0	17475.0	17395.0
antisense_14	19493	+	CP076657.1 (26224-25421)	True	QRNA	12.101	0.196	RNA	19502.0	19502.0	20300.0	20300.0
antisense_15	20301	+		OTH Found	CNIT	-0.496	0.084	RNA	20301.0	20460.0	21135.0	20492.0
antisense_16	24811	+	CP059597.1 (23475-24393)	True	QRNA	11.313	0.102	RNA	24811.0	24811.0	25720.0	25720.0
antisense_17	26217	+	AP026014.1 (26317-27220)	True	QRNA	9.781	-0.081	RNA	26217.0	26217.0	27126.0	27126.0
antisense_18	27243	+	CP082947.1 (61990-61079)	True	QRNA	22.846	1.479	RNA	27243.0	27243.0	28152.0	27927.0
antisense_19	36420	-		OTH Found	CNIT	-0.432	-0.593	RNA	35510.0	35894.0	36420.0	35935.0
orphan_0	38882	+	CP015528.1 (36206-36591)	True	QRNA	9.649	-0.097	RNA	38886.0	38886.0	39248.0	39248.0
antisense_20	40330	-		OTH Found	CNIT	-0.33	-1.681	RNA	39420.0	39719.0	40330.0	39988.0
orphan_1	41200	+	CP059597.1 (1327431-1327031)	True	QRNA	21.043	1.264	RNA	41207.0	41207.0	41561.0	41561.0
antisense_21	41491	-	AF074836.1 (703-1)	True	QRNA	25.256	1.767	RNA	40815.0	40815.0	41491.0	41491.0
antisense_22	45978	-		OTH Found	CNIT	-0.563	0.797	RNA	45068.0	45853.0	45978.0	45870.0
antisense_23	46790	-		OTH Found	CNIT	-0.541	0.56	RNA	45978.0	45981.0	46790.0	46004.0
antisense_24	48168	-		OTH Found	CNIT	-0.508	0.212	RNA	47258.0	47425.0	48168.0	47469.0
antisense_25	50251	-		OTH Found	CNIT	-0.431	-0.612	RNA	49341.0	50063.0	50251.0	50107.0
antisense_26	50577	-		OTH Found	CNIT	-0.629	1.498	RNA	50251.0	50436.0	50577.0	50453.0
antisense_27	51744	-	CP007769.1 (1424377-1425286)	True	QRNA	18.844	1.001	RNA	50835.0	50835.0	51744.0	51744.0
antisense_28	55646	+	CP063089.1 (1564571-1565241)	False	QRNA	18.378	0.219	COD	55647.0	55755.0	56317.0	56309.0
antisense_29	57012	+	CP037747.1 (1388694-1387800)	False	QRNA	9.56	-0.388	COD	57021.0	57030.0	57921.0	57901.0
antisense_30	60583	-		OTH Found	CNIT	-0.495	0.072	RNA	59673.0	60094.0	60583.0	60114.0
antisense_31	61811	-		OTH Found	CNIT	-0.336	-1.62	RNA	60901.0	61344.0	61811.0	61481.0
antisense_32	62361	-		OTH Found	CNIT	-0.337	-1.612	RNA	61811.0	62100.0	62361.0	62243.0
antisense_33	63946	+	CP065357.1 (1166794-1166197)	True	QRNA	21.352	1.301	RNA	63948.0	63948.0	64581.0	64581.0
antisense_34	64589	+		OTH Found	CNIT	-0.513	0.271	RNA	64589.0	65451.0	65499.0	65480.0
antisense_35	66049	+		No QRNA hit	CNIT	-0.626	1.466	RNA	66049.0	66069.0	66084.0	66083.0
antisense_36	66084	+		OTH Found	CNIT	-0.669	1.926	RNA	66084.0	66209.0	66451.0	66220.0
antisense_37	67215	-	CP014744.1 (70151-69430)	True	QRNA	17.029	0.785	RNA	66493.0	66493.0	67215.0	67215.0
antisense_38	69587	+		OTH Found	CNIT	-0.468	-0.212	RNA	69587.0	69760.0	70497.0	69837.0
antisense_39	71035	+		OTH Found	CNIT	-0.458	-0.315	RNA	71035.0	71275.0	71935.0	71328.0
antisense_40	73983	+		OTH Found	CNIT	-0.389	-1.052	RNA	73983.0	74001.0	74893.0	74081.0
antisense_41	78261	+		OTH Found	CNIT	-0.468	-0.217	RNA	78261.0	78516.0	78691.0	78554.0
antisense_42	78691	+		OTH Found	CNIT	-0.969	5.122	RNA	78691.0	78700.0	78734.0	78711.0
antisense_43	78734	+	CP041617.1 (1024948-1025838)	True	QRNA	9.564	-0.107	RNA	78734.0	78734.0	79643.0	79643.0
antisense_44	80379	-		OTH Found	CNIT	-0.61	1.303	RNA	79765.0	79836.0	80379.0	79853.0
antisense_45	82079	-	CP011777.1 (240027-240957)	True	QRNA	4.76	-0.681	RNA	81178.0	81178.0	82079.0	82079.0
antisense_46	83093	+		OTH Found	CNIT	-0.513	0.268	RNA	83093.0	83471.0	83771.0	83521.0
antisense_47	83771	+	CP044175.1 (1383774-1382855)	True	QRNA	16.889	0.768	RNA	83772.0	83772.0	84647.0	84647.0
antisense_48	88785	+	CP012212.1 (145264-145865)	True	QRNA	14.606	0.495	RNA	88785.0	88785.0	89391.0	89391.0
antisense_49	89392	+		OTH Found	CNIT	-0.457	-0.328	RNA	89392.0	89393.0	89549.0	89428.0
antisense_50	89549	+		OTH Found	CNIT	0.613	0.379	COD	89549.0	89982.0	90459.0	90203.0
antisense_51	91716	-		OTH Found	CNIT	-0.47	-0.19	RNA	91100.0	91439.0	91716.0	91471.0
antisense_52	92467	-	CP037747.1 (1411782-1411032)	False	QRNA	28.865	0.94	COD	91717.0	91728.0	92467.0	92354.0
antisense_53	93292	-		OTH Found	CNIT	-0.423	-0.691	RNA	92467.0	92713.0	93292.0	92805.0
antisense_54	95342	+	CP080547.1 (1382213-1381548)	True	QRNA	12.169	0.204	RNA	95342.0	95342.0	96012.0	96012.0
antisense_55	102439	-		OTH Found	CNIT	-0.435	-0.568	RNA	101529.0	101880.0	102439.0	101990.0
antisense_56	104083	-	CP059375.1 (380015-380924)	True	QRNA	12.669	0.264	RNA	103174.0	103174.0	104083.0	104083.0
antisense_57	104939	-		OTH Found	CNIT	-0.448	-0.423	RNA	104083.0	104823.0	104939.0	104912.0
antisense_58	109276	-	CP007777.1 (170718-169816)	True	QRNA	8.075	-0.285	RNA	108375.0	108375.0	109276.0	109276.0
antisense_59	112027	-	CP022347.1 (1335633-1336530)	False	QRNA	19.25	0.279	COD	111124.0	111183.0	112023.0	111966.0
antisense_60	113032	-	LR134534.1 (332458-331549)	False	QRNA	26.796	0.798	COD	112124.0	112165.0	113032.0	112647.0
antisense_61	118033	-	CP076657.1 (85438-86314)	True	QRNA	10.402	-0.007	RNA	117149.0	117149.0	118027.0	118027.0
antisense_62	126428	+		OTH Found	CNIT	-0.58	0.977	RNA	126428.0	126470.0	126580.0	126490.0
antisense_63	126580	+		OTH Found	CNIT	-0.553	0.691	RNA	126580.0	126699.0	126912.0	126731.0
antisense_64	126912	+	CP059597.1 (31238-32150)	True	QRNA	4.83	-0.672	RNA	126912.0	126912.0	127821.0	127821.0
antisense_65	129646	+		OTH Found	CNIT	-0.432	-0.593	RNA	129646.0	130348.0	130484.0	130440.0
antisense_66	130484	+		OTH Found	CNIT	-0.426	-0.657	RNA	130484.0	130747.0	131394.0	130782.0
antisense_67	132347	-		OTH Found	CNIT	-0.503	0.16	RNA	132048.0	132086.0	132347.0	132112.0
antisense_68	132939	-	OU701459.1 (1371927-1372512)	True	QRNA	5.683	-0.57	RNA	132351.0	132351.0	132937.0	132937.0
antisense_69	133257	-		OTH Found	CNIT	-0.62	1.407	RNA	132939.0	133099.0	133257.0	133113.0
antisense_70	138084	-		OTH Found	CNIT	-0.493	0.055	RNA	137174.0	137235.0	138084.0	137273.0
antisense_71	141245	-	CP046243.1 (484068-484959)	True	QRNA	29.941	2.327	RNA	140336.0	140336.0	141245.0	141245.0
antisense_72	142803	-		OTH Found	CNIT	-0.484	-0.044	RNA	141893.0	142126.0	142803.0	142182.0
antisense_73	147683	-	CP027403.1 (399639-398738)	True	QRNA	17.566	0.849	RNA	146774.0	146774.0	147683.0	147683.0
antisense_74	155751	+		OTH Found	CNIT	-0.469	-0.203	RNA	155751.0	155809.0	156661.0	155841.0
antisense_75	158457	+	CP059597.1 (1364845-1363936)	True	QRNA	24.178	1.638	RNA	158457.0	158457.0	159366.0	159366.0
antisense_76	163459	+		OTH Found	CNIT	-0.401	-0.923	RNA	163459.0	163896.0	164115.0	164012.0
antisense_77	165893	+	LR134359.1 (1638185-1638638)	True	QRNA	27.5	2.035	RNA	165893.0	165893.0	166344.0	166344.0
antisense_78	167074	-		OTH Found	CNIT	-0.469	-0.2	RNA	166164.0	166373.0	167074.0	166432.0
antisense_79	169321	+	CP063091.1 (415442-414545)	True	QRNA	10.441	-0.002	RNA	169333.0	169333.0	170224.0	170224.0
antisense_80	170584	+		OTH Found	CNIT	-0.44	-0.51	RNA	170584.0	170950.0	171460.0	170994.0
antisense_81	171460	+		OTH Found	CNIT	-0.509	0.222	RNA	171460.0	171552.0	171620.0	171587.0
antisense_82	171620	+		OTH Found	CNIT	-0.609	1.291	RNA	171620.0	171936.0	172076.0	171965.0
antisense_84	172076	+	CP059373.1 (1268778-1267927)	True	QRNA	16.679	0.743	RNA	172076.0	172076.0	172915.0	172915.0
antisense_85	175364	-		OTH Found	CNIT	-0.411	-0.817	RNA	174454.0	174596.0	175364.0	174694.0
antisense_86	175808	-	CP044167.1 (872079-871637)	True	QRNA	4.068	-0.763	RNA	175366.0	175366.0	175808.0	175808.0
antisense_87	176777	-		OTH Found	CNIT	0.673	1.844	COD	175867.0	176464.0	176777.0	176691.0
antisense_88	182617	+		OTH Found	CNIT	-0.499	0.119	RNA	182617.0	182834.0	182982.0	182872.0
antisense_89	182982	+	CP007772.1 (1661619-1662526)	False	QRNA	4.936	-0.706	COD	182982.0	182998.0	183889.0	183605.0
antisense_90	186580	+	OU701461.1 (1456015-1456913)	True	QRNA	6.701	-0.584	COD	186590.0	186707.0	187489.0	187371.0
antisense_91	187673	+		OTH Found	CNIT	-0.501	0.135	RNA	187673.0	187768.0	188000.0	187842.0
antisense_92	188000	+		OTH Found	CNIT	-0.498	0.107	RNA	188000.0	188257.0	188910.0	188325.0
antisense_93	191237	-	CP012547.1 (66713-67577)	False	QRNA	46.815	2.175	COD	190373.0	190461.0	191237.0	191237.0
antisense_94	195168	+		OTH Found	CNIT	-0.889	4.271	RNA	195168.0	195199.0	195235.0	195207.0
antisense_95	195235	+	CP066243.1 (739174-738477)	True	QRNA	30.26	2.365	RNA	195235.0	195235.0	195937.0	195937.0
antisense_96	195938	+	CP063536.1 (173551-174136)	True	QRNA	11.73	0.152	RNA	195938.0	195938.0	196544.0	196544.0
antisense_97	198140	-	CP054848.1 (16081-15485)	True	QRNA	8.881	-0.189	RNA	197543.0	197543.0	198140.0	198140.0
antisense_98	198298	-		OTH Found	CNIT	-0.43	-0.616	RNA	198140.0	198167.0	198298.0	198256.0
antisense_99	198963	-	CP035946.1 (274337-273682)	False	QRNA	11.34	-0.265	COD	198305.0	198342.0	198961.0	198953.0
antisense_100	202032	-		OTH Found	CNIT	-0.416	-0.764	RNA	201122.0	201740.0	202032.0	201874.0
antisense_101	205353	-	CP068172.1 (713012-713914)	True	QRNA	23.187	1.52	RNA	204445.0	204445.0	205349.0	205349.0
orphan_3	205718	+	CP010465.1 (152920-153260)	False	QRNA	0.493	-1.011	COD	205725.0	205766.0	206062.0	206015.0
orphan_4	205880	-		OTH Found	CNIT	-0.5	0.127	RNA	205353.0	205791.0	205880.0	205835.0
antisense_102	212827	+	CP007771.1 (1424036-1423420)	True	QRNA	8.339	-0.253	RNA	212827.0	212827.0	213443.0	213443.0
antisense_103	214774	+	CP082874.1 (1032588-1033532)	True	QRNA	24.962	1.732	RNA	214783.0	214783.0	215683.0	215683.0
antisense_104	216734	+	CP076657.1 (1465493-1464576)	True	QRNA	13.572	0.372	RNA	216735.0	216735.0	217643.0	217643.0
antisense_105	218599	+		OTH Found	CNIT	0.623	0.627	COD	218599.0	218675.0	219312.0	219124.0
antisense_106	221608	-		OTH Found	CNIT	-0.407	-0.858	RNA	220698.0	221199.0	221608.0	221285.0
antisense_107	222252	+		OTH Found	CNIT	-0.351	-1.455	RNA	222252.0	223007.0	223162.0	223132.0
antisense_108	224445	+		OTH Found	CNIT	-0.567	0.84	RNA	224445.0	224592.0	224761.0	224624.0
antisense_109	224761	+		OTH Found	CNIT	-0.61	1.3	RNA	224761.0	225038.0	225169.0	225055.0
antisense_110	225169	+	CP019977.1 (1812658-1811874)	True	QRNA	26.12	1.87	RNA	225174.0	225174.0	225958.0	225958.0
antisense_111	226673	-		OTH Found	CNIT	-0.464	-0.25	RNA	225984.0	226565.0	226673.0	226615.0
antisense_112	228179	+		OTH Found	CNIT	-0.602	1.21	RNA	228179.0	228333.0	228397.0	228392.0
antisense_113	228397	+	CP022470.1 (218746-219251)	True	QRNA	18.354	0.943	RNA	228397.0	228397.0	228907.0	228907.0
antisense_114	228846	-	CP012212.1 (73006-72605)	True	QRNA	11.948	0.178	RNA	228444.0	228444.0	228846.0	228846.0
antisense_115	228904	-		OTH Found	CNIT	-0.788	3.191	RNA	228846.0	228879.0	228904.0	228893.0
antisense_116	229873	-		OTH Found	CNIT	-0.429	-0.632	RNA	228963.0	229233.0	229873.0	229259.0
antisense_117	230435	+		OTH Found	CNIT	-0.52	0.34	RNA	230435.0	230437.0	230715.0	230463.0
antisense_118	230715	+	CP059373.1 (1209813-1208907)	True	QRNA	12.613	0.257	RNA	230715.0	230715.0	231621.0	231621.0
antisense_119	234803	-		OTH Found	CNIT	-0.662	1.851	RNA	234514.0	234737.0	234803.0	234769.0
antisense_120	235315	-		OTH Found	CNIT	-0.514	0.28	RNA	234803.0	235041.0	235315.0	235103.0
antisense_121	237207	-		OTH Found	CNIT	-0.441	-0.501	RNA	236297.0	236771.0	237207.0	236854.0
antisense_122	245420	+		OTH Found	CNIT	-0.798	3.303	RNA	245420.0	245485.0	245537.0	245499.0
antisense_123	245537	+	CP059597.1 (54931-55835)	True	QRNA	29.784	2.308	RNA	245542.0	245542.0	246446.0	246446.0
antisense_124	246758	+	CP059597.1 (56151-57033)	True	QRNA	4.258	-0.741	RNA	246760.0	247372.0	247657.0	247657.0
antisense_125	250143	-		OTH Found	CNIT	-0.54	0.558	RNA	249233.0	250027.0	250143.0	250080.0
antisense_126	251413	-		OTH Found	CNIT	-0.491	0.031	RNA	250503.0	250730.0	251413.0	250831.0
antisense_127	256132	-	CP012542.1 (307199-306294)	False	QRNA	28.446	0.911	COD	255227.0	255232.0	256132.0	256113.0
antisense_128	258481	-		OTH Found	CNIT	-0.425	-0.673	RNA	257571.0	258347.0	258481.0	258430.0
antisense_129	258753	-	CP035946.1 (763099-762829)	False	QRNA	2.92	-0.844	COD	258482.0	258492.0	258752.0	258752.0
antisense_130	259015	+		OTH Found	CNIT	-0.513	0.264	RNA	259015.0	259020.0	259581.0	259064.0
antisense_131	259581	+	CP063079.1 (438018-438922)	True	QRNA	11.109	0.078	RNA	259589.0	259589.0	260490.0	260382.0
antisense_132	263160	+		OTH Found	CNIT	-0.403	-0.908	RNA	263160.0	263738.0	263958.0	263809.0
antisense_133	263958	+	CP063091.1 (474992-475877)	True	QRNA	16.511	0.723	RNA	263959.0	263959.0	264864.0	264864.0
antisense_134	264930	+	CP063091.1 (475942-476861)	True	QRNA	8.657	-0.215	RNA	264935.0	264935.0	265839.0	265839.0
antisense_135	266109	+	LR134508.1 (1344206-1345111)	True	QRNA	42.358	3.809	RNA	266109.0	266109.0	267018.0	267018.0
antisense_136	267262	+		OTH Found	CNIT	-0.478	-0.102	RNA	267262.0	267358.0	267404.0	267384.0
antisense_137	267404	+		OTH Found	CNIT	-0.648	1.707	RNA	267404.0	267406.0	267521.0	267420.0
antisense_138	267521	+		OTH Found	CNIT	-0.432	-0.598	RNA	267521.0	268106.0	268323.0	268237.0
antisense_139	268323	+	CP059374.1 (1173260-1172588)	True	QRNA	11.805	0.161	RNA	268326.0	268326.0	269004.0	269004.0
antisense_140	272293	+		OTH Found	CNIT	-0.571	0.886	RNA	272293.0	272314.0	272468.0	272340.0
antisense_141	272468	+	CP022347.1 (979109-979742)	False	QRNA	3.057	-0.835	COD	272468.0	272476.0	273101.0	272985.0
antisense_142	280412	-		OTH Found	CNIT	-0.503	0.161	RNA	279502.0	280363.0	280412.0	280392.0
antisense_143	280937	+		OTH Found	CNIT	-0.614	1.344	RNA	280937.0	281048.0	281063.0	281059.0
antisense_144	281063	+	HG326877.1 (108075-107186)	False	QRNA	0.459	-1.013	COD	281063.0	281105.0	281952.0	281947.0
antisense_145	285009	-	CP007775.1 (1584438-1585160)	True	QRNA	20.925	1.25	RNA	284282.0	284282.0	285007.0	285007.0
antisense_146	287492	-	CP022347.1 (172879-171973)	True	QRNA	11.865	0.168	RNA	286583.0	286583.0	287492.0	287492.0
antisense_147	291618	-		OTH Found	CNIT	-0.445	-0.455	RNA	290708.0	290902.0	291618.0	290970.0
antisense_148	293826	-		OTH Found	CNIT	-0.486	-0.018	RNA	292916.0	293631.0	293826.0	293681.0
antisense_149	294599	-	CP059597.1 (106856-106085)	True	QRNA	27.086	1.986	RNA	293832.0	293832.0	294598.0	294557.0
antisense_150	296859	-		OTH Found	CNIT	-0.478	-0.106	RNA	295949.0	296423.0	296859.0	296488.0
antisense_151	299160	+	CP007772.1 (1507983-1507084)	False	QRNA	5.137	-0.692	COD	299160.0	299160.0	300056.0	300012.0
antisense_152	300855	+		OTH Found	CNIT	-0.475	-0.141	RNA	300855.0	301440.0	301765.0	301580.0
antisense_153	304955	+	CP063089.1 (1383069-1383972)	False	QRNA	5.813	-0.645	COD	304957.0	305128.0	305863.0	305826.0
antisense_154	314221	+		OTH Found	CNIT	-0.419	-0.738	RNA	314221.0	314379.0	314805.0	314468.0
antisense_155	314805	+		OTH Found	CNIT	-0.39	-1.048	RNA	314805.0	314865.0	315077.0	314957.0
antisense_156	317304	-		OTH Found	CNIT	-0.482	-0.069	RNA	316394.0	316792.0	317304.0	316821.0
antisense_157	317514	-	CP053849.1 (889605-889406)	False	QRNA	9.012	-0.425	COD	317309.0	317331.0	317508.0	317504.0
antisense_158	318966	-		OTH Found	CNIT	-0.494	0.059	RNA	318056.0	318853.0	318966.0	318909.0
antisense_159	321808	-		OTH Found	CNIT	-0.538	0.533	RNA	320898.0	321391.0	321808.0	321435.0
antisense_160	321998	-		OTH Found	CNIT	-0.427	-0.649	RNA	321808.0	321862.0	321998.0	321933.0
antisense_161	324120	+	CP020478.1 (1045957-1046749)	True	QRNA	12.821	0.282	RNA	324122.0	324122.0	324913.0	324913.0
antisense_162	325290	+		OTH Found	CNIT	0.587	-0.263	COD	325290.0	325343.0	325994.0	325513.0
antisense_163	331538	+	CP059597.1 (140753-141656)	True	QRNA	7.114	-0.4	RNA	331540.0	331540.0	332443.0	331974.0
antisense_164	333525	+		OTH Found	CNIT	0.586	-0.283	COD	333525.0	333533.0	334435.0	333727.0
antisense_165	336150	+	CP059373.1 (1102358-1101434)	True	QRNA	11.611	0.137	RNA	336151.0	336151.0	337059.0	337059.0
antisense_166	337810	+		OTH Found	CNIT	-0.709	2.349	RNA	337810.0	337893.0	337904.0	337904.0
antisense_167	337904	+	CP063089.1 (8010-7510)	False	QRNA	20.541	0.368	COD	337907.0	337917.0	338407.0	338387.0
antisense_168	338412	+		OTH Found	CNIT	-0.558	0.744	RNA	338412.0	338785.0	339034.0	338811.0
antisense_169	339638	-	CP059597.1 (148871-148120)	True	QRNA	8.146	-0.276	RNA	338955.0	338955.0	339638.0	339495.0
antisense_170	342076	-	CP076657.1 (1298042-1298948)	True	QRNA	6.432	-0.481	RNA	341167.0	341167.0	342076.0	342076.0
antisense_171	344072	-		OTH Found	CNIT	-0.487	-0.012	RNA	343162.0	343754.0	344072.0	343813.0
antisense_172	344864	-	CP076657.1 (1296078-1296860)	True	QRNA	16.333	0.701	RNA	344088.0	344088.0	344864.0	344864.0
antisense_173	345461	-		OTH Found	CNIT	-0.436	-0.548	RNA	344864.0	344998.0	345461.0	345051.0
antisense_174	346114	+	CP063536.1 (309491-310399)	True	QRNA	21.479	1.316	RNA	346116.0	346116.0	347021.0	347021.0
antisense_175	347169	+	CP059597.1 (156380-157253)	True	QRNA	21.826	1.357	RNA	347172.0	347172.0	348059.0	348059.0
antisense_176	349019	+	CP022347.1 (1521594-1522505)	True	QRNA	39.842	1.695	COD	349021.0	349030.0	349928.0	349915.0
antisense_177	357015	-	CP076657.1 (434564-435473)	True	QRNA	14.669	0.503	RNA	356106.0	356106.0	357015.0	357015.0
antisense_178	357213	-		OTH Found	CNIT	-0.51	0.237	RNA	357015.0	357121.0	357213.0	357153.0
antisense_179	358029	+		OTH Found	CNIT	-0.476	-0.129	RNA	358029.0	358325.0	358769.0	358438.0
antisense_180	358769	+	CP043428.1 (539931-540732)	False	QRNA	7.285	-0.544	COD	358769.0	358967.0	359570.0	359557.0
antisense_181	359575	+	CP063079.1 (1229646-1230516)	True	QRNA	6.519	-0.471	RNA	359576.0	359576.0	360482.0	360482.0
antisense_182	362288	+		OTH Found	CNIT	-0.646	1.684	RNA	362288.0	362421.0	362787.0	362441.0
antisense_183	362787	+	CP059597.1 (171928-172485)	True	QRNA	8.13	-0.278	RNA	362789.0	362917.0	363346.0	363346.0
antisense_184	363362	+	CP059597.1 (172501-173353)	True	QRNA	15.937	0.654	RNA	363362.0	363581.0	364213.0	364213.0
antisense_185	364817	-		OTH Found	CNIT	-0.525	0.395	RNA	364226.0	364525.0	364817.0	364572.0
antisense_186	369358	-		OTH Found	CNIT	-0.47	-0.191	RNA	368448.0	368845.0	369358.0	368928.0
antisense_187	376093	-	CP022347.1 (905714-906615)	False	QRNA	2.525	-0.871	COD	375184.0	375425.0	376085.0	375862.0
antisense_188	376413	-		OTH Found	CNIT	-0.672	1.958	RNA	376093.0	376245.0	376413.0	376262.0
antisense_190	377771	-	CP059597.1 (186809-185933)	True	QRNA	16.593	0.732	RNA	376884.0	376884.0	377767.0	377698.0
antisense_191	385986	+		OTH Found	CNIT	-0.595	1.144	RNA	385986.0	386070.0	386896.0	386096.0
antisense_192	392152	-		OTH Found	CNIT	-0.473	-0.16	RNA	391600.0	392036.0	392152.0	392083.0
antisense_193	393055	-	CP059597.1 (202098-201210)	True	QRNA	24.131	1.633	RNA	392167.0	392335.0	393055.0	393055.0
orphan_5	393758	+	CP015528.1 (36198-36591)	True	QRNA	10.967	0.061	RNA	393758.0	393758.0	394129.0	394129.0
antisense_194	395211	-		OTH Found	CNIT	-0.33	-1.681	RNA	394301.0	394600.0	395211.0	394869.0
orphan_7	396081	+	CP059597.1 (1327431-1327031)	True	QRNA	21.043	1.264	RNA	396088.0	396088.0	396442.0	396442.0
antisense_195	396372	-	AF074836.1 (703-1)	True	QRNA	23.995	1.616	RNA	395696.0	395696.0	396372.0	396372.0
antisense_196	405850	-	CP000767.2 (1011385-1011936)	False	QRNA	28.217	0.896	COD	405301.0	405380.0	405850.0	405832.0
antisense_197	409254	+		OTH Found	CNIT	-0.565	0.815	RNA	409254.0	409280.0	409729.0	409300.0
antisense_198	411154	-	CP022347.1 (1270418-1269511)	True	QRNA	41.501	1.809	COD	410245.0	410352.0	411152.0	411080.0
antisense_199	413019	-	CP076657.1 (462294-461558)	True	QRNA	16.007	0.662	RNA	412286.0	412286.0	413019.0	413019.0
antisense_200	413711	-		OTH Found	CNIT	-0.504	0.169	RNA	413019.0	413022.0	413711.0	413051.0
antisense_201	414331	-		OTH Found	CNIT	-0.488	-0.001	RNA	413711.0	414150.0	414331.0	414212.0
antisense_202	416636	+	CP063091.1 (978911-979213)	True	QRNA	4.765	-0.68	RNA	416639.0	416639.0	416945.0	416945.0
antisense_203	418392	-	CP076657.1 (467607-466701)	True	QRNA	9.061	-0.167	RNA	417483.0	417483.0	418390.0	418390.0
antisense_204	421514	+		OTH Found	CNIT	-0.4	-0.941	RNA	421514.0	422164.0	422424.0	422238.0
antisense_205	422673	+		OTH Found	CNIT	-0.522	0.359	RNA	422673.0	423342.0	423583.0	423410.0
antisense_206	425033	-		OTH Found	CNIT	-0.478	-0.102	RNA	424130.0	424156.0	425033.0	424185.0
antisense_207	429913	-	CP076657.1 (492431-491557)	True	QRNA	29.098	2.226	RNA	429037.0	429037.0	429911.0	429911.0
antisense_208	434908	-	CP043435.1 (1357916-1358867)	True	QRNA	4.696	-0.688	RNA	433999.0	433999.0	434908.0	434616.0
antisense_209	435699	-	CP059599.1 (132250-131470)	False	QRNA	3.69	-0.791	COD	434909.0	435043.0	435692.0	435609.0
antisense_210	440369	-		OTH Found	CNIT	-0.462	-0.273	RNA	439459.0	439995.0	440369.0	440066.0
antisense_211	446900	-		OTH Found	CNIT	-0.46	-0.295	RNA	445990.0	446832.0	446900.0	446855.0
antisense_212	447690	+		OTH Found	CNIT	-0.748	2.771	RNA	447690.0	447748.0	447837.0	447759.0
antisense_213	447837	+		OTH Found	CNIT	-0.446	-0.446	RNA	447837.0	448123.0	448661.0	448164.0
antisense_214	451542	-		OTH Found	CNIT	-0.408	-0.852	RNA	450632.0	451331.0	451542.0	451399.0
antisense_215	453024	-	CP059682.1 (1545326-1546032)	True	QRNA	14.019	0.425	RNA	452320.0	452320.0	453023.0	453023.0
antisense_216	460575	-	CP012224.1 (416258-415350)	True	QRNA	2.58	-0.941	RNA	459666.0	459666.0	460575.0	460575.0
antisense_217	464001	-		OTH Found	CNIT	-0.447	-0.437	RNA	463091.0	463737.0	464001.0	463787.0
antisense_218	466918	+		OTH Found	CNIT	-0.569	0.867	RNA	466918.0	467010.0	467087.0	467027.0
antisense_219	467087	+	CP063091.1 (729215-730116)	True	QRNA	6.533	-0.469	RNA	467089.0	467089.0	467969.0	467969.0
antisense_220	472457	-	CP027634.1 (1303562-1304471)	True	QRNA	6.732	-0.445	RNA	471548.0	471548.0	472453.0	472453.0
antisense_221	473572	-	CP037747.1 (882322-881421)	False	QRNA	10.416	-0.329	COD	472665.0	472846.0	473566.0	473541.0
antisense_222	474561	-	CP044262.1 (1159509-1158610)	False	QRNA	6.911	-0.57	COD	473654.0	473855.0	474553.0	474474.0
antisense_223	476292	+	CP019684.1 (670540-671345)	True	QRNA	5.284	-0.618	RNA	476292.0	476482.0	477097.0	477097.0
antisense_224	482117	-	LR134372.1 (268611-269477)	True	QRNA	19.067	1.028	RNA	481246.0	481246.0	482112.0	482112.0
antisense_225	485766	-	CP059373.1 (963585-964490)	True	QRNA	22.851	1.48	RNA	484859.0	484859.0	485766.0	485766.0
antisense_226	487985	+		OTH Found	CNIT	-0.451	-0.398	RNA	487985.0	488146.0	488895.0	488199.0
antisense_227	488992	+		OTH Found	CNIT	-0.477	-0.12	RNA	488992.0	489283.0	489426.0	489315.0
antisense_228	489426	+	CP022347.1 (723011-723533)	False	QRNA	11.87	-0.229	COD	489430.0	489447.0	489952.0	489950.0
antisense_229	489961	+	CP076657.1 (953008-952134)	True	QRNA	14.582	0.492	RNA	489961.0	490128.0	490870.0	490870.0
antisense_230	492078	-		OTH Found	CNIT	-0.489	0.007	RNA	491716.0	491901.0	492078.0	491945.0
antisense_231	493921	-	CP061537.1 (1210637-1211545)	True	QRNA	22.855	1.48	RNA	493013.0	493013.0	493921.0	493921.0
antisense_232	502175	-	HG326877.1 (1488658-1489561)	True	QRNA	15.679	0.623	RNA	501266.0	501520.0	502175.0	502175.0
antisense_233	504163	-		OTH Found	CNIT	-0.475	-0.137	RNA	503253.0	503488.0	504163.0	503529.0
antisense_234	507096	-		OTH Found	CNIT	-0.476	-0.13	RNA	506186.0	506542.0	507096.0	506577.0
antisense_235	509288	-	CP007778.1 (760822-761719)	True	QRNA	20.385	1.185	RNA	508388.0	508388.0	509288.0	509288.0
antisense_236	509334	-	CP053848.1 (825412-825455)	False	QRNA	10.23	-0.342	COD	509289.0	509294.0	509332.0	509326.0
antisense_237	509445	-	CP053844.1 (1259572-1259676)	False	QRNA	12.333	-0.197	COD	509335.0	509339.0	509439.0	509419.0
antisense_238	512357	-		OTH Found	CNIT	-0.48	-0.082	RNA	511447.0	511537.0	512357.0	511608.0
antisense_239	516926	-	LS483295.1 (541239-540330)	True	QRNA	22.141	1.395	RNA	516017.0	516017.0	516926.0	516926.0
antisense_240	517362	-		OTH Found	CNIT	-0.523	0.377	RNA	516926.0	517324.0	517362.0	517347.0
antisense_241	520887	+	CP076657.1 (885641-886276)	True	QRNA	14.164	0.442	RNA	520887.0	520887.0	521521.0	521521.0
antisense_242	523158	-		OTH Found	CNIT	-0.346	-1.516	RNA	522248.0	522782.0	523158.0	522922.0
antisense_243	523491	-		OTH Found	CNIT	-0.492	0.045	RNA	523158.0	523223.0	523491.0	523249.0
antisense_244	524004	+		OTH Found	CNIT	-0.507	0.206	RNA	524004.0	524213.0	524398.0	524242.0
antisense_245	524398	+		OTH Found	CNIT	-0.436	-0.557	RNA	524398.0	524903.0	525089.0	524950.0
antisense_246	526653	-		OTH Found	CNIT	-0.49	0.017	RNA	525743.0	526173.0	526653.0	526256.0
antisense_247	528350	-	CP101195.1 (528350-527441)	True	QRNA	21.502	1.319	RNA	527441.0	527441.0	528350.0	528350.0
antisense_248	528700	-		OTH Found	CNIT	-0.539	0.546	RNA	528350.0	528506.0	528700.0	528553.0
antisense_249	530783	-		OTH Found	CNIT	-0.429	-0.623	RNA	529873.0	530544.0	530783.0	530609.0
antisense_251	531009	-		OTH Found	CNIT	-0.603	1.221	RNA	530783.0	530932.0	531009.0	530958.0
antisense_252	531796	-		OTH Found	CNIT	-0.456	-0.335	RNA	531009.0	531227.0	531796.0	531277.0
antisense_253	533951	-		OTH Found	CNIT	-0.457	-0.325	RNA	533298.0	533522.0	533951.0	533632.0
antisense_254	537481	-		OTH Found	CNIT	-0.495	0.075	RNA	536571.0	536798.0	537481.0	536839.0
antisense_255	538212	+	CP076657.1 (838955-838058)	True	QRNA	22.416	1.428	RNA	538212.0	538212.0	539121.0	539121.0
antisense_256	550859	+	CP031611.1 (741202-740377)	True	QRNA	12.581	0.253	RNA	550860.0	550860.0	551662.0	551662.0
antisense_257	551663	+	CP076657.1 (572140-571660)	True	QRNA	4.175	-0.751	RNA	551663.0	551663.0	552157.0	552157.0
antisense_258	552158	+		OTH Found	CNIT	-0.444	-0.463	RNA	552158.0	552659.0	553068.0	552721.0
antisense_259	559187	+		OTH Found	CNIT	-0.6	1.197	RNA	559187.0	559190.0	559299.0	559207.0
antisense_260	559299	+	CP085963.1 (1285479-1285516)	False	QRNA	6.943	-0.568	COD	559300.0	559302.0	559337.0	559334.0
antisense_261	559350	+	CP059373.1 (893878-893083)	False	QRNA	1.551	-0.938	COD	559353.0	559353.0	560148.0	560146.0
antisense_262	560149	+		OTH Found	CNIT	-0.512	0.251	RNA	560149.0	560557.0	560782.0	560604.0
antisense_263	560782	+	CP065357.1 (733147-732238)	True	QRNA	12.679	0.265	RNA	560782.0	560782.0	561691.0	561691.0
antisense_264	562920	-	OU701459.1 (266093-266624)	False	QRNA	17.895	0.186	COD	562387.0	562461.0	562918.0	562872.0
antisense_265	568297	-		OTH Found	CNIT	-0.495	0.077	RNA	567387.0	567513.0	568297.0	567563.0
antisense_266	568769	-	CP059597.1 (369541-369071)	True	QRNA	9.539	-0.11	RNA	568298.0	568298.0	568768.0	568768.0
antisense_267	572472	+		OTH Found	CNIT	-0.646	1.68	RNA	572472.0	572512.0	572712.0	572547.0
antisense_268	572712	+	LR134534.1 (977129-976750)	True	QRNA	9.936	-0.063	RNA	572719.0	572719.0	573102.0	573102.0
antisense_269	576173	-	CP007774.1 (753597-754499)	True	QRNA	46.905	2.181	COD	575268.0	575338.0	576170.0	576170.0
antisense_270	576844	-	CP022347.1 (937024-937690)	False	QRNA	3.917	-0.776	COD	576178.0	576183.0	576844.0	576793.0
antisense_271	577945	-		OTH Found	CNIT	-0.564	0.814	RNA	577035.0	577154.0	577945.0	577171.0
antisense_272	581770	-		OTH Found	CNIT	-0.521	0.352	RNA	580860.0	581602.0	581770.0	581658.0
antisense_273	582234	-		OTH Found	CNIT	-0.485	-0.03	RNA	581770.0	582010.0	582234.0	582045.0
antisense_274	582717	-		OTH Found	CNIT	-0.54	0.555	RNA	582234.0	582578.0	582717.0	582610.0
antisense_275	583452	-		OTH Found	CNIT	-0.551	0.674	RNA	582717.0	582739.0	583452.0	582768.0
antisense_276	583820	-		OTH Found	CNIT	-0.626	1.469	RNA	583452.0	583600.0	583820.0	583620.0
antisense_277	587535	-		OTH Found	CNIT	-0.494	0.061	RNA	586625.0	587334.0	587535.0	587363.0
antisense_278	588673	-	CP050683.1 (591781-590885)	True	QRNA	26.111	1.869	RNA	587764.0	587764.0	588673.0	588673.0
antisense_279	589379	-		OTH Found	CNIT	-0.413	-0.799	RNA	588673.0	589220.0	589379.0	589378.0
antisense_280	589626	-		OTH Found	CNIT	-0.432	-0.591	RNA	589379.0	589379.0	589626.0	589525.0
antisense_281	591678	+	CP037747.1 (435394-434616)	True	QRNA	25.516	1.798	RNA	591678.0	591746.0	592456.0	592456.0
antisense_282	598686	-	CP059373.1 (854947-855857)	True	QRNA	17.508	0.842	RNA	597777.0	597777.0	598686.0	598686.0
antisense_283	599888	+		OTH Found	CNIT	0.632	0.832	COD	599888.0	600510.0	600798.0	600710.0
antisense_284	603168	-	CP076657.1 (849054-849940)	True	QRNA	29.975	2.331	RNA	602276.0	602276.0	603168.0	603168.0
antisense_285	603461	-		OTH Found	CNIT	-0.418	-0.746	RNA	603168.0	603226.0	603461.0	603330.0
antisense_286	607689	-		OTH Found	CNIT	-0.435	-0.562	RNA	606779.0	607100.0	607689.0	607162.0
antisense_287	608476	-		OTH Found	CNIT	-0.388	-1.063	RNA	607689.0	608412.0	608476.0	608465.0
antisense_288	613207	+		OTH Found	CNIT	-0.454	-0.367	RNA	613207.0	613904.0	614117.0	613948.0
antisense_289	617308	+	CP071574.1 (618354-618415)	False	QRNA	1.535	-0.939	COD	617308.0	617312.0	617369.0	617362.0
antisense_290	617370	+		OTH Found	CNIT	-0.577	0.943	RNA	617370.0	617549.0	617636.0	617569.0
antisense_291	617636	+		OTH Found	CNIT	-0.879	4.156	RNA	617636.0	617638.0	617689.0	617652.0
antisense_292	617689	+	CP063536.1 (556451-557345)	True	QRNA	40.657	3.606	RNA	617701.0	617701.0	618595.0	618595.0
antisense_293	621952	+		OTH Found	CNIT	-0.466	-0.232	RNA	621952.0	622303.0	622768.0	622353.0
antisense_294	623017	-		OTH Found	CNIT	-0.556	0.72	RNA	622645.0	622681.0	623017.0	622713.0
antisense_295	626508	-		OTH Found	CNIT	0.548	-1.198	COD	625598.0	625958.0	626508.0	626068.0
antisense_296	626800	-	LR698976.1 (23238-23520)	False	QRNA	8.684	-0.448	COD	626516.0	626532.0	626798.0	626792.0
antisense_297	626859	-		OTH Found	CNIT	-0.616	1.368	RNA	626800.0	626817.0	626859.0	626828.0
antisense_298	627279	-	CP047482.1 (1320692-1320279)	True	QRNA	15.389	0.589	RNA	626860.0	626860.0	627279.0	627279.0
antisense_299	628334	-		OTH Found	CNIT	-0.406	-0.875	RNA	627424.0	627934.0	628334.0	627972.0
antisense_300	630879	-		OTH Found	CNIT	0.594	-0.091	COD	629969.0	630416.0	630879.0	630622.0
antisense_301	632913	-	CP059597.1 (422121-421211)	True	QRNA	11.728	0.151	RNA	632004.0	632004.0	632911.0	632911.0
antisense_302	635315	+		OTH Found	CNIT	-0.504	0.174	RNA	635315.0	635548.0	635671.0	635610.0
antisense_304	637695	-	CP043426.1 (1115237-1116098)	True	QRNA	11.332	0.104	RNA	636834.0	636834.0	637695.0	637695.0
antisense_305	638501	+		OTH Found	CNIT	-0.641	1.631	RNA	638501.0	638514.0	638604.0	638525.0
antisense_306	638604	+		OTH Found	CNIT	-0.711	2.375	RNA	638604.0	638629.0	638675.0	638655.0
antisense_307	638675	+		OTH Found	CNIT	-0.527	0.42	RNA	638675.0	638740.0	639384.0	638769.0
antisense_308	639384	+		OTH Found	CNIT	-0.478	-0.104	RNA	639384.0	639523.0	639972.0	639555.0
antisense_309	641346	+		OTH Found	CNIT	-0.518	0.32	RNA	641346.0	641389.0	641452.0	641406.0
antisense_310	641452	+	CP076657.1 (661351-660979)	False	QRNA	27.717	0.861	COD	641454.0	641472.0	641826.0	641777.0
antisense_311	642460	-	OU701459.1 (847805-847328)	False	QRNA	0.354	-1.021	COD	641979.0	642087.0	642456.0	642422.0
antisense_312	643445	-	CP007770.1 (587562-586720)	False	QRNA	20.755	0.382	COD	642599.0	642789.0	643443.0	643304.0
antisense_313	644852	+	CP007770.1 (1196899-1197808)	True	QRNA	19.91	1.129	RNA	644852.0	644852.0	645761.0	645761.0
antisense_314	647891	+		OTH Found	CNIT	-0.614	1.339	RNA	647891.0	647927.0	648266.0	647959.0
antisense_315	649496	+	LS483295.1 (601156-602064)	True	QRNA	23.172	1.518	RNA	649497.0	649497.0	650405.0	650405.0
antisense_316	652353	-		OTH Found	CNIT	-0.532	0.467	RNA	651443.0	651531.0	652353.0	651593.0
antisense_317	660319	-	CP063083.1 (863552-864461)	False	QRNA	11.013	-0.288	COD	659410.0	659420.0	660319.0	660166.0
antisense_318	661794	-	LR134471.1 (918818-919681)	True	QRNA	10.851	0.047	RNA	660889.0	660889.0	661794.0	661794.0
antisense_319	666498	-		OTH Found	CNIT	-0.474	-0.15	RNA	665588.0	666169.0	666498.0	666222.0
antisense_320	670711	-	CP022347.1 (516019-515145)	False	QRNA	5.393	-0.674	COD	669835.0	669903.0	670709.0	670709.0
antisense_321	673782	-	CP022347.1 (254292-255195)	False	QRNA	21.193	0.412	COD	672879.0	673055.0	673782.0	673720.0
antisense_322	677040	+	CP059597.1 (464075-464978)	True	QRNA	21.412	1.308	RNA	677040.0	677040.0	677923.0	677923.0
antisense_323	678684	+		OTH Found	CNIT	-0.523	0.376	RNA	678684.0	678824.0	679594.0	678850.0
antisense_324	682095	-	CP022347.1 (1358051-1358737)	True	QRNA	6.626	-0.458	RNA	681409.0	681409.0	682095.0	682095.0
antisense_325	683539	-		OTH Found	CNIT	-0.497	0.098	RNA	682629.0	683223.0	683539.0	683273.0
antisense_326	683806	-		OTH Found	CNIT	-0.52	0.339	RNA	683539.0	683567.0	683806.0	683632.0
antisense_327	686468	-	CP065357.1 (620130-621038)	True	QRNA	17.685	0.863	RNA	685559.0	685962.0	686468.0	686468.0
antisense_328	686882	-	CP022347.1 (1355310-1355717)	False	QRNA	6.486	-0.599	COD	686469.0	686528.0	686876.0	686842.0
antisense_329	689419	-	OU532558.1 (725129-724578)	True	QRNA	22.947	1.491	RNA	688848.0	688848.0	689419.0	689419.0
antisense_330	690552	-	CP012224.1 (637572-636666)	True	QRNA	21.552	1.325	RNA	689643.0	689643.0	690552.0	690552.0
antisense_331	691329	-	CP066243.1 (169939-170691)	True	QRNA	16.415	0.711	RNA	690553.0	690553.0	691329.0	691329.0
antisense_332	693910	-	CP012224.1 (640933-640025)	True	QRNA	14.342	0.464	RNA	693001.0	693001.0	693910.0	693910.0
antisense_333	694594	-		OTH Found	CNIT	-0.442	-0.487	RNA	693910.0	694011.0	694594.0	694073.0
antisense_334	695085	-		OTH Found	CNIT	-0.502	0.145	RNA	694594.0	694626.0	695085.0	694667.0
orphan_9	696052	+	CP076509.1 (36200-36591)	True	QRNA	12.276	0.217	RNA	696052.0	696052.0	696423.0	696423.0
antisense_335	697505	-		OTH Found	CNIT	-0.33	-1.681	RNA	696595.0	696894.0	697505.0	697163.0
orphan_11	698375	+	CP059597.1 (206825-207225)	True	QRNA	21.043	1.264	RNA	698382.0	698382.0	698736.0	698736.0
antisense_336	698666	-	AF074836.1 (703-1)	True	QRNA	24.002	1.617	RNA	697990.0	697990.0	698666.0	698666.0
antisense_337	703156	-		OTH Found	CNIT	-0.545	0.611	RNA	702246.0	702426.0	703156.0	702485.0
antisense_338	703520	-		OTH Found	CNIT	-0.56	0.769	RNA	703156.0	703365.0	703520.0	703415.0
antisense_339	711215	-	CP058336.1 (681002-680087)	True	QRNA	8.538	-0.23	RNA	710306.0	710306.0	711214.0	711214.0
antisense_340	712836	+	CP037747.1 (88756-87855)	False	QRNA	18.147	0.203	COD	712837.0	712876.0	713738.0	713532.0
antisense_341	715401	+	CP010953.1 (956865-955970)	True	QRNA	2.972	-0.894	RNA	715402.0	715402.0	716297.0	716297.0
antisense_342	716915	+		OTH Found	CNIT	-0.451	-0.394	RNA	716915.0	717376.0	717825.0	717447.0
antisense_344	720829	+	CP041617.1 (382522-383402)	True	QRNA	12.241	0.213	RNA	720832.0	720832.0	721718.0	721718.0
antisense_345	723849	+		OTH Found	CNIT	-0.465	-0.248	RNA	723849.0	723865.0	724144.0	723948.0
antisense_346	724144	+	CP020867.1 (893283-892464)	False	QRNA	2.135	-0.898	COD	724144.0	724144.0	724965.0	724620.0
antisense_347	724967	+		OTH Found	CNIT	-0.717	2.441	RNA	724967.0	725006.0	725040.0	725032.0
antisense_348	725040	+		OTH Found	CNIT	-0.52	0.339	RNA	725040.0	725129.0	725606.0	725164.0
antisense_349	725606	+		OTH Found	CNIT	-0.499	0.113	RNA	725606.0	725949.0	726206.0	726008.0
antisense_350	726206	+		OTH Found	CNIT	-0.49	0.02	RNA	726206.0	727066.0	727116.0	727116.0
antisense_351	729246	-		OTH Found	CNIT	-0.504	0.171	RNA	728412.0	728531.0	729246.0	728584.0
antisense_352	729766	-	CP044262.1 (828165-827646)	False	QRNA	27.023	0.813	COD	729247.0	729321.0	729766.0	729764.0
antisense_353	730560	-	CP076657.1 (899277-900070)	True	QRNA	24.823	1.715	RNA	729767.0	729767.0	730560.0	730560.0
antisense_354	732399	-	CP059597.1 (673329-674254)	True	QRNA	1.638	-1.054	RNA	731492.0	731863.0	732399.0	732322.0
antisense_355	733892	-	CP018793.1 (887265-888174)	False	QRNA	27.434	0.842	COD	732983.0	733117.0	733892.0	733887.0
antisense_356	736451	-	CP076657.1 (816553-817465)	True	QRNA	10.974	0.061	RNA	735542.0	735542.0	736451.0	736102.0
antisense_357	737940	-	CP076510.1 (760126-759221)	True	QRNA	32.332	2.612	RNA	737031.0	737031.0	737939.0	737939.0
antisense_358	740231	-		OTH Found	CNIT	-0.494	0.068	RNA	739321.0	739718.0	740231.0	739774.0
antisense_359	743245	-	CP059597.1 (580261-579481)	True	QRNA	35.997	3.05	RNA	742459.0	742459.0	743240.0	743240.0
antisense_360	743946	-		OTH Found	CNIT	-0.476	-0.129	RNA	743245.0	743352.0	743946.0	743396.0
antisense_361	744152	-	CP041617.1 (1424749-1424556)	False	QRNA	0.068	-1.04	COD	743955.0	743970.0	744148.0	744101.0
antisense_362	744349	-		OTH Found	CNIT	-0.621	1.412	RNA	744152.0	744203.0	744349.0	744226.0
antisense_363	744420	-		OTH Found	CNIT	-0.614	1.337	RNA	744349.0	744396.0	744420.0	744410.0
antisense_364	745010	-		OTH Found	CNIT	-0.524	0.385	RNA	744420.0	744855.0	745010.0	744878.0
antisense_365	745177	-		OTH Found	CNIT	-0.654	1.77	RNA	745010.0	745117.0	745177.0	745128.0
antisense_366	745658	-	LR134534.1 (720360-719877)	True	QRNA	3.69	-0.808	RNA	745178.0	745178.0	745658.0	745455.0
antisense_367	748151	+	CP076657.1 (665979-666644)	True	QRNA	23.846	1.599	RNA	748151.0	748182.0	748817.0	748689.0
antisense_368	748870	+		OTH Found	CNIT	-0.539	0.546	RNA	748870.0	749014.0	749322.0	749043.0
antisense_369	749322	+		OTH Found	CNIT	-0.438	-0.527	RNA	749322.0	749396.0	750232.0	749524.0
antisense_370	758306	-		OTH Found	CNIT	-0.518	0.318	RNA	757396.0	757911.0	758306.0	757934.0
antisense_371	765229	-		OTH Found	CNIT	-0.471	-0.176	RNA	764319.0	765012.0	765229.0	765068.0
antisense_372	765815	-		OTH Found	CNIT	-0.524	0.385	RNA	765229.0	765664.0	765815.0	765687.0
antisense_373	768512	+		OTH Found	CNIT	-0.42	-0.72	RNA	768512.0	768661.0	768876.0	768738.0
antisense_374	770558	-		OTH Found	CNIT	-0.48	-0.088	RNA	769648.0	770029.0	770558.0	770103.0
antisense_375	772763	-	CP020478.1 (913558-914390)	False	QRNA	32.967	1.222	COD	771934.0	771963.0	772753.0	772753.0
antisense_376	773392	-		OTH Found	CNIT	-0.637	1.591	RNA	772763.0	772863.0	773392.0	772886.0
antisense_377	774952	-	CP059373.1 (703601-704493)	True	QRNA	10.461	0.0	RNA	774060.0	774111.0	774952.0	774952.0
antisense_378	775195	+	CP022347.1 (466319-467222)	True	QRNA	40.631	1.749	COD	775201.0	775213.0	776104.0	776073.0
antisense_379	778232	+	CP076657.1 (549055-549476)	True	QRNA	6.267	-0.501	RNA	778232.0	778232.0	778650.0	778593.0
antisense_380	778651	+	CP020478.1 (905449-904542)	True	QRNA	56.436	2.836	COD	778653.0	778654.0	779560.0	779559.0
antisense_381	785784	+	CP059597.1 (619204-620086)	True	QRNA	8.342	-0.253	RNA	785784.0	785784.0	786676.0	786676.0
antisense_382	786677	+		OTH Found	CNIT	-0.59	1.089	RNA	786677.0	786751.0	786884.0	786780.0
antisense_383	786884	+		OTH Found	CNIT	-0.586	1.046	RNA	786884.0	786963.0	787019.0	787010.0
antisense_384	787019	+		OTH Found	CNIT	-0.555	0.713	RNA	787019.0	787353.0	787929.0	787382.0
antisense_385	792340	+		OTH Found	CNIT	-0.479	-0.1	RNA	792340.0	793159.0	793250.0	793221.0
antisense_386	794647	-		OTH Found	CNIT	-0.517	0.305	RNA	793737.0	794068.0	794647.0	794130.0
antisense_387	795693	+		OTH Found	CNIT	-0.582	0.998	RNA	795693.0	795825.0	796039.0	795851.0
antisense_388	796039	+		OTH Found	CNIT	-0.518	0.323	RNA	796039.0	796045.0	796486.0	796128.0
antisense_389	796486	+		OTH Found	CNIT	-0.635	1.565	RNA	796486.0	796573.0	796647.0	796596.0
antisense_390	796647	+	HG326877.1 (1212492-1212140)	False	QRNA	5.324	-0.679	COD	796648.0	796738.0	797000.0	796983.0
antisense_391	797001	+		OTH Found	CNIT	-0.563	0.795	RNA	797001.0	797076.0	797496.0	797099.0
antisense_393	797496	+		OTH Found	CNIT	0.582	-0.374	COD	797496.0	798201.0	798406.0	798356.0
antisense_394	808609	+	CP013034.1 (726263-726327)	False	QRNA	0.039	-1.042	COD	808609.0	808629.0	808673.0	808670.0
antisense_395	808674	+	CP059597.1 (641733-642407)	True	QRNA	13.358	0.346	RNA	808674.0	808674.0	809348.0	809348.0
antisense_396	809350	+		OTH Found	CNIT	-0.442	-0.484	RNA	809350.0	809984.0	810260.0	810019.0
antisense_397	811548	-		OTH Found	CNIT	-0.445	-0.453	RNA	810638.0	810967.0	811548.0	811035.0
antisense_398	812080	-		OTH Found	CNIT	-0.433	-0.588	RNA	811548.0	811595.0	812080.0	811669.0
antisense_399	819419	+	OU701459.1 (800830-800091)	False	QRNA	41.078	1.78	COD	819419.0	819419.0	820161.0	820142.0
antisense_400	822514	+	CP059597.1 (652189-653077)	True	QRNA	10.989	0.063	RNA	822514.0	822514.0	823423.0	823423.0
antisense_401	824242	+	CP041617.1 (977109-976840)	False	QRNA	0.586	-1.005	COD	824245.0	824333.0	824514.0	824404.0
antisense_402	824529	+		OTH Found	CNIT	-0.456	-0.344	RNA	824529.0	824822.0	825439.0	824893.0
antisense_403	826619	+		OTH Found	CNIT	-0.493	0.054	RNA	826619.0	827415.0	827529.0	827447.0
antisense_404	830780	+		OTH Found	CNIT	-0.461	-0.287	RNA	830780.0	830788.0	831221.0	830841.0
antisense_405	831221	+	CP053825.1 (1204424-1205106)	True	QRNA	3.688	-0.809	RNA	831221.0	831221.0	831906.0	831906.0
antisense_406	833001	+		OTH Found	CNIT	-0.489	0.014	RNA	833001.0	833042.0	833911.0	833080.0
antisense_407	835772	+	CP022347.1 (785968-785857)	False	QRNA	15.082	-0.008	COD	835774.0	835777.0	835885.0	835878.0
antisense_408	835890	+	CP040239.1 (923402-923501)	False	QRNA	0.61	-1.003	COD	835890.0	835891.0	835989.0	835908.0
antisense_409	835990	+	CP059597.1 (541830-540922)	True	QRNA	18.595	0.972	RNA	835990.0	835990.0	836899.0	836899.0
antisense_410	838445	+		OTH Found	CNIT	-0.459	-0.305	RNA	838445.0	838857.0	839355.0	838937.0
antisense_411	841010	-	CP007181.1 (904500-904333)	False	QRNA	1.975	-0.909	COD	840841.0	840936.0	841008.0	840998.0
antisense_412	841355	-	CP053831.1 (368482-368142)	False	QRNA	5.986	-0.633	COD	841018.0	841023.0	841355.0	841355.0
antisense_413	843298	+	CP059373.1 (592144-591234)	True	QRNA	17.306	0.818	RNA	843298.0	843331.0	844205.0	844205.0
antisense_414	845369	+	CP037747.1 (133426-132586)	False	QRNA	9.921	-0.363	COD	845369.0	845427.0	846209.0	846142.0
antisense_415	847634	-	HG326877.1 (1121441-1122151)	True	QRNA	19.778	1.113	RNA	846922.0	846922.0	847633.0	847633.0
antisense_416	848119	-	CP031611.1 (470673-471157)	True	QRNA	14.656	0.501	RNA	847635.0	847826.0	848116.0	848116.0
antisense_417	854761	+		OTH Found	CNIT	-0.509	0.223	RNA	854761.0	855014.0	855312.0	855073.0
antisense_418	855312	+		OTH Found	CNIT	-0.487	-0.012	RNA	855312.0	855473.0	855711.0	855547.0
antisense_419	855711	+		OTH Found	CNIT	-0.478	-0.108	RNA	855711.0	856484.0	856584.0	856534.0
antisense_420	856584	+	CP053849.1 (493359-494252)	False	QRNA	15.105	-0.006	COD	856585.0	856639.0	857478.0	857440.0
antisense_421	862691	-	CP059597.1 (520599-521520)	True	QRNA	14.166	0.443	RNA	861782.0	861782.0	862691.0	862586.0
antisense_422	872648	-	CP020867.1 (906000-906241)	True	QRNA	0.778	-1.156	RNA	872373.0	872373.0	872640.0	872624.0
antisense_423	872976	-		OTH Found	CNIT	-0.366	-1.297	RNA	872648.0	872649.0	872976.0	872786.0
antisense_424	875249	+	CP063079.1 (1654670-1653769)	True	QRNA	18.692	0.983	RNA	875257.0	875257.0	876158.0	876158.0
antisense_425	876289	+	CP044161.1 (462485-461577)	True	QRNA	5.007	-0.651	RNA	876290.0	876520.0	877198.0	877172.0
antisense_426	877376	+	CP063090.1 (713-1)	True	QRNA	20.279	1.173	RNA	877376.0	877376.0	878089.0	878089.0
antisense_427	879054	+		OTH Found	CNIT	-0.569	0.866	RNA	879054.0	879108.0	879206.0	879131.0
antisense_428	879206	+		OTH Found	CNIT	-0.453	-0.375	RNA	879206.0	879695.0	880116.0	879772.0
antisense_429	883867	-		OTH Found	CNIT	-0.582	1.003	RNA	883451.0	883733.0	883867.0	883759.0
antisense_430	883900	-		No QRNA hit	CNIT	-0.797	3.292	RNA	883867.0	883889.0	883900.0	883897.0
antisense_431	886476	-		OTH Found	CNIT	-0.554	0.707	RNA	886130.0	886205.0	886476.0	886222.0
antisense_432	894112	+	CP053849.1 (853005-853506)	False	QRNA	31.989	1.155	COD	894113.0	894113.0	894614.0	894595.0
antisense_433	894615	+		OTH Found	CNIT	-0.449	-0.412	RNA	894615.0	894672.0	895525.0	894707.0
antisense_434	896357	+		OTH Found	CNIT	-0.433	-0.589	RNA	896357.0	896648.0	897267.0	896686.0
antisense_435	897893	+	CP020478.1 (773532-772628)	False	QRNA	9.65	-0.381	COD	897898.0	897899.0	898802.0	898655.0
antisense_436	901985	-		OTH Found	CNIT	-0.704	2.295	RNA	901529.0	901746.0	901985.0	901763.0
antisense_438	903048	-		OTH Found	CNIT	-0.538	0.534	RNA	902138.0	902462.0	903048.0	902536.0
antisense_439	903619	-	CP044164.1 (1598091-1597515)	True	QRNA	9.472	-0.118	RNA	903049.0	903049.0	903619.0	903619.0
antisense_440	903681	-		OTH Found	CNIT	-0.676	2.002	RNA	903619.0	903654.0	903681.0	903680.0
antisense_441	904603	-		OTH Found	CNIT	-0.46	-0.303	RNA	904302.0	904437.0	904603.0	904472.0
antisense_442	905221	-		OTH Found	CNIT	-0.54	0.549	RNA	904603.0	904829.0	905221.0	904873.0
antisense_443	905805	-	CP066243.1 (1712986-1713546)	True	QRNA	13.856	0.406	RNA	905222.0	905222.0	905805.0	905805.0
antisense_444	906034	-		OTH Found	CNIT	-0.448	-0.422	RNA	905805.0	905811.0	906034.0	905843.0
antisense_445	908516	-	CP053854.1 (440282-440990)	True	QRNA	4.188	-0.749	RNA	907781.0	907781.0	908516.0	908516.0
antisense_446	909027	-		OTH Found	CNIT	-0.492	0.043	RNA	908516.0	908542.0	909027.0	908565.0
antisense_447	911678	-	LS483295.1 (941863-940954)	True	QRNA	27.752	2.065	RNA	910769.0	910769.0	911678.0	911678.0
antisense_448	917189	-	CP063536.1 (827669-827060)	True	QRNA	23.135	1.514	RNA	916572.0	916572.0	917186.0	917186.0
antisense_449	917685	-		OTH Found	CNIT	-0.5	0.127	RNA	917189.0	917600.0	917685.0	917644.0
antisense_450	917811	-		OTH Found	CNIT	-0.684	2.084	RNA	917685.0	917728.0	917811.0	917739.0
antisense_451	918106	-		OTH Found	CNIT	-0.658	1.81	RNA	917811.0	917923.0	918106.0	917955.0
antisense_452	921399	+	HG326877.1 (1086140-1085254)	True	QRNA	9.804	-0.078	RNA	921414.0	921414.0	922308.0	922308.0
antisense_453	922494	+	CP007777.1 (1080391-1079493)	True	QRNA	11.912	0.173	RNA	922494.0	922494.0	923398.0	923398.0
antisense_454	923796	+	CP022347.1 (434898-435742)	True	QRNA	17.337	0.821	RNA	923798.0	923798.0	924642.0	924642.0
antisense_455	927887	-	CP007778.1 (1113643-1114316)	True	QRNA	15.609	0.615	RNA	927216.0	927216.0	927887.0	927887.0
antisense_456	928669	+	CP059597.1 (494025-493139)	False	QRNA	12.836	-0.162	COD	928674.0	928786.0	929565.0	929512.0
antisense_458	933351	+	OU701459.1 (583994-583329)	True	QRNA	7.848	-0.312	RNA	933358.0	933358.0	934021.0	934021.0
antisense_459	936229	+		OTH Found	CNIT	-0.443	-0.482	RNA	936229.0	936514.0	937112.0	936579.0
antisense_460	937112	+		OTH Found	CNIT	-0.511	0.248	RNA	937112.0	937416.0	938002.0	937457.0
antisense_461	938002	+		OTH Found	CNIT	-0.464	-0.255	RNA	938002.0	938697.0	938912.0	938744.0
antisense_462	939574	+	CP020867.1 (940302-939508)	True	QRNA	17.137	0.797	RNA	939574.0	939574.0	940377.0	940377.0
antisense_463	940384	+		OTH Found	CNIT	-0.511	0.245	RNA	940384.0	941151.0	941294.0	941219.0
antisense_464	942312	-	LR134372.1 (669282-668558)	False	QRNA	5.041	-0.698	COD	941583.0	941618.0	942307.0	942307.0
antisense_465	944723	+	CP059597.1 (714785-715691)	True	QRNA	8.942	-0.181	RNA	944726.0	944726.0	945632.0	945632.0
antisense_466	946841	+	CP076657.1 (753338-754235)	True	QRNA	12.08	0.194	RNA	946844.0	946844.0	947750.0	947750.0
antisense_467	948661	+		OTH Found	CNIT	-0.386	-1.088	RNA	948661.0	949109.0	949317.0	949192.0
antisense_468	949317	+	CP053848.1 (1160148-1159243)	False	QRNA	11.064	-0.284	COD	949318.0	949354.0	950224.0	950204.0
antisense_469	956652	+		OTH Found	CNIT	0.559	-0.935	COD	956652.0	956822.0	957562.0	957043.0
antisense_470	960539	+		OTH Found	CNIT	-0.465	-0.247	RNA	960539.0	960798.0	961449.0	960866.0
antisense_471	961987	+		OTH Found	CNIT	-0.476	-0.124	RNA	961987.0	962739.0	962897.0	962774.0
antisense_472	963870	-	CP063536.1 (871316-870857)	True	QRNA	13.76	0.394	RNA	963421.0	963421.0	963870.0	963844.0
antisense_473	964165	-		OTH Found	CNIT	-0.555	0.714	RNA	963870.0	964032.0	964165.0	964067.0
antisense_474	968549	+	CP063091.1 (1839615-1840522)	True	QRNA	13.266	0.335	RNA	968549.0	968549.0	969456.0	969456.0
antisense_475	981685	+		OTH Found	CNIT	-0.46	-0.302	RNA	981685.0	982122.0	982595.0	982148.0
antisense_476	985223	+	CP020478.1 (292651-292548)	False	QRNA	-0.006	-1.045	COD	985224.0	985251.0	985327.0	985304.0
antisense_477	985328	+		OTH Found	CNIT	-0.497	0.096	RNA	985328.0	985456.0	986238.0	985491.0
antisense_478	986717	+		OTH Found	CNIT	-0.453	-0.37	RNA	986717.0	987159.0	987627.0	987320.0
antisense_479	991386	+		OTH Found	CNIT	-0.787	3.178	RNA	991386.0	991455.0	991472.0	991466.0
antisense_480	991472	+		OTH Found	CNIT	-0.582	1.0	RNA	991472.0	991557.0	991926.0	991571.0
antisense_481	991926	+	LR134534.1 (1254841-1255689)	True	QRNA	26.726	1.943	RNA	991930.0	991930.0	992781.0	992781.0
antisense_482	996583	+	HG326877.1 (1013294-1012372)	True	QRNA	22.644	1.455	RNA	996584.0	996584.0	997492.0	997492.0
antisense_483	999844	-		OTH Found	CNIT	-0.662	1.857	RNA	999554.0	999793.0	999844.0	999825.0
antisense_484	1001432	-	CP017875.1 (836145-837021)	True	QRNA	22.325	1.417	RNA	1000557.0	1000557.0	1001432.0	1001432.0
antisense_485	1002850	-	CP059597.1 (775497-774616)	True	QRNA	4.434	-0.72	RNA	1001941.0	1001941.0	1002848.0	1002848.0
antisense_486	1003144	-		OTH Found	CNIT	-0.507	0.207	RNA	1002850.0	1002950.0	1003144.0	1003072.0
antisense_488	1004708	-	CP076657.1 (1026905-1026044)	True	QRNA	21.113	1.272	RNA	1003841.0	1003841.0	1004707.0	1004707.0
antisense_489	1006709	+		OTH Found	CNIT	-0.499	0.118	RNA	1006709.0	1007167.0	1007619.0	1007220.0
antisense_490	1008660	+		OTH Found	CNIT	-0.443	-0.481	RNA	1008660.0	1009071.0	1009545.0	1009109.0
antisense_491	1010176	-		OTH Found	CNIT	-0.428	-0.639	RNA	1009573.0	1009850.0	1010176.0	1009909.0
antisense_492	1011008	-	CP061537.1 (710197-711022)	True	QRNA	5.127	-0.637	RNA	1010179.0	1010179.0	1011007.0	1011007.0
antisense_493	1011156	-		OTH Found	CNIT	-0.762	2.915	RNA	1011008.0	1011010.0	1011156.0	1011021.0
antisense_494	1012025	-	CP065357.1 (321269-322127)	True	QRNA	31.793	2.548	RNA	1011164.0	1011164.0	1012025.0	1012025.0
antisense_495	1014626	+	CP068566.1 (744931-744024)	True	QRNA	23.293	1.533	RNA	1014628.0	1014628.0	1015535.0	1015535.0
antisense_496	1024164	+		OTH Found	CNIT	-0.476	-0.123	RNA	1024164.0	1024734.0	1025074.0	1024805.0
antisense_497	1025104	+		OTH Found	CNIT	-0.398	-0.958	RNA	1025104.0	1025486.0	1026014.0	1025548.0
antisense_498	1028927	-		OTH Found	CNIT	-0.526	0.408	RNA	1028111.0	1028808.0	1028927.0	1028834.0
antisense_499	1029200	-		OTH Found	CNIT	-0.595	1.143	RNA	1028927.0	1029044.0	1029200.0	1029061.0
antisense_500	1032779	-	CP068172.1 (1254768-1255665)	True	QRNA	18.506	0.228	COD	1031875.0	1031885.0	1032775.0	1032679.0
antisense_501	1033839	-		OTH Found	CNIT	-0.571	0.88	RNA	1032929.0	1033510.0	1033839.0	1033536.0
antisense_502	1034007	-		OTH Found	CNIT	-0.511	0.242	RNA	1033839.0	1033980.0	1034007.0	1034006.0
antisense_503	1034284	-		OTH Found	CNIT	-0.421	-0.714	RNA	1034007.0	1034080.0	1034284.0	1034121.0
antisense_504	1034336	-		OTH Found	CNIT	-0.691	2.163	RNA	1034284.0	1034314.0	1034336.0	1034331.0
antisense_505	1035555	-	CP059597.1 (811188-810283)	True	QRNA	20.425	1.19	RNA	1034646.0	1034646.0	1035554.0	1035554.0
antisense_506	1035767	-		OTH Found	CNIT	-0.62	1.401	RNA	1035555.0	1035555.0	1035767.0	1035581.0
antisense_507	1037579	-	CP083378.1 (978985-979837)	True	QRNA	13.652	0.381	RNA	1036717.0	1036717.0	1037578.0	1037578.0
antisense_508	1038042	-		OTH Found	CNIT	-0.551	0.671	RNA	1037579.0	1037629.0	1038042.0	1037670.0
antisense_509	1038549	-	CP076657.1 (1091256-1090757)	True	QRNA	18.189	0.923	RNA	1038043.0	1038043.0	1038547.0	1038547.0
antisense_510	1039410	-		OTH Found	CNIT	-0.425	-0.669	RNA	1038549.0	1039138.0	1039410.0	1039230.0
antisense_511	1039649	-		OTH Found	CNIT	-0.536	0.506	RNA	1039410.0	1039592.0	1039649.0	1039618.0
antisense_512	1039837	-		OTH Found	CNIT	-0.661	1.84	RNA	1039649.0	1039818.0	1039837.0	1039835.0
antisense_513	1041464	-		OTH Found	CNIT	-0.423	-0.69	RNA	1040554.0	1041000.0	1041464.0	1041062.0
antisense_514	1041664	-		OTH Found	CNIT	-0.424	-0.676	RNA	1041464.0	1041543.0	1041664.0	1041611.0
antisense_515	1042279	-		OTH Found	CNIT	-0.43	-0.621	RNA	1041664.0	1041804.0	1042279.0	1041884.0
antisense_516	1043049	-	CP076657.1 (1095772-1095006)	True	QRNA	13.696	0.386	RNA	1042280.0	1042280.0	1043049.0	1043049.0
antisense_517	1043832	+		OTH Found	CNIT	-0.462	-0.276	RNA	1043832.0	1044519.0	1044742.0	1044572.0
antisense_518	1046270	-	OU532556.1 (665548-666192)	True	QRNA	14.679	0.504	RNA	1045619.0	1045619.0	1046262.0	1046262.0
antisense_519	1046345	-	CP018791.1 (895083-895143)	False	QRNA	3.972	-0.772	COD	1046275.0	1046288.0	1046335.0	1046317.0
antisense_520	1046688	+		OTH Found	CNIT	-0.347	-1.506	RNA	1046688.0	1046885.0	1047104.0	1047028.0
antisense_521	1047104	+		OTH Found	CNIT	-0.451	-0.396	RNA	1047104.0	1047109.0	1048014.0	1047156.0
antisense_523	1049488	+		OTH Found	CNIT	-0.55	0.658	RNA	1049488.0	1049493.0	1049759.0	1049519.0
antisense_524	1049759	+		OTH Found	CNIT	-0.588	1.064	RNA	1049759.0	1049877.0	1050204.0	1049909.0
antisense_525	1050204	+	CP059374.1 (318330-318266)	False	QRNA	10.59	-0.317	COD	1050209.0	1050224.0	1050273.0	1050256.0
antisense_526	1050275	+		OTH Found	CNIT	-0.43	-0.614	RNA	1050275.0	1050625.0	1051185.0	1050669.0
antisense_527	1051972	+		OTH Found	CNIT	-0.513	0.268	RNA	1051972.0	1052411.0	1052882.0	1052449.0
antisense_528	1056899	+		OTH Found	CNIT	-0.503	0.161	RNA	1056899.0	1057201.0	1057809.0	1057245.0
antisense_529	1059165	+		OTH Found	CNIT	-0.505	0.184	RNA	1059165.0	1059703.0	1060075.0	1059735.0
antisense_530	1067079	-		OTH Found	CNIT	-0.585	1.034	RNA	1066733.0	1066747.0	1067079.0	1066764.0
antisense_531	1067269	-		OTH Found	CNIT	-0.575	0.923	RNA	1067079.0	1067126.0	1067269.0	1067143.0
antisense_532	1069169	-		OTH Found	CNIT	-0.506	0.188	RNA	1068259.0	1068461.0	1069169.0	1068505.0
antisense_533	1070998	-		OTH Found	CNIT	-0.537	0.521	RNA	1070088.0	1070138.0	1070998.0	1070164.0
antisense_539	1072053	+		OTH Found	CNIT	-0.594	1.125	RNA	1072053.0	1072134.0	1072461.0	1072160.0
antisense_537	1072864	-		OTH Found	CNIT	-0.656	1.783	RNA	1072403.0	1072466.0	1072864.0	1072489.0
antisense_536	1073884	+		OTH Found	CNIT	-0.486	-0.018	RNA	1073884.0	1074281.0	1074566.0	1074322.0
antisense_535	1075026	-		OTH Found	CNIT	-0.573	0.909	RNA	1074530.0	1075008.0	1075026.0	1075025.0
antisense_534	1077155	-		OTH Found	CNIT	-0.466	-0.239	RNA	1076245.0	1076782.0	1077155.0	1076862.0
antisense_540	1078622	-		OTH Found	CNIT	-0.481	-0.073	RNA	1077712.0	1078536.0	1078622.0	1078574.0
antisense_541	1081253	-	CP059597.1 (860375-860003)	True	QRNA	13.227	0.33	RNA	1080880.0	1080987.0	1081253.0	1081253.0
antisense_542	1081504	-		OTH Found	CNIT	-0.455	-0.35	RNA	1081253.0	1081365.0	1081504.0	1081403.0
antisense_543	1087977	+		OTH Found	CNIT	-0.671	1.951	RNA	1087977.0	1087991.0	1088335.0	1087999.0
antisense_545	1090232	-		OTH Found	CNIT	0.545	-1.284	COD	1089322.0	1089799.0	1090232.0	1090179.0
antisense_546	1090757	-		OTH Found	CNIT	-0.476	-0.127	RNA	1090232.0	1090285.0	1090757.0	1090344.0
antisense_547	1090820	-		OTH Found	CNIT	-0.645	1.674	RNA	1090757.0	1090767.0	1090820.0	1090781.0
antisense_548	1095088	+		OTH Found	CNIT	-0.455	-0.348	RNA	1095088.0	1095164.0	1095230.0	1095217.0
antisense_549	1095230	+	CP053849.1 (1192843-1191979)	True	QRNA	0.8	-1.154	RNA	1095240.0	1095240.0	1096119.0	1096119.0
antisense_550	1098962	+		OTH Found	CNIT	-0.377	-1.183	RNA	1098962.0	1099382.0	1099872.0	1099522.0
antisense_551	1106308	+	CP020867.1 (1534590-1533681)	False	QRNA	6.416	-0.604	COD	1106308.0	1106441.0	1107217.0	1107164.0
antisense_552	1112753	+		OTH Found	CNIT	-0.41	-0.829	RNA	1112753.0	1112938.0	1113663.0	1113003.0
antisense_553	1113927	+		OTH Found	CNIT	-0.966	5.084	RNA	1113927.0	1113930.0	1113965.0	1113938.0
antisense_554	1113965	+		OTH Found	CNIT	-0.528	0.43	RNA	1113965.0	1114571.0	1114719.0	1114633.0
antisense_555	1114719	+		OTH Found	CNIT	-0.524	0.388	RNA	1114719.0	1114720.0	1114866.0	1114773.0
antisense_556	1114866	+	CP063091.1 (1254240-1253341)	True	QRNA	11.483	0.122	RNA	1114866.0	1114866.0	1115775.0	1115775.0
antisense_557	1119344	+		OTH Found	CNIT	-0.579	0.973	RNA	1119344.0	1119877.0	1119919.0	1119918.0
antisense_558	1120925	-	CP007769.1 (1164685-1163797)	False	QRNA	5.95	-0.636	COD	1120037.0	1120153.0	1120925.0	1120917.0
antisense_559	1121954	+		OTH Found	CNIT	-0.56	0.771	RNA	1121954.0	1122075.0	1122289.0	1122128.0
antisense_560	1123680	-		OTH Found	CNIT	0.689	2.235	COD	1122770.0	1123346.0	1123680.0	1123672.0
antisense_561	1124397	+	CP059374.1 (250809-249900)	True	QRNA	13.042	0.308	RNA	1124399.0	1124399.0	1125303.0	1125303.0
antisense_562	1134964	+		OTH Found	CNIT	-0.425	-0.676	RNA	1134964.0	1135152.0	1135671.0	1135223.0
antisense_563	1135671	+		OTH Found	CNIT	-0.462	-0.276	RNA	1135671.0	1135826.0	1136581.0	1135891.0
antisense_565	1140004	-	CP059597.1 (330484-331394)	True	QRNA	35.96	3.045	RNA	1139095.0	1139095.0	1140003.0	1140003.0
antisense_566	1144173	-		OTH Found	CNIT	-0.476	-0.131	RNA	1143791.0	1143931.0	1144173.0	1144020.0
antisense_567	1145605	+	CP041617.1 (678719-679620)	True	QRNA	18.068	0.909	RNA	1145605.0	1145605.0	1146509.0	1146509.0
antisense_568	1148326	+		OTH Found	CNIT	-0.645	1.666	RNA	1148326.0	1148335.0	1148544.0	1148352.0
antisense_569	1148544	+		OTH Found	CNIT	-0.427	-0.653	RNA	1148544.0	1148793.0	1149145.0	1148873.0
antisense_570	1150072	-		OTH Found	CNIT	-0.424	-0.677	RNA	1149261.0	1149788.0	1150072.0	1149862.0
antisense_571	1153723	-	CP010489.1 (896091-895518)	True	QRNA	5.013	-0.65	RNA	1153147.0	1153215.0	1153723.0	1153723.0
antisense_572	1154072	+	CP059597.1 (316582-315687)	True	QRNA	17.146	0.799	RNA	1154072.0	1154072.0	1154977.0	1154977.0
antisense_573	1161668	-		OTH Found	CNIT	-0.444	-0.47	RNA	1160758.0	1161157.0	1161668.0	1161198.0
antisense_574	1163283	-	CP076657.1 (478785-479694)	True	QRNA	9.673	-0.094	RNA	1162374.0	1162374.0	1163283.0	1163283.0
antisense_575	1164075	-	CP041617.1 (907663-906915)	True	QRNA	20.392	1.186	RNA	1163316.0	1163316.0	1164063.0	1164063.0
antisense_576	1171539	-		OTH Found	CNIT	-0.476	-0.131	RNA	1170629.0	1171355.0	1171539.0	1171414.0
antisense_577	1172201	-		OTH Found	CNIT	-0.505	0.18	RNA	1171539.0	1171752.0	1172201.0	1171793.0
antisense_578	1173867	+		OTH Found	CNIT	-0.501	0.139	RNA	1173867.0	1174154.0	1174777.0	1174201.0
antisense_579	1176107	+	HG326877.1 (839073-838718)	False	QRNA	9.3	-0.405	COD	1176107.0	1176170.0	1176461.0	1176417.0
antisense_580	1179623	-	OU701459.1 (978743-979628)	True	QRNA	13.864	0.407	RNA	1178732.0	1178732.0	1179623.0	1179623.0
antisense_581	1182488	-		OTH Found	CNIT	-0.436	-0.555	RNA	1181578.0	1181846.0	1182488.0	1181884.0
antisense_582	1182725	-		OTH Found	CNIT	-0.422	-0.7	RNA	1182488.0	1182532.0	1182725.0	1182660.0
antisense_583	1182873	-		OTH Found	CNIT	-0.451	-0.396	RNA	1182725.0	1182753.0	1182873.0	1182827.0
antisense_584	1189446	-	CP086167.1 (1232743-1231831)	True	QRNA	28.389	2.141	RNA	1188537.0	1188537.0	1189446.0	1189446.0
antisense_585	1192283	-		OTH Found	CNIT	-0.509	0.227	RNA	1191712.0	1191853.0	1192283.0	1191885.0
antisense_586	1193280	-	CP059597.1 (358948-359851)	True	QRNA	47.351	4.406	RNA	1192371.0	1192371.0	1193274.0	1193274.0
antisense_587	1203005	+		OTH Found	CNIT	-0.402	-0.913	RNA	1203005.0	1203232.0	1203915.0	1203327.0
antisense_588	1204646	+		OTH Found	CNIT	-0.528	0.421	RNA	1204646.0	1204940.0	1205556.0	1204999.0
antisense_589	1213295	+		OTH Found	CNIT	-0.518	0.323	RNA	1213295.0	1213390.0	1213877.0	1213473.0
antisense_590	1219672	+		OTH Found	CNIT	-0.423	-0.692	RNA	1219672.0	1219854.0	1220582.0	1219910.0
antisense_591	1228114	-		OTH Found	CNIT	-0.414	-0.79	RNA	1227204.0	1227652.0	1228114.0	1227705.0
antisense_592	1229653	-		OTH Found	CNIT	-0.507	0.202	RNA	1228743.0	1229245.0	1229653.0	1229268.0
antisense_593	1229739	-		OTH Found	CNIT	-0.563	0.803	RNA	1229653.0	1229697.0	1229739.0	1229714.0
antisense_594	1234831	+		OTH Found	CNIT	-0.478	-0.104	RNA	1234831.0	1234876.0	1235741.0	1234917.0
antisense_595	1237906	-	LR134534.1 (966892-965986)	True	QRNA	16.074	0.67	RNA	1236997.0	1237083.0	1237906.0	1237906.0
antisense_596	1237946	-	CP007776.2 (1260970-1260932)	False	QRNA	1.383	-0.95	COD	1237907.0	1237915.0	1237945.0	1237944.0
antisense_597	1240553	+		OTH Found	CNIT	-0.555	0.711	RNA	1240553.0	1240802.0	1240947.0	1240828.0
antisense_598	1241392	-		OTH Found	CNIT	-0.483	-0.049	RNA	1240922.0	1241262.0	1241392.0	1241294.0
antisense_599	1244266	+	CP059597.1 (977224-978118)	False	QRNA	18.992	0.261	COD	1244270.0	1244311.0	1245164.0	1245138.0
antisense_600	1247509	-	HG326877.1 (774989-775871)	True	QRNA	21.56	1.326	RNA	1246600.0	1246600.0	1247509.0	1247509.0
antisense_601	1248148	-	AP025957.1 (1418844-1418200)	True	QRNA	12.534	0.248	RNA	1247510.0	1247510.0	1248148.0	1248148.0
antisense_602	1249096	-		OTH Found	CNIT	-0.414	-0.787	RNA	1248186.0	1248351.0	1249096.0	1248437.0
antisense_603	1249629	-		OTH Found	CNIT	-0.468	-0.213	RNA	1249096.0	1249121.0	1249629.0	1249198.0
antisense_604	1250712	-		OTH Found	CNIT	-0.386	-1.086	RNA	1249802.0	1249830.0	1250712.0	1249901.0
antisense_605	1258638	-	CP047482.1 (332399-331516)	True	QRNA	8.04	-0.289	RNA	1257746.0	1257827.0	1258638.0	1258574.0
antisense_606	1260493	-	CP031611.1 (94267-95058)	True	QRNA	9.697	-0.091	RNA	1259700.0	1259700.0	1260491.0	1260491.0
antisense_607	1261096	-		OTH Found	CNIT	-0.499	0.119	RNA	1260493.0	1260540.0	1261096.0	1260563.0
antisense_608	1261644	-		OTH Found	CNIT	-0.632	1.537	RNA	1261096.0	1261330.0	1261644.0	1261341.0
antisense_609	1261977	-		OTH Found	CNIT	-0.597	1.159	RNA	1261644.0	1261690.0	1261977.0	1261734.0
antisense_610	1262171	-		OTH Found	CNIT	-0.672	1.954	RNA	1261977.0	1262078.0	1262171.0	1262125.0
antisense_611	1262421	-		OTH Found	CNIT	-0.517	0.311	RNA	1262171.0	1262219.0	1262421.0	1262284.0
antisense_612	1263012	-		OTH Found	CNIT	-0.454	-0.36	RNA	1262421.0	1262930.0	1263012.0	1262959.0
antisense_613	1264336	-	CP010509.1 (1146626-1145744)	True	QRNA	51.013	4.843	RNA	1263427.0	1263427.0	1264329.0	1264329.0
antisense_614	1264975	-	AP025957.1 (1418844-1418200)	True	QRNA	12.534	0.248	RNA	1264337.0	1264337.0	1264975.0	1264975.0
antisense_615	1265460	-	CP000768.1 (333701-334195)	True	QRNA	18.053	0.907	RNA	1264976.0	1264976.0	1265458.0	1265413.0
antisense_616	1268615	+		OTH Found	CNIT	0.635	0.923	COD	1268615.0	1268903.0	1269525.0	1269067.0
antisense_617	1274424	+	CP063536.1 (1146544-1147454)	True	QRNA	15.823	0.641	RNA	1274425.0	1274425.0	1275333.0	1275333.0
antisense_618	1277162	+	CP020867.1 (92883-92094)	True	QRNA	15.835	0.642	RNA	1277166.0	1277166.0	1277955.0	1277955.0
antisense_619	1277956	+	CP043428.1 (1485538-1486369)	True	QRNA	16.108	0.675	RNA	1277958.0	1277958.0	1278789.0	1278789.0
antisense_620	1284490	-	CP059374.1 (70838-71777)	True	QRNA	9.492	-0.116	RNA	1283591.0	1283591.0	1284483.0	1284483.0
antisense_621	1285862	-		OTH Found	CNIT	-0.44	-0.506	RNA	1284952.0	1285125.0	1285862.0	1285187.0
antisense_622	1286962	-	CP076657.1 (687348-686456)	True	QRNA	15.472	0.599	RNA	1286057.0	1286057.0	1286962.0	1286962.0
antisense_623	1287118	-	CP076657.1 (687503-687351)	False	QRNA	2.581	-0.868	COD	1286965.0	1287007.0	1287117.0	1287096.0
antisense_624	1291275	-		OTH Found	CNIT	-0.532	0.468	RNA	1290996.0	1291151.0	1291275.0	1291183.0
antisense_625	1291980	-	CP063083.1 (1076824-1076120)	False	QRNA	26.083	0.749	COD	1291276.0	1291289.0	1291980.0	1291888.0
antisense_626	1292128	-		OTH Found	CNIT	-0.496	0.084	RNA	1291980.0	1291991.0	1292128.0	1292020.0
antisense_627	1299446	+	CP035894.1 (1416591-1417497)	True	QRNA	5.989	-0.534	RNA	1299446.0	1299446.0	1300355.0	1300355.0
antisense_628	1302322	+	CP037747.1 (939685-938785)	True	QRNA	15.411	0.591	RNA	1302323.0	1302323.0	1303225.0	1303225.0
antisense_629	1305532	-		OTH Found	CNIT	-0.418	-0.743	RNA	1305001.0	1305255.0	1305532.0	1305317.0
antisense_630	1308554	-		OTH Found	CNIT	-0.45	-0.407	RNA	1307644.0	1308461.0	1308554.0	1308538.0
antisense_631	1311261	-	CP076657.1 (1222324-1221427)	True	QRNA	11.405	0.113	RNA	1310355.0	1310355.0	1311261.0	1311261.0
antisense_632	1311541	-		OTH Found	CNIT	-0.388	-1.062	RNA	1311261.0	1311346.0	1311541.0	1311486.0
antisense_633	1312898	-		OTH Found	CNIT	-0.404	-0.891	RNA	1312424.0	1312832.0	1312898.0	1312894.0
antisense_634	1313059	-		OTH Found	CNIT	-0.451	-0.399	RNA	1312898.0	1312928.0	1313059.0	1313053.0
antisense_635	1313194	-		OTH Found	CNIT	-0.664	1.871	RNA	1313059.0	1313161.0	1313194.0	1313178.0
antisense_636	1319051	-		OTH Found	CNIT	-0.486	-0.026	RNA	1318141.0	1319004.0	1319051.0	1319036.0
antisense_637	1320034	-	CP076657.1 (1230957-1230048)	True	QRNA	8.319	-0.256	RNA	1319125.0	1319384.0	1320033.0	1320033.0
antisense_638	1322097	+		OTH Found	CNIT	-0.584	1.019	RNA	1322097.0	1322268.0	1322495.0	1322294.0
antisense_639	1322851	-	CP022347.1 (1639730-1640120)	False	QRNA	3.273	-0.82	COD	1322462.0	1322528.0	1322851.0	1322824.0
antisense_640	1323005	-	CP014568.1 (1074261-1074414)	False	QRNA	3.999	-0.77	COD	1322852.0	1322864.0	1323005.0	1322976.0
antisense_641	1324392	-		OTH Found	CNIT	-0.485	-0.029	RNA	1323482.0	1323706.0	1324392.0	1323759.0
antisense_642	1324692	+		OTH Found	CNIT	-0.502	0.144	RNA	1324692.0	1324951.0	1325272.0	1324983.0
antisense_643	1328481	-	CP059600.1 (586198-585294)	False	QRNA	11.508	-0.254	COD	1327572.0	1327640.0	1328477.0	1328476.0
antisense_644	1329970	-	CP035946.1 (68848-69743)	True	QRNA	3.691	-0.808	RNA	1329066.0	1329155.0	1329970.0	1329970.0
antisense_645	1330499	-	CP053825.1 (237532-237006)	True	QRNA	12.067	-0.215	COD	1329971.0	1330015.0	1330497.0	1330320.0
antisense_646	1331052	-	CP058336.1 (1391514-1390963)	True	QRNA	20.073	1.148	RNA	1330500.0	1330500.0	1331052.0	1331052.0
antisense_647	1331399	-		OTH Found	CNIT	-0.5	0.128	RNA	1331052.0	1331068.0	1331399.0	1331124.0
antisense_648	1342421	+		OTH Found	CNIT	-0.435	-0.567	RNA	1342421.0	1342424.0	1343331.0	1342474.0
antisense_649	1344985	+		OTH Found	CNIT	-0.677	2.008	RNA	1344985.0	1344990.0	1345181.0	1345010.0
antisense_650	1345181	+	CP020478.1 (140046-139564)	False	QRNA	10.781	-0.304	COD	1345189.0	1345268.0	1345671.0	1345624.0
antisense_651	1345674	+		OTH Found	CNIT	-0.505	0.178	RNA	1345674.0	1345714.0	1346584.0	1345743.0
antisense_652	1352388	+	HG326877.1 (1365412-1364506)	True	QRNA	14.841	0.523	RNA	1352388.0	1352388.0	1353297.0	1353297.0
antisense_653	1355207	+	LS483295.1 (1167000-1167908)	True	QRNA	28.264	2.126	RNA	1355207.0	1355207.0	1356116.0	1356116.0
antisense_654	1358561	+		OTH Found	CNIT	-0.464	-0.258	RNA	1358561.0	1359099.0	1359471.0	1359146.0
antisense_655	1363701	+		OTH Found	CNIT	-0.516	0.296	RNA	1363701.0	1364125.0	1364611.0	1364151.0
antisense_656	1365872	+		OTH Found	CNIT	-0.579	0.966	RNA	1365872.0	1366606.0	1366782.0	1366656.0
antisense_657	1367010	+		OTH Found	CNIT	-0.62	1.41	RNA	1367010.0	1367107.0	1367295.0	1367127.0
antisense_658	1367295	+		OTH Found	CNIT	-0.522	0.362	RNA	1367295.0	1367578.0	1367942.0	1367613.0
antisense_659	1367942	+		OTH Found	CNIT	-0.58	0.982	RNA	1367942.0	1368246.0	1368446.0	1368272.0
antisense_660	1368446	+	CP040613.1 (1409266-1409473)	False	QRNA	-0.012	-1.044	COD	1368446.0	1368449.0	1368653.0	1368526.0
antisense_661	1368654	+		OTH Found	CNIT	-0.431	-0.606	RNA	1368654.0	1368668.0	1369099.0	1368745.0
antisense_662	1369099	+	LR134372.1 (1476268-1477145)	True	QRNA	12.59	0.254	RNA	1369102.0	1369102.0	1369978.0	1369978.0
antisense_663	1371930	+		OTH Found	CNIT	-0.5	0.124	RNA	1371930.0	1372000.0	1372061.0	1372032.0
antisense_664	1372061	+		OTH Found	CNIT	-0.585	1.036	RNA	1372061.0	1372367.0	1372388.0	1372381.0
antisense_665	1372388	+		OTH Found	CNIT	-0.529	0.433	RNA	1372388.0	1372524.0	1373298.0	1372541.0
antisense_666	1374815	+	CP048761.1 (1381232-1382125)	True	QRNA	6.468	-0.477	RNA	1374823.0	1374823.0	1375716.0	1375716.0
antisense_667	1376212	+	AP025951.1 (1382716-1383626)	True	QRNA	21.148	1.276	RNA	1376212.0	1376212.0	1377121.0	1377121.0
antisense_668	1377263	+		OTH Found	CNIT	-0.5	0.124	RNA	1377263.0	1377466.0	1377527.0	1377498.0
antisense_669	1377527	+		OTH Found	CNIT	-0.513	0.265	RNA	1377527.0	1378064.0	1378437.0	1378102.0
antisense_670	1379301	+		OTH Found	CNIT	-0.635	1.565	RNA	1379301.0	1379675.0	1379916.0	1379701.0
antisense_671	1379916	+		OTH Found	CNIT	-0.721	2.484	RNA	1379916.0	1379947.0	1380102.0	1379967.0
antisense_672	1380102	+		OTH Found	CNIT	-0.513	0.262	RNA	1380102.0	1380642.0	1381012.0	1380677.0
antisense_673	1387107	+	CP076657.1 (308994-308145)	True	QRNA	13.882	0.409	RNA	1387109.0	1387109.0	1387977.0	1387977.0
antisense_674	1392021	+		OTH Found	CNIT	-0.446	-0.448	RNA	1392021.0	1392236.0	1392561.0	1392298.0
orphan_13	1393825	-		OTH Found	CNIT	-0.437	-0.545	RNA	1392915.0	1393542.0	1393825.0	1393583.0
antisense_675	1397673	-	HG326877.1 (641707-642609)	True	QRNA	18.325	0.939	RNA	1396766.0	1396766.0	1397668.0	1397668.0
antisense_676	1398675	-		OTH Found	CNIT	-0.443	-0.477	RNA	1397765.0	1397985.0	1398675.0	1398032.0
antisense_677	1399770	-		OTH Found	CNIT	-0.361	-1.353	RNA	1398860.0	1398865.0	1399770.0	1398915.0
antisense_678	1400183	-		OTH Found	CNIT	-0.428	-0.64	RNA	1399770.0	1400078.0	1400183.0	1400107.0
antisense_679	1400940	-	OU701461.1 (1466964-1467709)	False	QRNA	2.286	-0.888	COD	1400185.0	1400244.0	1400930.0	1400930.0
antisense_680	1404917	+		OTH Found	CNIT	-0.481	-0.071	RNA	1404917.0	1405517.0	1405827.0	1405564.0
antisense_681	1408059	+		OTH Found	CNIT	-0.508	0.216	RNA	1408059.0	1408910.0	1408969.0	1408969.0
antisense_682	1414120	+	CP020478.1 (1654188-1653447)	True	QRNA	2.997	-0.891	RNA	1414120.0	1414120.0	1414873.0	1414873.0
antisense_683	1419229	+		OTH Found	CNIT	-0.492	0.045	RNA	1419229.0	1419581.0	1420139.0	1419655.0
antisense_684	1420991	+	CP059597.1 (1157863-1158752)	True	QRNA	15.454	0.596	RNA	1420998.0	1420998.0	1421890.0	1421890.0
antisense_685	1423674	+	CP006999.2 (349735-348830)	False	QRNA	3.081	-0.833	COD	1423674.0	1423800.0	1424581.0	1424387.0
antisense_686	1434018	-	CP063536.1 (1317704-1316784)	True	QRNA	9.403	-0.126	RNA	1433109.0	1433109.0	1434018.0	1433799.0
antisense_687	1434434	+	LR134372.1 (1576426-1575520)	False	QRNA	50.383	2.42	COD	1434437.0	1434471.0	1435343.0	1435343.0
antisense_688	1436192	+	CP022347.1 (92489-93396)	False	QRNA	46.388	2.145	COD	1436192.0	1436192.0	1437099.0	1437019.0
antisense_689	1437361	+		OTH Found	CNIT	-0.645	1.667	RNA	1437361.0	1437390.0	1437607.0	1437410.0
antisense_690	1437607	+		OTH Found	CNIT	-0.454	-0.365	RNA	1437607.0	1437818.0	1438517.0	1437889.0
antisense_691	1438750	+	CP007769.1 (347985-347194)	True	QRNA	15.989	0.66	RNA	1438751.0	1438751.0	1439526.0	1439506.0
antisense_692	1440817	+		OTH Found	CNIT	0.572	-0.612	COD	1440817.0	1441107.0	1441505.0	1441400.0
antisense_693	1441505	+	CP076657.1 (1404701-1405598)	True	QRNA	19.492	1.079	RNA	1441505.0	1441505.0	1442399.0	1442399.0
antisense_694	1442709	+	CP059597.1 (1172530-1173406)	True	QRNA	17.548	0.847	RNA	1442711.0	1442711.0	1443612.0	1443612.0
antisense_695	1448674	+	CP053844.1 (1954962-1955281)	False	QRNA	26.307	0.764	COD	1448676.0	1448682.0	1448995.0	1448978.0
antisense_696	1449174	+		OTH Found	CNIT	-0.383	-1.112	RNA	1449174.0	1449249.0	1450084.0	1449311.0
antisense_697	1452143	-	CP059597.1 (1181693-1181066)	True	QRNA	10.214	-0.029	RNA	1451501.0	1451501.0	1452141.0	1452141.0
antisense_698	1454149	-	CP053830.1 (331044-331934)	True	QRNA	8.673	-0.213	RNA	1453242.0	1453242.0	1454140.0	1454140.0
antisense_699	1461108	-	HG326877.1 (586402-587312)	True	QRNA	12.009	0.185	RNA	1460201.0	1460201.0	1461107.0	1461107.0
antisense_700	1463407	-	CP076657.1 (273199-274087)	True	QRNA	36.409	3.099	RNA	1462520.0	1462520.0	1463406.0	1463406.0
antisense_701	1465568	+	CP063536.1 (1345193-1346042)	True	QRNA	15.602	0.614	RNA	1465569.0	1465569.0	1466477.0	1466477.0
antisense_702	1471521	+	CP020478.1 (347119-347491)	True	QRNA	32.469	1.188	COD	1471522.0	1471533.0	1471894.0	1471892.0
antisense_703	1471901	+	CP076657.1 (158680-159041)	True	QRNA	9.258	-0.144	RNA	1471902.0	1471902.0	1472251.0	1472251.0
antisense_704	1475730	+		OTH Found	CNIT	-0.488	-0.005	RNA	1475730.0	1475731.0	1476640.0	1475787.0
antisense_705	1477578	-		OTH Found	CNIT	-0.524	0.385	RNA	1477235.0	1477436.0	1477578.0	1477492.0
antisense_706	1478471	+		OTH Found	CNIT	-0.44	-0.511	RNA	1478471.0	1478556.0	1479381.0	1478609.0
antisense_707	1482795	+		OTH Found	CNIT	-0.547	0.624	RNA	1482795.0	1483033.0	1483705.0	1483062.0
antisense_708	1487782	+		OTH Found	CNIT	-0.396	-0.98	RNA	1487782.0	1488638.0	1488692.0	1488691.0
antisense_709	1492313	-		OTH Found	CNIT	-0.565	0.824	RNA	1491923.0	1492024.0	1492313.0	1492068.0
antisense_710	1492990	-	CP063536.1 (1355756-1355084)	True	QRNA	7.89	-0.307	RNA	1492318.0	1492318.0	1492986.0	1492986.0
antisense_711	1498130	+		OTH Found	CNIT	-0.463	-0.269	RNA	1498130.0	1498150.0	1498478.0	1498239.0
antisense_712	1498478	+		OTH Found	CNIT	-0.438	-0.533	RNA	1498478.0	1499198.0	1499388.0	1499251.0
antisense_713	1502250	+		OTH Found	CNIT	-0.443	-0.484	RNA	1502250.0	1502309.0	1503160.0	1502371.0
antisense_714	1509939	+		OTH Found	CNIT	-0.597	1.162	RNA	1509939.0	1510284.0	1510367.0	1510316.0
antisense_715	1510367	+	CP059597.1 (1405297-1404403)	True	QRNA	20.144	1.157	RNA	1510372.0	1510448.0	1511266.0	1511266.0
antisense_716	1512922	+		OTH Found	CNIT	-0.519	0.326	RNA	1512922.0	1513313.0	1513832.0	1513342.0
antisense_717	1514469	+		OTH Found	CNIT	-0.56	0.763	RNA	1514469.0	1514691.0	1514962.0	1514741.0
antisense_718	1514962	+	CP010058.1 (1585851-1586769)	True	QRNA	11.239	0.093	RNA	1514966.0	1514966.0	1515871.0	1515871.0
antisense_719	1518707	+		OTH Found	CNIT	-0.385	-1.098	RNA	1518707.0	1518983.0	1519144.0	1519072.0
antisense_720	1519144	+	CP063536.1 (1380037-1380927)	True	QRNA	24.79	1.711	RNA	1519144.0	1519144.0	1520052.0	1520052.0
antisense_721	1521368	-		OTH Found	CNIT	-0.734	2.62	RNA	1521021.0	1521293.0	1521368.0	1521304.0
antisense_722	1521648	-		OTH Found	CNIT	-0.517	0.312	RNA	1521368.0	1521607.0	1521648.0	1521630.0
antisense_723	1525643	-		OTH Found	CNIT	-0.531	0.453	RNA	1524733.0	1525198.0	1525643.0	1525263.0
antisense_724	1526827	-	CP041617.1 (1463861-1464762)	True	QRNA	6.451	-0.479	RNA	1525920.0	1525920.0	1526825.0	1526825.0
antisense_725	1527555	-	OU701459.1 (230895-231622)	False	QRNA	13.123	-0.143	COD	1526828.0	1526886.0	1527555.0	1527536.0
antisense_726	1536066	-	CP020478.1 (1476005-1475124)	False	QRNA	10.087	-0.351	COD	1535177.0	1535223.0	1536058.0	1535876.0
antisense_727	1536285	-		OTH Found	CNIT	-0.529	0.441	RNA	1536066.0	1536192.0	1536285.0	1536209.0
antisense_728	1537857	-	CP037747.1 (1570599-1571421)	True	QRNA	9.286	-0.14	RNA	1537034.0	1537034.0	1537857.0	1537857.0
antisense_729	1539827	-	CP059437.1 (1925793-1924896)	False	QRNA	18.501	0.227	COD	1538924.0	1539094.0	1539822.0	1539594.0
antisense_730	1541604	-	OU701461.1 (1088167-1087270)	False	QRNA	2.584	-0.867	COD	1540701.0	1540911.0	1541603.0	1541435.0
antisense_731	1542457	-		OTH Found	CNIT	-0.466	-0.238	RNA	1541604.0	1542095.0	1542457.0	1542139.0
antisense_732	1543686	-	CP059597.1 (1219914-1219003)	False	QRNA	14.527	-0.046	COD	1542778.0	1543069.0	1543686.0	1543677.0
antisense_733	1545230	-	CP059597.1 (1221454-1220551)	True	QRNA	34.101	2.823	RNA	1544323.0	1544323.0	1545226.0	1545226.0
antisense_734	1545372	-	CP027639.1 (166916-167036)	False	QRNA	0.54	-1.008	COD	1545246.0	1545251.0	1545366.0	1545358.0
antisense_735	1549329	-	CP086657.1 (152238-152780)	True	QRNA	13.929	0.414	RNA	1548780.0	1548780.0	1549321.0	1549321.0
antisense_736	1550052	-		OTH Found	CNIT	0.645	1.148	COD	1549329.0	1549673.0	1550052.0	1550026.0
antisense_737	1550115	-		OTH Found	CNIT	-0.736	2.642	RNA	1550052.0	1550055.0	1550115.0	1550066.0
antisense_738	1550524	-		OTH Found	CNIT	-0.414	-0.786	RNA	1550115.0	1550194.0	1550524.0	1550262.0
orphan_14	1554542	+	CP092022.1 (1619648-1620562)	True	QRNA	21.86	1.361	RNA	1554542.0	1554542.0	1555451.0	1555451.0
antisense_739	1556971	-	CP076657.1 (39298-38381)	True	QRNA	13.128	0.319	RNA	1556062.0	1556062.0	1556971.0	1556971.0
antisense_740	1557155	-		OTH Found	CNIT	-0.506	0.193	RNA	1556971.0	1557069.0	1557155.0	1557134.0
antisense_742	1557271	-		OTH Found	CNIT	-0.524	0.383	RNA	1557155.0	1557216.0	1557271.0	1557251.0
antisense_743	1557521	+		OTH Found	CNIT	-0.421	-0.713	RNA	1557521.0	1557779.0	1558431.0	1557826.0
antisense_744	1559581	-		OTH Found	CNIT	-0.458	-0.323	RNA	1558671.0	1559183.0	1559581.0	1559263.0
antisense_745	1559631	-		OTH Found	CNIT	-0.864	4.003	RNA	1559581.0	1559588.0	1559631.0	1559596.0
antisense_746	1559908	+	OU701461.1 (296233-295338)	False	QRNA	36.768	1.484	COD	1559915.0	1559961.0	1560810.0	1560809.0
antisense_747	1561033	+	CP020867.1 (1422031-1422936)	False	QRNA	8.609	-0.453	COD	1561036.0	1561046.0	1561940.0	1561820.0
antisense_748	1564087	-	CP076657.1 (425388-426294)	True	QRNA	7.934	-0.302	RNA	1563178.0	1563178.0	1564087.0	1564087.0
antisense_749	1566319	-	CP007773.1 (100127-99221)	True	QRNA	12.455	0.238	RNA	1565412.0	1565412.0	1566318.0	1566318.0
antisense_750	1566717	-	CP000932.1 (97518-97152)	False	QRNA	4.245	-0.753	COD	1566339.0	1566403.0	1566707.0	1566699.0
antisense_751	1569293	-		OTH Found	CNIT	-0.462	-0.276	RNA	1568383.0	1569020.0	1569293.0	1569115.0
antisense_752	1579795	+		OTH Found	CNIT	-0.452	-0.387	RNA	1579795.0	1579800.0	1580247.0	1579829.0
orphan_15	1580247	+	CP092018.1 (1632780-1633303)	True	QRNA	13.44	0.356	RNA	1580247.0	1580247.0	1580781.0	1580781.0
orphan_16	1580686	-	CP058299.1 (1588858-1588157)	True	QRNA	26.943	1.969	RNA	1580022.0	1580022.0	1580686.0	1580686.0
antisense_753	1580920	-	CP017032.1 (1628771-1628536)	True	QRNA	15.858	0.645	RNA	1580687.0	1580687.0	1580920.0	1580920.0
antisense_754	1582667	-		OTH Found	CNIT	-0.507	0.201	RNA	1581757.0	1581810.0	1582667.0	1581830.0
antisense_755	1583175	-	CP012195.1 (261916-262422)	True	QRNA	4.139	-0.755	RNA	1582669.0	1582669.0	1583175.0	1583175.0
antisense_756	1589585	+	CP044173.1 (292308-291397)	True	QRNA	18.812	0.997	RNA	1589585.0	1589585.0	1590494.0	1590494.0
antisense_758	1590526	+	CP076657.1 (77288-76416)	True	QRNA	31.26	2.484	RNA	1590528.0	1590528.0	1591399.0	1591399.0
antisense_759	1592137	+		OTH Found	CNIT	-0.538	0.532	RNA	1592137.0	1592157.0	1592280.0	1592180.0
antisense_760	1592280	+	CP041617.1 (1564053-1564962)	False	QRNA	54.891	2.73	COD	1592280.0	1592576.0	1593189.0	1593187.0
antisense_761	1595991	-	CP053849.1 (1542385-1541478)	False	QRNA	46.242	2.135	COD	1595082.0	1595120.0	1595991.0	1595991.0
antisense_762	1596827	-	CP063091.1 (815879-815056)	True	QRNA	13.989	0.421	RNA	1595996.0	1595996.0	1596819.0	1596819.0
antisense_764	1597427	-		OTH Found	CNIT	-0.415	-0.78	RNA	1596827.0	1597267.0	1597427.0	1597332.0
antisense_765	1598448	-		OTH Found	CNIT	-0.413	-0.799	RNA	1597538.0	1598289.0	1598448.0	1598447.0
antisense_766	1598695	-		OTH Found	CNIT	-0.432	-0.591	RNA	1598448.0	1598448.0	1598695.0	1598594.0
antisense_767	1602363	+		OTH Found	CNIT	-0.636	1.575	RNA	1602363.0	1602410.0	1602557.0	1602439.0
antisense_768	1602557	+	CP006702.2 (1616575-1617461)	True	QRNA	27.885	2.081	RNA	1602558.0	1602686.0	1603456.0	1603456.0
antisense_769	1603727	+		OTH Found	CNIT	-0.379	-1.161	RNA	1603727.0	1604493.0	1604637.0	1604576.0
antisense_770	1610547	-		OTH Found	CNIT	-0.36	-1.364	RNA	1609637.0	1609727.0	1610547.0	1609879.0
antisense_771	1610758	-	CP059597.1 (1483831-1483623)	False	QRNA	6.123	-0.624	COD	1610550.0	1610604.0	1610758.0	1610690.0
antisense_772	1614288	+	CP060705.1 (1855097-1855998)	False	QRNA	23.808	0.592	COD	1614290.0	1614334.0	1615191.0	1615096.0
antisense_773	1621967	+		OTH Found	CNIT	-0.414	-0.793	RNA	1621967.0	1622328.0	1622877.0	1622381.0
antisense_774	1626843	-	CP013116.1 (1513288-1512867)	True	QRNA	17.553	0.847	RNA	1626370.0	1626370.0	1626843.0	1626843.0
antisense_775	1629002	+	CP063091.1 (1202322-1203221)	False	QRNA	43.204	1.926	COD	1629002.0	1629026.0	1629904.0	1629893.0
antisense_776	1638630	+	CP017859.1 (1710015-1710767)	True	QRNA	2.337	-0.97	RNA	1638630.0	1638630.0	1639391.0	1639391.0
antisense_777	1640900	+		OTH Found	CNIT	-0.459	-0.311	RNA	1640900.0	1640924.0	1641457.0	1640965.0
antisense_778	1641457	+		No QRNA hit	CNIT	-0.993	5.375	RNA	1641457.0	1641460.0	1641482.0	1641468.0
